################################################################################
# Neural network connection values (weights and biases).
################################################################################
# Col  Name       Description
################################################################################
# 1    connection Neural network connection value.
# 2    t          Connection type (a = weight, b = bias).
# 3    index      Index enumerating weights.
# 4    l_s        Starting point layer (end point layer for biases).
# 5    n_s        Starting point neuron in starting layer (end point neuron for biases).
# 6    l_e        End point layer.
# 7    n_e        End point neuron in end layer.
################################################################################
#                      1 2         3     4     5     6     7
#             connection t     index   l_s   n_s   l_e   n_e
############################################################
  6.0721281262391746E-01 a         1     0     1     1     1
 -3.6454225704958254E-01 a         2     0     1     1     2
 -1.7977554588403519E-01 a         3     0     1     1     3
 -5.0277689967621908E-01 a         4     0     1     1     4
 -9.5282575795521351E-01 a         5     0     1     1     5
 -2.5488780122309599E-02 a         6     0     1     1     6
  1.9548385394084142E-01 a         7     0     1     1     7
 -6.6659288847801135E-01 a         8     0     1     1     8
 -1.6459871830751188E-01 a         9     0     1     1     9
 -5.7166202660292376E-01 a        10     0     1     1    10
  9.7227889637877069E-02 a        11     0     1     1    11
  1.9671693320896830E-01 a        12     0     1     1    12
  1.6870772816348956E-01 a        13     0     1     1    13
  6.4219738542311069E-02 a        14     0     1     1    14
  4.8051486402386256E-01 a        15     0     1     1    15
 -2.9143143511245490E-01 a        16     0     1     1    16
  8.6868184650377700E-01 a        17     0     1     1    17
  9.0657547375916392E-01 a        18     0     1     1    18
 -1.1826758931250687E+00 a        19     0     1     1    19
 -2.1655629535101709E-01 a        20     0     1     1    20
  4.9918923016700568E-02 a        21     0     1     1    21
  3.5060182360749287E-01 a        22     0     1     1    22
  1.9267221412801374E-02 a        23     0     1     1    23
  1.0162458106880509E-01 a        24     0     1     1    24
 -2.8740301433461896E-01 a        25     0     1     1    25
 -8.4282447853262832E-02 a        26     0     2     1     1
  4.4460013251887781E-01 a        27     0     2     1     2
  7.7900760633304714E-02 a        28     0     2     1     3
 -5.9848084034919084E-02 a        29     0     2     1     4
  8.7379293128832058E-01 a        30     0     2     1     5
 -1.3632142662120655E-01 a        31     0     2     1     6
  7.1381785032309422E-02 a        32     0     2     1     7
  3.4457346844608533E-01 a        33     0     2     1     8
 -1.0998217258435895E-01 a        34     0     2     1     9
 -4.5016930816357370E-01 a        35     0     2     1    10
 -2.2565664174202354E-01 a        36     0     2     1    11
  3.5119987513919965E-01 a        37     0     2     1    12
 -1.0029514215218815E+00 a        38     0     2     1    13
  3.4502065740057264E-01 a        39     0     2     1    14
  1.1466154056749078E+00 a        40     0     2     1    15
  4.0934249230446595E-01 a        41     0     2     1    16
 -6.8901679395394849E-02 a        42     0     2     1    17
  2.2299349780930608E-01 a        43     0     2     1    18
  1.2883502682281403E-01 a        44     0     2     1    19
  3.0379811057608308E-01 a        45     0     2     1    20
  5.9861004880934737E-02 a        46     0     2     1    21
  5.9657570110330382E-01 a        47     0     2     1    22
  3.5250342701795556E-02 a        48     0     2     1    23
  3.2738928916168003E-01 a        49     0     2     1    24
 -7.0538456623477075E-01 a        50     0     2     1    25
  1.1292637161129258E-01 a        51     0     3     1     1
  4.4375523882314069E-02 a        52     0     3     1     2
  3.2793002481396251E-02 a        53     0     3     1     3
 -2.2135988040913592E-03 a        54     0     3     1     4
 -1.0822906644600357E-01 a        55     0     3     1     5
 -1.9864770992720893E-01 a        56     0     3     1     6
 -1.1943514050558333E-01 a        57     0     3     1     7
  1.7262363756554228E-01 a        58     0     3     1     8
  2.1216710022148516E-01 a        59     0     3     1     9
  3.1817318962080551E-02 a        60     0     3     1    10
 -1.4965090774718540E-01 a        61     0     3     1    11
  2.1564461963931103E-01 a        62     0     3     1    12
  7.8369744894938087E-02 a        63     0     3     1    13
  4.6301048098314312E-02 a        64     0     3     1    14
 -6.8835279785657955E-02 a        65     0     3     1    15
 -2.6983650559857919E-01 a        66     0     3     1    16
  3.9159600993433158E-02 a        67     0     3     1    17
  2.3859535384359376E-01 a        68     0     3     1    18
  8.3883460835337733E-03 a        69     0     3     1    19
 -1.3119442932731398E-01 a        70     0     3     1    20
  1.0886565782671094E-01 a        71     0     3     1    21
 -7.3693519516270484E-02 a        72     0     3     1    22
 -7.5596647765979852E-02 a        73     0     3     1    23
 -9.3499496664116458E-02 a        74     0     3     1    24
 -2.8523696903318013E-01 a        75     0     3     1    25
  1.2368628048589611E-01 a        76     0     4     1     1
  1.3004848963213270E-01 a        77     0     4     1     2
  4.8328852241982684E-01 a        78     0     4     1     3
 -1.9906011713178129E-01 a        79     0     4     1     4
  2.2813193631413531E-01 a        80     0     4     1     5
 -1.9486983623173557E-01 a        81     0     4     1     6
 -2.8468510239429717E-01 a        82     0     4     1     7
 -8.3741018457367988E-01 a        83     0     4     1     8
  1.0651481538980325E+00 a        84     0     4     1     9
  3.6809400553128735E-01 a        85     0     4     1    10
 -1.6871526735110690E-01 a        86     0     4     1    11
 -6.7912328925179533E-01 a        87     0     4     1    12
  2.1737840776264580E-01 a        88     0     4     1    13
 -2.0012088227515390E-01 a        89     0     4     1    14
 -1.0678820741933237E+00 a        90     0     4     1    15
 -5.9680975781827864E-02 a        91     0     4     1    16
 -1.1198132099771465E+00 a        92     0     4     1    17
  5.0469550177474631E-01 a        93     0     4     1    18
  8.5261543144837915E-02 a        94     0     4     1    19
  9.0554948247978995E-02 a        95     0     4     1    20
 -1.4979107702238472E+00 a        96     0     4     1    21
 -1.5058985375750322E-01 a        97     0     4     1    22
  4.7521695047319440E-01 a        98     0     4     1    23
  2.2719161549136899E-01 a        99     0     4     1    24
 -1.1134564304308694E+00 a       100     0     4     1    25
  5.7499642950897989E-01 a       101     0     5     1     1
 -2.3583504751256087E-01 a       102     0     5     1     2
 -2.9340782376489315E-02 a       103     0     5     1     3
 -4.1722062179334402E-01 a       104     0     5     1     4
 -1.4173740456834627E-01 a       105     0     5     1     5
 -3.8531755318087701E-01 a       106     0     5     1     6
  3.4992036868559603E-02 a       107     0     5     1     7
 -6.2962530597163346E-01 a       108     0     5     1     8
 -5.4160750518056071E-02 a       109     0     5     1     9
 -1.8310526678913300E-01 a       110     0     5     1    10
  4.7180439144243186E-01 a       111     0     5     1    11
 -3.2732995186395791E-01 a       112     0     5     1    12
  7.6050075271844919E-01 a       113     0     5     1    13
  4.8090043717637626E-01 a       114     0     5     1    14
 -1.4879795656902240E-02 a       115     0     5     1    15
 -2.8654862940656595E-01 a       116     0     5     1    16
  2.2934959792575660E-01 a       117     0     5     1    17
  4.0649242089322662E-01 a       118     0     5     1    18
 -2.7630613983093827E-02 a       119     0     5     1    19
 -3.2354514974899207E-01 a       120     0     5     1    20
 -2.6886064957601841E-01 a       121     0     5     1    21
 -3.1513710136809447E-01 a       122     0     5     1    22
  2.9112376894746363E-02 a       123     0     5     1    23
 -3.8918026643121867E-01 a       124     0     5     1    24
  5.1480011988291406E-02 a       125     0     5     1    25
 -2.3462492560039261E-01 a       126     0     6     1     1
  1.1509854685878965E-01 a       127     0     6     1     2
 -1.3653055645000695E-01 a       128     0     6     1     3
  1.0476986741576001E-01 a       129     0     6     1     4
 -2.5102690555512674E-01 a       130     0     6     1     5
  1.9112855004655049E-01 a       131     0     6     1     6
 -2.6351245091108200E-02 a       132     0     6     1     7
 -6.3417378436176106E-02 a       133     0     6     1     8
 -3.0076080671273056E-02 a       134     0     6     1     9
  1.4044301826145039E-01 a       135     0     6     1    10
  4.8722228106633353E-01 a       136     0     6     1    11
 -1.9414738276665156E-01 a       137     0     6     1    12
 -8.2461636339878353E-02 a       138     0     6     1    13
 -3.5710963697047689E-02 a       139     0     6     1    14
  2.0311862802498373E-01 a       140     0     6     1    15
  1.4931465060799781E-01 a       141     0     6     1    16
  2.6765098359124562E-01 a       142     0     6     1    17
  1.0898781164449296E-01 a       143     0     6     1    18
  1.9934440189981348E-02 a       144     0     6     1    19
  3.2048523643666910E-01 a       145     0     6     1    20
  2.4275143566732574E-01 a       146     0     6     1    21
 -1.3321184697958235E-01 a       147     0     6     1    22
  6.3429136151641985E-01 a       148     0     6     1    23
  2.0605917384047162E-01 a       149     0     6     1    24
  8.1952411838446737E-01 a       150     0     6     1    25
 -3.3428189182531759E-01 a       151     0     7     1     1
  4.4935936335422488E-01 a       152     0     7     1     2
  3.4346012765535372E-01 a       153     0     7     1     3
 -9.1054638158419721E-01 a       154     0     7     1     4
  5.4384178827508289E-01 a       155     0     7     1     5
  4.3970281055842352E-02 a       156     0     7     1     6
 -8.8521287576709651E-01 a       157     0     7     1     7
 -6.0256412288417982E-01 a       158     0     7     1     8
  1.3879254677021019E-01 a       159     0     7     1     9
 -1.2929438536224840E+00 a       160     0     7     1    10
  1.2062183145299494E+00 a       161     0     7     1    11
  2.7957971899664140E-02 a       162     0     7     1    12
 -7.2876031656536985E-02 a       163     0     7     1    13
 -5.0328513827807585E-02 a       164     0     7     1    14
  4.1223881936901741E-01 a       165     0     7     1    15
 -9.4079818784822411E-01 a       166     0     7     1    16
  1.1215324856278730E+00 a       167     0     7     1    17
  1.5801804251201548E-01 a       168     0     7     1    18
 -1.3528433683602303E-01 a       169     0     7     1    19
 -2.9105701160224540E-01 a       170     0     7     1    20
  1.0627110762462226E+00 a       171     0     7     1    21
  1.0877744480720308E+00 a       172     0     7     1    22
  7.8957001768577872E-01 a       173     0     7     1    23
  1.3569129724882356E-01 a       174     0     7     1    24
 -6.7124521451223951E-01 a       175     0     7     1    25
 -9.8026292338935173E-02 a       176     0     8     1     1
  1.1953935598702814E-01 a       177     0     8     1     2
  8.7505738474025152E-02 a       178     0     8     1     3
 -4.7307702385455286E-01 a       179     0     8     1     4
 -1.1630169252132934E-01 a       180     0     8     1     5
 -7.2370828544773849E-02 a       181     0     8     1     6
 -1.1683172569542152E-01 a       182     0     8     1     7
  2.3072765193804636E-03 a       183     0     8     1     8
 -2.3431742554456525E-01 a       184     0     8     1     9
 -1.1244744228344879E-01 a       185     0     8     1    10
  7.8494805107886656E-01 a       186     0     8     1    11
 -1.0376577479467350E-01 a       187     0     8     1    12
 -6.3242339831502639E-02 a       188     0     8     1    13
 -4.1823495922528992E-01 a       189     0     8     1    14
  2.9710736518149383E-01 a       190     0     8     1    15
 -1.6966783939280988E-01 a       191     0     8     1    16
  4.2905208676620038E-02 a       192     0     8     1    17
  4.2679971213985030E-01 a       193     0     8     1    18
 -2.1918025129842150E-01 a       194     0     8     1    19
  1.5950306861394914E-01 a       195     0     8     1    20
 -1.5811961239611564E-03 a       196     0     8     1    21
  9.5301512261078289E-02 a       197     0     8     1    22
  4.3230809510991947E-01 a       198     0     8     1    23
 -3.4474900133321718E-01 a       199     0     8     1    24
 -7.0383511624295444E-02 a       200     0     8     1    25
  1.3051110048086606E-01 a       201     0     9     1     1
 -1.1188618353808613E-01 a       202     0     9     1     2
  2.5514106129821990E-01 a       203     0     9     1     3
  2.6153882757400182E-01 a       204     0     9     1     4
  1.5487920940728624E-02 a       205     0     9     1     5
  1.6623319829120417E-01 a       206     0     9     1     6
 -3.8086129551790537E-01 a       207     0     9     1     7
 -2.8739876872912029E-01 a       208     0     9     1     8
 -4.7090659237998245E-01 a       209     0     9     1     9
 -7.4577582676724305E-02 a       210     0     9     1    10
  3.3064752325935987E-01 a       211     0     9     1    11
 -4.6625423009739547E-01 a       212     0     9     1    12
 -1.2765889211659176E-01 a       213     0     9     1    13
 -4.6431511369374207E-01 a       214     0     9     1    14
 -3.6134851777809340E-01 a       215     0     9     1    15
 -2.3953826205498252E-01 a       216     0     9     1    16
 -3.0184367561350978E-01 a       217     0     9     1    17
 -3.1945093046309486E-01 a       218     0     9     1    18
  7.2672398197408339E-01 a       219     0     9     1    19
 -2.7698014806888349E-01 a       220     0     9     1    20
 -3.5258349293103464E-01 a       221     0     9     1    21
  2.1342756148035083E-01 a       222     0     9     1    22
 -1.8072145144081342E-01 a       223     0     9     1    23
 -7.8381530918170988E-02 a       224     0     9     1    24
  5.7431418176387605E-01 a       225     0     9     1    25
  1.5046346040449129E-01 a       226     0    10     1     1
 -5.1521097649677772E-01 a       227     0    10     1     2
 -1.0112838490284237E-01 a       228     0    10     1     3
 -1.7355876305472875E-01 a       229     0    10     1     4
 -6.1996407283795485E-01 a       230     0    10     1     5
 -8.2668877229037863E-01 a       231     0    10     1     6
  1.2432381311799810E-01 a       232     0    10     1     7
 -5.0602165393468912E-01 a       233     0    10     1     8
 -5.1417839438813207E-01 a       234     0    10     1     9
  4.8247709266042910E-02 a       235     0    10     1    10
 -4.9042053405354674E-01 a       236     0    10     1    11
 -4.2851967738090563E-01 a       237     0    10     1    12
  3.5975856129439765E-01 a       238     0    10     1    13
  5.1942365245759736E-01 a       239     0    10     1    14
  1.3309191106930635E-01 a       240     0    10     1    15
  9.5895870463891697E-02 a       241     0    10     1    16
 -8.5330833486762492E-01 a       242     0    10     1    17
  6.1315059993851118E-01 a       243     0    10     1    18
 -1.5798753905753443E-02 a       244     0    10     1    19
  2.7987606608161564E-01 a       245     0    10     1    20
 -6.0070831693294557E-01 a       246     0    10     1    21
 -6.5626813253604654E-01 a       247     0    10     1    22
  4.3119381351124580E-01 a       248     0    10     1    23
  7.9761560177277147E-01 a       249     0    10     1    24
 -5.7356236622531598E-01 a       250     0    10     1    25
  1.5018243785438215E-01 a       251     0    11     1     1
 -3.0747052897481236E-02 a       252     0    11     1     2
  4.8017903308428346E-02 a       253     0    11     1     3
 -2.1975754602282963E-01 a       254     0    11     1     4
  3.1692601241435366E-02 a       255     0    11     1     5
 -1.3779187200786402E-01 a       256     0    11     1     6
 -7.9768437697693966E-03 a       257     0    11     1     7
  1.9011552940359622E-01 a       258     0    11     1     8
 -2.9854191130246105E-01 a       259     0    11     1     9
 -1.4231989371488454E-01 a       260     0    11     1    10
 -1.7145132376910042E-02 a       261     0    11     1    11
 -1.2674961449154534E-01 a       262     0    11     1    12
  2.0237732281161044E-01 a       263     0    11     1    13
  2.7156689588269511E-01 a       264     0    11     1    14
  1.9967740837604653E-01 a       265     0    11     1    15
 -8.1675811802436910E-02 a       266     0    11     1    16
 -2.5379104996176449E-01 a       267     0    11     1    17
  3.2201965274051919E-02 a       268     0    11     1    18
 -2.8561237916551946E-01 a       269     0    11     1    19
 -8.3465725344942468E-02 a       270     0    11     1    20
 -8.3016138110350805E-03 a       271     0    11     1    21
 -1.5120992663347363E-01 a       272     0    11     1    22
 -1.3445485884652858E-01 a       273     0    11     1    23
  3.6122330642018458E-01 a       274     0    11     1    24
 -5.0823585299251794E-01 a       275     0    11     1    25
  3.7972170198819821E-01 a       276     0    12     1     1
 -1.7641236011026205E-02 a       277     0    12     1     2
 -4.0785730823048261E-01 a       278     0    12     1     3
  4.3013113770144262E-01 a       279     0    12     1     4
 -9.9436073666350322E-02 a       280     0    12     1     5
  4.6857515450767206E-01 a       281     0    12     1     6
 -2.9603831324592761E-01 a       282     0    12     1     7
  5.9583572957448448E-02 a       283     0    12     1     8
  2.1907594308653008E-01 a       284     0    12     1     9
  1.3640399349604834E-01 a       285     0    12     1    10
  1.7229427047901755E-01 a       286     0    12     1    11
  3.6584208580935682E-02 a       287     0    12     1    12
 -3.4298256275002541E-02 a       288     0    12     1    13
 -2.9979668864275100E-01 a       289     0    12     1    14
 -3.6917147381617632E-01 a       290     0    12     1    15
  2.8651628922228189E-01 a       291     0    12     1    16
  2.1907043262370068E-01 a       292     0    12     1    17
  5.7053139756393645E-02 a       293     0    12     1    18
 -4.8494301026344104E-02 a       294     0    12     1    19
  2.1342040619520655E-01 a       295     0    12     1    20
  1.3437402032458245E-01 a       296     0    12     1    21
 -3.2721383432369339E-01 a       297     0    12     1    22
 -1.1597140573824562E-01 a       298     0    12     1    23
 -1.2879906767167448E-01 a       299     0    12     1    24
  4.5737694024864056E-01 a       300     0    12     1    25
 -4.5577326516868788E-01 a       301     0    13     1     1
  4.8094439898164243E-01 a       302     0    13     1     2
  7.2885631126032635E-01 a       303     0    13     1     3
 -7.3570494581027668E-01 a       304     0    13     1     4
  7.1135515095685919E-01 a       305     0    13     1     5
  3.7318469258145143E-01 a       306     0    13     1     6
 -3.5523099998068586E-01 a       307     0    13     1     7
  3.2762267512296722E-01 a       308     0    13     1     8
  5.4683334331554301E-01 a       309     0    13     1     9
 -3.3333407422771834E-02 a       310     0    13     1    10
  7.6366542331188414E-01 a       311     0    13     1    11
  1.2142070304508829E-01 a       312     0    13     1    12
  7.7565150685123582E-02 a       313     0    13     1    13
 -2.8296806628848925E-01 a       314     0    13     1    14
  1.5504968936743852E-02 a       315     0    13     1    15
 -4.2803530763113784E-01 a       316     0    13     1    16
  2.9107702601139729E-01 a       317     0    13     1    17
  2.9142400650760614E-02 a       318     0    13     1    18
 -5.2998707917929433E-01 a       319     0    13     1    19
 -2.3778135136989367E-01 a       320     0    13     1    20
  1.2214126680487729E-01 a       321     0    13     1    21
  5.2719788354464636E-01 a       322     0    13     1    22
  5.8467846959362912E-01 a       323     0    13     1    23
  9.5745150556664368E-02 a       324     0    13     1    24
  8.2227459174872824E-03 a       325     0    13     1    25
 -1.8584111361570330E-01 a       326     0    14     1     1
  6.5243387002038106E-02 a       327     0    14     1     2
  4.4270517248146131E-02 a       328     0    14     1     3
 -5.9808922953832805E-02 a       329     0    14     1     4
 -8.6453990680192716E-02 a       330     0    14     1     5
 -1.8465345206764308E-01 a       331     0    14     1     6
  1.0728403382229228E-01 a       332     0    14     1     7
  5.8883306263212518E-02 a       333     0    14     1     8
 -5.7332036290777322E-02 a       334     0    14     1     9
  2.6434761584134787E-02 a       335     0    14     1    10
  1.7449934727752661E-01 a       336     0    14     1    11
  4.4925034688351614E-02 a       337     0    14     1    12
  3.0274638501204966E-02 a       338     0    14     1    13
 -1.3615251322213606E-01 a       339     0    14     1    14
  1.2338505438720095E-01 a       340     0    14     1    15
 -2.7175364235736443E-01 a       341     0    14     1    16
 -7.8910578409726153E-04 a       342     0    14     1    17
  1.1529432703091658E-01 a       343     0    14     1    18
  3.2873764303872829E-02 a       344     0    14     1    19
 -2.3196155399512253E-02 a       345     0    14     1    20
  1.0188000009213817E-01 a       346     0    14     1    21
  5.0090952387190406E-02 a       347     0    14     1    22
  5.8863711526515095E-01 a       348     0    14     1    23
 -3.3555312597473025E-01 a       349     0    14     1    24
 -3.6338038082911896E-02 a       350     0    14     1    25
  5.4258773772631474E-01 a       351     0    15     1     1
 -5.4119229489957156E-02 a       352     0    15     1     2
 -9.9618991511273750E-02 a       353     0    15     1     3
 -3.7635581059630684E-02 a       354     0    15     1     4
  1.7515776394448823E-01 a       355     0    15     1     5
 -4.9711074970293208E-02 a       356     0    15     1     6
 -2.9062625338117659E-01 a       357     0    15     1     7
 -6.9998856749944188E-02 a       358     0    15     1     8
  1.2187693636104578E-01 a       359     0    15     1     9
  1.2772289601660763E-01 a       360     0    15     1    10
 -5.6637632647723549E-02 a       361     0    15     1    11
 -6.4521865454380767E-01 a       362     0    15     1    12
 -2.8403616542552046E-01 a       363     0    15     1    13
  6.9408986140166357E-02 a       364     0    15     1    14
 -9.2237696611633030E-02 a       365     0    15     1    15
  1.3159265556047076E-01 a       366     0    15     1    16
  2.8985597346361908E-01 a       367     0    15     1    17
 -2.5695320051003517E-01 a       368     0    15     1    18
  1.1214545488164858E-01 a       369     0    15     1    19
  3.7296663616462461E-01 a       370     0    15     1    20
 -1.1320162493013664E-01 a       371     0    15     1    21
 -1.1393771420843213E-01 a       372     0    15     1    22
 -4.2342558482572101E-01 a       373     0    15     1    23
  5.9643483133631874E-02 a       374     0    15     1    24
  5.1641811521493441E-01 a       375     0    15     1    25
  5.7786343649700735E-02 a       376     0    16     1     1
 -6.5895769647874591E-01 a       377     0    16     1     2
 -4.1117716283259637E-01 a       378     0    16     1     3
  2.4426273347251445E-01 a       379     0    16     1     4
 -5.2035790436567908E-01 a       380     0    16     1     5
 -2.5155437023034000E-01 a       381     0    16     1     6
  7.2432537563813659E-01 a       382     0    16     1     7
  2.2970007151309466E-01 a       383     0    16     1     8
 -6.0960258562152136E-01 a       384     0    16     1     9
 -3.3795096606642255E-01 a       385     0    16     1    10
 -4.6761372694180015E-01 a       386     0    16     1    11
  7.3782797395438832E-02 a       387     0    16     1    12
  1.0056171753482494E-01 a       388     0    16     1    13
  9.0390103498437258E-01 a       389     0    16     1    14
  3.2859093890357705E-01 a       390     0    16     1    15
 -3.9426259421745441E-01 a       391     0    16     1    16
 -2.5343573184785451E-01 a       392     0    16     1    17
  2.8649973425206959E-01 a       393     0    16     1    18
  1.6435925290192288E-01 a       394     0    16     1    19
  8.7466439364560930E-02 a       395     0    16     1    20
  1.7043201908707409E-01 a       396     0    16     1    21
 -5.5748552882672231E-01 a       397     0    16     1    22
  1.3730822575744657E+00 a       398     0    16     1    23
  2.9492102188740110E-02 a       399     0    16     1    24
 -1.5839679578458535E-01 a       400     0    16     1    25
  9.6575086815611430E-02 a       401     0    17     1     1
 -1.3237640209408422E-01 a       402     0    17     1     2
 -1.1315160742104823E-01 a       403     0    17     1     3
 -2.4701310761390888E-01 a       404     0    17     1     4
  1.1858369712923618E-02 a       405     0    17     1     5
  2.2900635553935724E-03 a       406     0    17     1     6
 -5.2632954518361724E-02 a       407     0    17     1     7
  2.7745669489401320E-01 a       408     0    17     1     8
 -2.7583467138469455E-02 a       409     0    17     1     9
 -6.9404007800292988E-02 a       410     0    17     1    10
  8.2941299531428231E-02 a       411     0    17     1    11
  5.9770313508335615E-02 a       412     0    17     1    12
  8.0995319643289820E-02 a       413     0    17     1    13
  3.0367633556653234E-01 a       414     0    17     1    14
  8.9225179023203011E-02 a       415     0    17     1    15
 -3.5866771540249615E-01 a       416     0    17     1    16
 -9.5990960699947909E-03 a       417     0    17     1    17
  1.2397059130043583E-01 a       418     0    17     1    18
 -1.8093633186520017E-01 a       419     0    17     1    19
 -1.8035080908988893E-01 a       420     0    17     1    20
  2.1438171106825492E-02 a       421     0    17     1    21
 -7.2833802405861015E-02 a       422     0    17     1    22
  4.0250293241642171E-01 a       423     0    17     1    23
  3.5355673770879009E-01 a       424     0    17     1    24
 -1.1030444752780834E-01 a       425     0    17     1    25
 -1.1471757190917370E-01 a       426     0    18     1     1
  1.5842672191420296E-01 a       427     0    18     1     2
 -2.6472578142418927E-02 a       428     0    18     1     3
  1.3007977246845093E-01 a       429     0    18     1     4
 -1.3835368925339162E-01 a       430     0    18     1     5
  6.5326241277765179E-02 a       431     0    18     1     6
 -2.1426286235750772E-01 a       432     0    18     1     7
 -2.6049987851092155E-01 a       433     0    18     1     8
 -2.7524641459205379E-01 a       434     0    18     1     9
 -8.0960883762844396E-02 a       435     0    18     1    10
  1.2297970027104088E-01 a       436     0    18     1    11
 -1.2807860651823230E-01 a       437     0    18     1    12
 -6.3668763566247181E-03 a       438     0    18     1    13
 -2.1916827762578159E-01 a       439     0    18     1    14
 -1.1561998478393248E-01 a       440     0    18     1    15
  6.0867488423027660E-01 a       441     0    18     1    16
 -7.3692041200888764E-02 a       442     0    18     1    17
 -7.3030154322959048E-02 a       443     0    18     1    18
  2.0253304983193224E-01 a       444     0    18     1    19
 -6.4786948002518744E-03 a       445     0    18     1    20
  7.1718893286332894E-02 a       446     0    18     1    21
  7.8721662070016574E-02 a       447     0    18     1    22
 -8.3051868100606929E-01 a       448     0    18     1    23
 -8.4753078209843388E-02 a       449     0    18     1    24
 -1.5864871619531418E-01 a       450     0    18     1    25
 -1.9930539089763347E-01 a       451     0    19     1     1
  4.2678200049758636E-01 a       452     0    19     1     2
  9.1606503475791981E-02 a       453     0    19     1     3
 -9.3840894621869508E-02 a       454     0    19     1     4
  3.3305092728121616E-01 a       455     0    19     1     5
 -4.3852447312045677E-02 a       456     0    19     1     6
 -4.1257106232586105E-01 a       457     0    19     1     7
  1.2633330137616586E-01 a       458     0    19     1     8
  3.3825038781215222E-01 a       459     0    19     1     9
  3.6021957121652154E-01 a       460     0    19     1    10
  5.3536718047112131E-01 a       461     0    19     1    11
  6.5325526661202366E-02 a       462     0    19     1    12
  8.0069045603190253E-02 a       463     0    19     1    13
 -5.4318916658368477E-01 a       464     0    19     1    14
 -7.7175957754843844E-02 a       465     0    19     1    15
 -4.3925778449551905E-01 a       466     0    19     1    16
  2.2877088291202133E-01 a       467     0    19     1    17
  7.1811658733372148E-03 a       468     0    19     1    18
 -2.4342292689552064E-01 a       469     0    19     1    19
 -1.4845002305230229E-01 a       470     0    19     1    20
 -2.1168290871659826E-01 a       471     0    19     1    21
  3.1023034786965037E-01 a       472     0    19     1    22
 -5.5981859582606119E-01 a       473     0    19     1    23
  1.4025971181088945E-01 a       474     0    19     1    24
 -1.4807985691628467E-01 a       475     0    19     1    25
 -9.6978467196917148E-02 a       476     0    20     1     1
  1.6050830242778629E-02 a       477     0    20     1     2
 -9.9874313144425339E-02 a       478     0    20     1     3
  1.6200633668420311E-01 a       479     0    20     1     4
  9.9857746695622192E-03 a       480     0    20     1     5
 -1.5345092983669456E-01 a       481     0    20     1     6
  1.4405221755630629E-01 a       482     0    20     1     7
  2.2325308922076606E-01 a       483     0    20     1     8
 -1.9127996544420689E-01 a       484     0    20     1     9
 -4.4103034706440905E-03 a       485     0    20     1    10
  1.6563083166880435E-01 a       486     0    20     1    11
  1.3483750801705052E-01 a       487     0    20     1    12
  9.8330288771081562E-02 a       488     0    20     1    13
  1.3028300916118585E-02 a       489     0    20     1    14
  1.8628551597051524E-01 a       490     0    20     1    15
 -3.2859025884199433E-01 a       491     0    20     1    16
 -7.9083478354048720E-02 a       492     0    20     1    17
  4.1046753388687011E-02 a       493     0    20     1    18
 -1.8920430619073630E-01 a       494     0    20     1    19
 -2.4332493677826476E-02 a       495     0    20     1    20
  9.2021918457872123E-02 a       496     0    20     1    21
 -2.8082504857713336E-02 a       497     0    20     1    22
  2.7273354509627873E-01 a       498     0    20     1    23
 -7.6607492775715141E-03 a       499     0    20     1    24
 -1.7528255665992803E-01 a       500     0    20     1    25
  1.6627002871767851E-01 a       501     0    21     1     1
  1.2225801061095509E-02 a       502     0    21     1     2
 -4.4206369204639315E-02 a       503     0    21     1     3
  1.1953248825651622E-01 a       504     0    21     1     4
  1.4016169486393718E-01 a       505     0    21     1     5
 -9.1905218722811780E-02 a       506     0    21     1     6
 -3.7174024452233154E-02 a       507     0    21     1     7
 -1.9000849058742789E-01 a       508     0    21     1     8
  3.4058843524895288E-01 a       509     0    21     1     9
  2.9408766442728035E-01 a       510     0    21     1    10
 -3.7355268080219417E-01 a       511     0    21     1    11
  1.4767510645180833E-02 a       512     0    21     1    12
 -1.0874335176774612E-01 a       513     0    21     1    13
 -1.5660272310729889E-01 a       514     0    21     1    14
 -7.3401024232390477E-02 a       515     0    21     1    15
 -7.7101870104465467E-02 a       516     0    21     1    16
  1.2304049153451788E-01 a       517     0    21     1    17
 -1.2277825517190182E-01 a       518     0    21     1    18
 -6.9605692957142612E-02 a       519     0    21     1    19
  1.3373059699910947E-01 a       520     0    21     1    20
 -2.8764352780838298E-01 a       521     0    21     1    21
  3.3434491267919086E-02 a       522     0    21     1    22
 -3.7013870844716429E-01 a       523     0    21     1    23
 -1.9191446871940371E-01 a       524     0    21     1    24
  2.5467593334645211E-01 a       525     0    21     1    25
  2.1737854696533790E-01 a       526     0    22     1     1
 -4.6126268315889035E-01 a       527     0    22     1     2
 -2.3259368002548739E-01 a       528     0    22     1     3
  7.3745489865748123E-02 a       529     0    22     1     4
 -2.0228738156589840E-01 a       530     0    22     1     5
  9.7926178700428107E-02 a       531     0    22     1     6
  3.6418125027888970E-01 a       532     0    22     1     7
  1.7888989167235722E-01 a       533     0    22     1     8
 -2.8069985870623815E-01 a       534     0    22     1     9
 -3.9709971748530892E-01 a       535     0    22     1    10
 -2.1087994395379392E-01 a       536     0    22     1    11
  3.5961948184963838E-01 a       537     0    22     1    12
  6.0257740620612940E-02 a       538     0    22     1    13
  4.4208460589570392E-01 a       539     0    22     1    14
  1.1156110092232381E-01 a       540     0    22     1    15
 -1.9418394810202261E-01 a       541     0    22     1    16
 -2.4664000067668279E-01 a       542     0    22     1    17
  1.3457148595991719E-01 a       543     0    22     1    18
 -9.2795841609404541E-03 a       544     0    22     1    19
 -9.0818418878426115E-04 a       545     0    22     1    20
  2.5406693425072624E-01 a       546     0    22     1    21
 -1.9015128566810319E-01 a       547     0    22     1    22
  7.1272323169803176E-01 a       548     0    22     1    23
  7.9229051082812196E-02 a       549     0    22     1    24
 -1.0535135381529066E-01 a       550     0    22     1    25
 -8.3733190182613979E-02 a       551     0    23     1     1
 -1.1995807735351130E-01 a       552     0    23     1     2
  2.4114132632140163E-02 a       553     0    23     1     3
 -3.4914642625819531E-01 a       554     0    23     1     4
 -8.3471538387552474E-02 a       555     0    23     1     5
  1.2324825637798062E-01 a       556     0    23     1     6
 -5.7964338661604872E-03 a       557     0    23     1     7
  2.1343637861397077E-01 a       558     0    23     1     8
  4.5586726187697071E-03 a       559     0    23     1     9
 -1.5806184490825417E-01 a       560     0    23     1    10
  1.8038140015499718E-01 a       561     0    23     1    11
  2.5789688154399809E-01 a       562     0    23     1    12
  2.3859452514780423E-02 a       563     0    23     1    13
  3.2296763966183289E-01 a       564     0    23     1    14
 -1.3010328010907868E-02 a       565     0    23     1    15
 -3.4160707358454467E-01 a       566     0    23     1    16
  5.2099291171683486E-02 a       567     0    23     1    17
  1.7054453557678143E-01 a       568     0    23     1    18
  7.2412477313711948E-02 a       569     0    23     1    19
 -1.1877228307281483E-01 a       570     0    23     1    20
  4.9394049994693275E-02 a       571     0    23     1    21
 -2.6620778111959519E-02 a       572     0    23     1    22
  3.9760837423517348E-01 a       573     0    23     1    23
  2.1174897171901472E-01 a       574     0    23     1    24
 -9.0070140039259200E-02 a       575     0    23     1    25
  8.0535032208302354E-02 a       576     0    24     1     1
 -3.6526908177671277E-02 a       577     0    24     1     2
  6.9570568570557823E-02 a       578     0    24     1     3
 -7.3031243952430616E-02 a       579     0    24     1     4
 -6.8420990574101212E-02 a       580     0    24     1     5
  7.9713983323450241E-02 a       581     0    24     1     6
 -2.2202288397454858E-01 a       582     0    24     1     7
 -1.7850375455519413E-01 a       583     0    24     1     8
 -1.4052355493828719E-01 a       584     0    24     1     9
 -6.5343945496285846E-02 a       585     0    24     1    10
  5.6718067173119745E-02 a       586     0    24     1    11
 -1.4627528606359111E-01 a       587     0    24     1    12
 -1.0218353991734003E-01 a       588     0    24     1    13
  6.3628680068054971E-02 a       589     0    24     1    14
 -3.4548552733257958E-02 a       590     0    24     1    15
  4.4448660250677113E-01 a       591     0    24     1    16
 -5.4398121988489298E-02 a       592     0    24     1    17
 -1.1766327240856884E-01 a       593     0    24     1    18
  6.6488009910601942E-02 a       594     0    24     1    19
  1.9604369862506296E-02 a       595     0    24     1    20
  1.1307778619352703E-01 a       596     0    24     1    21
  2.8078651316764517E-02 a       597     0    24     1    22
 -5.5981910475048913E-01 a       598     0    24     1    23
  5.6262423739773519E-02 a       599     0    24     1    24
 -2.2274599352584801E-02 a       600     0    24     1    25
 -2.1011220868907796E-01 a       601     0    25     1     1
  3.0982857569961120E-01 a       602     0    25     1     2
  2.7417951794023843E-01 a       603     0    25     1     3
 -2.1346380690216535E-02 a       604     0    25     1     4
  1.9634205981190789E-01 a       605     0    25     1     5
 -1.7100135794985255E-01 a       606     0    25     1     6
  8.8527834470402841E-02 a       607     0    25     1     7
 -3.5113172118761554E-02 a       608     0    25     1     8
  5.1132366798574608E-02 a       609     0    25     1     9
 -1.0417108201574434E-02 a       610     0    25     1    10
  3.9953737485959312E-01 a       611     0    25     1    11
 -3.6521808249855225E-01 a       612     0    25     1    12
  6.2983408179343239E-02 a       613     0    25     1    13
 -6.9049124955945687E-02 a       614     0    25     1    14
 -2.1354377815688042E-02 a       615     0    25     1    15
  1.7960805536749616E-01 a       616     0    25     1    16
  2.2035217477243568E-01 a       617     0    25     1    17
 -2.7562691410115324E-02 a       618     0    25     1    18
  1.0930800456748321E-01 a       619     0    25     1    19
 -4.5810302802916293E-02 a       620     0    25     1    20
  1.4125418126922792E-01 a       621     0    25     1    21
  1.7331007956418421E-01 a       622     0    25     1    22
 -1.7710006584418103E-01 a       623     0    25     1    23
  1.4038301064631569E-02 a       624     0    25     1    24
 -5.2684602730655006E-02 a       625     0    25     1    25
  6.5148471178293726E-02 a       626     0    26     1     1
  4.9091087473185732E-02 a       627     0    26     1     2
 -1.2572249114848139E-01 a       628     0    26     1     3
  2.1481700941088697E-01 a       629     0    26     1     4
  8.8763943158037623E-02 a       630     0    26     1     5
 -4.7729999381458568E-02 a       631     0    26     1     6
  5.9031487524857852E-02 a       632     0    26     1     7
 -9.9242616219702732E-04 a       633     0    26     1     8
 -2.1515419340956587E-02 a       634     0    26     1     9
  2.9800929454380724E-02 a       635     0    26     1    10
 -1.0921990079984926E-02 a       636     0    26     1    11
 -1.6357648288260507E-01 a       637     0    26     1    12
  3.8943259750496083E-02 a       638     0    26     1    13
 -1.1018971476067677E-01 a       639     0    26     1    14
  5.3955349584556535E-02 a       640     0    26     1    15
 -1.2543141556067644E-01 a       641     0    26     1    16
 -1.5296479885270218E-02 a       642     0    26     1    17
 -5.3847034181252695E-02 a       643     0    26     1    18
 -8.8389163762968001E-02 a       644     0    26     1    19
  3.0706823424135977E-02 a       645     0    26     1    20
  5.9079876895485051E-02 a       646     0    26     1    21
 -2.7967879788329601E-02 a       647     0    26     1    22
  2.1853342330332004E-01 a       648     0    26     1    23
 -5.2032006466506957E-02 a       649     0    26     1    24
 -1.4208876451694882E-02 a       650     0    26     1    25
 -5.5340232543238214E-02 a       651     0    27     1     1
  9.8081242569873162E-02 a       652     0    27     1     2
  5.8604148228410570E-02 a       653     0    27     1     3
  1.2417681532259195E-02 a       654     0    27     1     4
  3.6547405298193524E-02 a       655     0    27     1     5
  7.5281463649160260E-02 a       656     0    27     1     6
  1.2998683369534891E-01 a       657     0    27     1     7
 -5.3982836038201358E-02 a       658     0    27     1     8
  1.4246116053377345E-01 a       659     0    27     1     9
  1.1092618584558714E-01 a       660     0    27     1    10
 -1.6429156571598338E-01 a       661     0    27     1    11
 -3.2359234288464649E-02 a       662     0    27     1    12
  4.3391960595080069E-02 a       663     0    27     1    13
 -1.8824675852390485E-01 a       664     0    27     1    14
 -6.9253670036072981E-02 a       665     0    27     1    15
 -5.9969868364613418E-02 a       666     0    27     1    16
 -5.4066757505485397E-03 a       667     0    27     1    17
  6.6303260211430168E-02 a       668     0    27     1    18
  3.3922326981873835E-02 a       669     0    27     1    19
  4.1679533507434752E-02 a       670     0    27     1    20
 -1.7656558383835488E-01 a       671     0    27     1    21
 -2.8231064093207098E-02 a       672     0    27     1    22
  2.8576725220585864E-01 a       673     0    27     1    23
 -1.8111863464083552E-01 a       674     0    27     1    24
  1.4906394417033730E-01 a       675     0    27     1    25
 -3.5967109488551308E-02 a       676     0    28     1     1
 -1.7264659050964978E-01 a       677     0    28     1     2
 -2.2541795753090985E-01 a       678     0    28     1     3
  6.4535588162340965E-02 a       679     0    28     1     4
 -1.1096391474966785E-01 a       680     0    28     1     5
  9.2622065686614574E-02 a       681     0    28     1     6
  4.5318911747104375E-02 a       682     0    28     1     7
  1.5729937661762564E-01 a       683     0    28     1     8
 -7.7685205928600658E-03 a       684     0    28     1     9
 -3.3447814113892631E-02 a       685     0    28     1    10
 -1.5799839539274246E-01 a       686     0    28     1    11
  2.6383816163799889E-01 a       687     0    28     1    12
  1.6898738609878009E-02 a       688     0    28     1    13
  1.3432737672753803E-01 a       689     0    28     1    14
  6.5345926309328478E-02 a       690     0    28     1    15
 -4.2965052707933865E-01 a       691     0    28     1    16
 -1.4627359583241429E-02 a       692     0    28     1    17
  1.1595987134901491E-01 a       693     0    28     1    18
 -3.1192419316582148E-02 a       694     0    28     1    19
  8.9968342420390542E-03 a       695     0    28     1    20
 -2.5932601863154114E-02 a       696     0    28     1    21
 -1.1087376932182866E-01 a       697     0    28     1    22
  3.5239057329280521E-01 a       698     0    28     1    23
  5.1127870664929966E-03 a       699     0    28     1    24
 -5.3937637931907124E-02 a       700     0    28     1    25
 -1.2531092347223055E-01 a       701     0    29     1     1
 -5.3641997243154035E-02 a       702     0    29     1     2
 -3.1331422691045739E-02 a       703     0    29     1     3
 -5.5313973492511576E-02 a       704     0    29     1     4
 -2.3499725105292614E-02 a       705     0    29     1     5
 -2.2202825692245982E-02 a       706     0    29     1     6
  1.0312181626535928E-01 a       707     0    29     1     7
  1.5021784294437893E-01 a       708     0    29     1     8
 -1.1860266301168700E-01 a       709     0    29     1     9
 -1.3554742559630786E-01 a       710     0    29     1    10
  2.1535913877550922E-01 a       711     0    29     1    11
  2.1334514148829947E-01 a       712     0    29     1    12
  7.2620075010977447E-02 a       713     0    29     1    13
  1.8771636187552193E-01 a       714     0    29     1    14
  5.7351265466720709E-02 a       715     0    29     1    15
 -2.7196420415037764E-01 a       716     0    29     1    16
  2.7534879708737029E-02 a       717     0    29     1    17
  9.1150196506004616E-02 a       718     0    29     1    18
  6.1036186797017253E-03 a       719     0    29     1    19
 -7.6275814508080200E-02 a       720     0    29     1    20
  3.6927643371723017E-02 a       721     0    29     1    21
  3.5455191274890614E-02 a       722     0    29     1    22
  1.5869333244922804E-01 a       723     0    29     1    23
  1.3913876872490258E-01 a       724     0    29     1    24
 -1.3960194307797544E-01 a       725     0    29     1    25
  1.5896508789045108E-01 a       726     0    30     1     1
 -3.3934640699193296E-02 a       727     0    30     1     2
 -9.4406708898908162E-02 a       728     0    30     1     3
 -1.0605950143216898E-02 a       729     0    30     1     4
  1.8804253765122278E-02 a       730     0    30     1     5
 -1.2580984895988132E-01 a       731     0    30     1     6
 -1.8575553328588454E-01 a       732     0    30     1     7
 -1.1161877665454750E-01 a       733     0    30     1     8
 -1.2144956522676371E-01 a       734     0    30     1     9
  7.0601750432188637E-02 a       735     0    30     1    10
 -6.5527182901811709E-04 a       736     0    30     1    11
  9.4181836733742228E-03 a       737     0    30     1    12
 -9.2079115732542557E-02 a       738     0    30     1    13
  7.7846829722870742E-02 a       739     0    30     1    14
  5.0592856044726776E-02 a       740     0    30     1    15
  1.6451005869232835E-01 a       741     0    30     1    16
 -1.0351462492270272E-02 a       742     0    30     1    17
 -1.5133177171550935E-01 a       743     0    30     1    18
 -6.3718477027897014E-02 a       744     0    30     1    19
  4.2885010905708482E-02 a       745     0    30     1    20
  7.5933748475476834E-02 a       746     0    30     1    21
  2.0559889284412131E-02 a       747     0    30     1    22
 -6.1215744771794589E-01 a       748     0    30     1    23
  8.6008592365720185E-02 a       749     0    30     1    24
 -5.8982938957599221E-02 a       750     0    30     1    25
  8.4315817905765800E-01 a       751     0    31     1     1
  8.0414423268425095E-01 a       752     0    31     1     2
 -4.2789104417913437E-01 a       753     0    31     1     3
  1.4099550299590349E-01 a       754     0    31     1     4
  6.5169564193359519E-01 a       755     0    31     1     5
 -3.6800950824700679E-01 a       756     0    31     1     6
  3.9270450097588205E-01 a       757     0    31     1     7
  9.8165158152572496E-01 a       758     0    31     1     8
 -4.3282349532153075E-01 a       759     0    31     1     9
  1.1712542913780008E-01 a       760     0    31     1    10
  3.6014725752797128E-01 a       761     0    31     1    11
  1.1703982127313501E+00 a       762     0    31     1    12
 -2.8949749897722460E-01 a       763     0    31     1    13
 -3.2106805139083067E-01 a       764     0    31     1    14
 -1.2512184468427010E+00 a       765     0    31     1    15
 -1.2912976521007277E-02 a       766     0    31     1    16
  9.8017817266110630E-01 a       767     0    31     1    17
 -1.3128643489326217E+00 a       768     0    31     1    18
  4.2255663433086177E-01 a       769     0    31     1    19
 -1.2260177078594499E+00 a       770     0    31     1    20
  1.1559564542296810E+00 a       771     0    31     1    21
 -8.4026312045886120E-01 a       772     0    31     1    22
 -2.8519164930707747E-01 a       773     0    31     1    23
  7.2780115266457934E-01 a       774     0    31     1    24
 -1.0551483230433345E-01 a       775     0    31     1    25
 -1.6193900850389312E-02 a       776     0    32     1     1
 -1.2003630921430601E-01 a       777     0    32     1     2
 -9.9986597488600837E-02 a       778     0    32     1     3
  2.0214694545415543E-01 a       779     0    32     1     4
  8.5880230980756644E-02 a       780     0    32     1     5
 -6.4141209387574907E-02 a       781     0    32     1     6
 -3.5357311659551124E-02 a       782     0    32     1     7
  1.5868668226723495E-01 a       783     0    32     1     8
  4.0771046187000021E-01 a       784     0    32     1     9
  1.5039090853167475E-01 a       785     0    32     1    10
 -5.1184604242345617E-02 a       786     0    32     1    11
  1.5421472234568454E-01 a       787     0    32     1    12
 -2.5262372926720061E-01 a       788     0    32     1    13
 -7.5745995204032912E-02 a       789     0    32     1    14
 -7.0489406198609203E-02 a       790     0    32     1    15
 -2.0594866174819287E-02 a       791     0    32     1    16
  1.0204261942658986E-01 a       792     0    32     1    17
 -4.7682830558338180E-01 a       793     0    32     1    18
  4.2165555425944683E-02 a       794     0    32     1    19
  1.2269616468559095E-02 a       795     0    32     1    20
  6.5688615773146881E-04 a       796     0    32     1    21
 -1.4244284191561149E-01 a       797     0    32     1    22
  1.9621919393244655E-01 a       798     0    32     1    23
 -1.1539767475744879E-01 a       799     0    32     1    24
 -3.0607118480951819E-02 a       800     0    32     1    25
 -5.1034087264869332E-01 a       801     0    33     1     1
 -6.5689992657779039E-01 a       802     0    33     1     2
  1.0202339805842544E+00 a       803     0    33     1     3
  3.0515166581731912E-01 a       804     0    33     1     4
  8.6931935578261377E-01 a       805     0    33     1     5
 -2.1719608396100942E-01 a       806     0    33     1     6
 -8.5856585777296968E-01 a       807     0    33     1     7
 -4.1931255588875538E-01 a       808     0    33     1     8
  8.5945539041339092E-01 a       809     0    33     1     9
 -1.2711488663911714E-02 a       810     0    33     1    10
 -1.1852071632684293E+00 a       811     0    33     1    11
 -1.3807441559412612E-01 a       812     0    33     1    12
  9.5289567518802587E-01 a       813     0    33     1    13
  5.9489976133832345E-01 a       814     0    33     1    14
  1.2468970002887527E+00 a       815     0    33     1    15
 -1.0713313232861383E+00 a       816     0    33     1    16
 -5.5526277038733807E-01 a       817     0    33     1    17
  1.6323067571748078E+00 a       818     0    33     1    18
 -4.4605344379205436E-01 a       819     0    33     1    19
  2.3470807470823383E+00 a       820     0    33     1    20
  1.5882999054787814E-01 a       821     0    33     1    21
  5.2080817218246767E-01 a       822     0    33     1    22
  3.4161249896416923E-01 a       823     0    33     1    23
  7.9755780521497333E-01 a       824     0    33     1    24
  1.5884731492081634E+00 a       825     0    33     1    25
  2.9712301656686119E-01 a       826     0    34     1     1
 -4.6160318590046934E-03 a       827     0    34     1     2
 -2.1690486682982554E-01 a       828     0    34     1     3
 -5.5096378378700822E-02 a       829     0    34     1     4
 -3.0207055427856178E-02 a       830     0    34     1     5
  2.4928470033383926E-01 a       831     0    34     1     6
 -1.8235832549426170E-01 a       832     0    34     1     7
 -2.3385068260791838E-02 a       833     0    34     1     8
  3.3683802718104244E-01 a       834     0    34     1     9
  3.4977912692958735E-01 a       835     0    34     1    10
 -2.6782006300526628E-01 a       836     0    34     1    11
 -5.7069643669618218E-02 a       837     0    34     1    12
 -3.5627048552656754E-01 a       838     0    34     1    13
  4.3060871851284999E-01 a       839     0    34     1    14
 -3.6337319350626493E-02 a       840     0    34     1    15
 -8.5191975037026163E-02 a       841     0    34     1    16
 -8.9716473628660739E-02 a       842     0    34     1    17
 -5.5277558455378595E-01 a       843     0    34     1    18
  2.5765331111245338E-01 a       844     0    34     1    19
 -1.0982763792956617E-02 a       845     0    34     1    20
 -1.3556608270651357E-01 a       846     0    34     1    21
  3.5273875427321848E-02 a       847     0    34     1    22
 -8.2043590884420634E-02 a       848     0    34     1    23
  6.6834017188325337E-02 a       849     0    34     1    24
  1.8422755673063360E-01 a       850     0    34     1    25
 -7.9611786103042106E-02 a       851     0    35     1     1
  8.3049062809430391E-02 a       852     0    35     1     2
  4.2216595439445204E-01 a       853     0    35     1     3
 -2.5780702030559899E-01 a       854     0    35     1     4
  9.4623544789089797E-02 a       855     0    35     1     5
 -3.8696407838502295E-01 a       856     0    35     1     6
  1.7296533269956804E-01 a       857     0    35     1     7
 -3.5534282613417484E-01 a       858     0    35     1     8
  2.2090810410942820E-02 a       859     0    35     1     9
 -2.6176500126671270E-01 a       860     0    35     1    10
 -3.8073414323298882E-01 a       861     0    35     1    11
 -1.1199567108522122E-01 a       862     0    35     1    12
  3.5389892286509411E-01 a       863     0    35     1    13
 -2.5613396819819084E-01 a       864     0    35     1    14
  2.6998878915029323E-01 a       865     0    35     1    15
  7.7271290399866160E-02 a       866     0    35     1    16
 -1.9017270250649920E-01 a       867     0    35     1    17
  2.5854787176842686E-01 a       868     0    35     1    18
  7.1130844534440033E-02 a       869     0    35     1    19
  1.8558398513657950E-01 a       870     0    35     1    20
  1.0528067451412726E-01 a       871     0    35     1    21
 -6.0879457829346867E-02 a       872     0    35     1    22
  2.8025501239692852E-01 a       873     0    35     1    23
 -1.0114764844915289E-01 a       874     0    35     1    24
  4.2747974583549647E-01 a       875     0    35     1    25
 -1.1981917851514454E-01 a       876     0    36     1     1
  2.2866394723390457E-01 a       877     0    36     1     2
 -7.6072601095383185E-01 a       878     0    36     1     3
  1.7661793462824296E-01 a       879     0    36     1     4
 -5.7487032701989671E-01 a       880     0    36     1     5
 -3.3443050528055719E-02 a       881     0    36     1     6
  6.2820623678959431E-01 a       882     0    36     1     7
  9.2330135992578577E-01 a       883     0    36     1     8
 -4.5998913770301986E-01 a       884     0    36     1     9
  8.5243335724177838E-01 a       885     0    36     1    10
 -3.6684374350312798E-02 a       886     0    36     1    11
  5.1303496271275317E-01 a       887     0    36     1    12
 -9.2823798505191946E-01 a       888     0    36     1    13
  1.5677959143761790E+00 a       889     0    36     1    14
  5.0054730158755378E-01 a       890     0    36     1    15
  1.4406449435440503E-02 a       891     0    36     1    16
 -7.7083066917457296E-02 a       892     0    36     1    17
 -1.2697471021603317E+00 a       893     0    36     1    18
 -3.2193618069496227E-01 a       894     0    36     1    19
 -3.1461787958818993E-01 a       895     0    36     1    20
 -7.7103406108429151E-01 a       896     0    36     1    21
 -2.9105110666551354E-01 a       897     0    36     1    22
 -1.5149653355076209E+00 a       898     0    36     1    23
 -5.5529665061223865E-01 a       899     0    36     1    24
 -1.3749088826993046E+00 a       900     0    36     1    25
  2.0775223226109987E-01 a       901     0    37     1     1
 -2.5385658502855324E-01 a       902     0    37     1     2
 -8.1581798903237268E-01 a       903     0    37     1     3
 -3.8818230971354462E-01 a       904     0    37     1     4
 -9.3240442145394320E-01 a       905     0    37     1     5
 -2.2928262742173949E-02 a       906     0    37     1     6
 -2.4592184577826123E-02 a       907     0    37     1     7
  3.4313387680452179E-01 a       908     0    37     1     8
  6.8402870646736169E-01 a       909     0    37     1     9
 -2.2370000618025701E-01 a       910     0    37     1    10
  4.3947381046496231E-01 a       911     0    37     1    11
 -4.6798082531627122E-01 a       912     0    37     1    12
 -8.0261466229568335E-01 a       913     0    37     1    13
  1.0357975241602102E+00 a       914     0    37     1    14
  5.2297106569997576E-01 a       915     0    37     1    15
 -7.3664797268230786E-01 a       916     0    37     1    16
 -5.4418654948198445E-03 a       917     0    37     1    17
 -3.6561112250297123E-02 a       918     0    37     1    18
  3.5028641294909602E-01 a       919     0    37     1    19
  1.3373441207586323E+00 a       920     0    37     1    20
  2.5071490143398040E-01 a       921     0    37     1    21
 -4.4399689310761681E-01 a       922     0    37     1    22
 -1.0671269502969862E+00 a       923     0    37     1    23
 -1.1830361501156319E+00 a       924     0    37     1    24
  3.2198672989718874E-02 a       925     0    37     1    25
 -9.6622257632890368E-02 a       926     0    38     1     1
  1.2275199556927846E-02 a       927     0    38     1     2
  4.7652098524432245E-02 a       928     0    38     1     3
  5.0391824222142036E-02 a       929     0    38     1     4
 -9.9363041737301733E-02 a       930     0    38     1     5
  1.8492901320304381E-01 a       931     0    38     1     6
 -4.0496972102125450E-03 a       932     0    38     1     7
  8.6304680036510137E-02 a       933     0    38     1     8
 -2.0353195536729221E-01 a       934     0    38     1     9
 -1.6855846112413465E-02 a       935     0    38     1    10
  9.0830755567610465E-03 a       936     0    38     1    11
  1.1133902314026890E-01 a       937     0    38     1    12
  1.1283693422476090E-01 a       938     0    38     1    13
 -7.7022508010259394E-02 a       939     0    38     1    14
 -5.5117373533090555E-02 a       940     0    38     1    15
  6.0219998725902224E-02 a       941     0    38     1    16
 -9.9436735165528270E-02 a       942     0    38     1    17
  2.5805442327791128E-01 a       943     0    38     1    18
  1.1293440304110429E-01 a       944     0    38     1    19
 -7.2648874663927290E-02 a       945     0    38     1    20
  2.3411220221443197E-02 a       946     0    38     1    21
 -6.9567030956273604E-02 a       947     0    38     1    22
 -2.5655583710829044E-01 a       948     0    38     1    23
 -1.0137661100038561E-01 a       949     0    38     1    24
 -2.9265702058619024E-02 a       950     0    38     1    25
 -1.5695525059510002E-01 a       951     0    39     1     1
  3.6951843240164128E-01 a       952     0    39     1     2
 -2.4734192489230918E-02 a       953     0    39     1     3
 -1.0107369849769275E-01 a       954     0    39     1     4
  1.0363760593427791E+00 a       955     0    39     1     5
 -5.2546880498319981E-01 a       956     0    39     1     6
  1.2329018656682392E-01 a       957     0    39     1     7
 -5.0604199595161303E-01 a       958     0    39     1     8
 -8.9745274564895361E-01 a       959     0    39     1     9
  1.2280294371646774E+00 a       960     0    39     1    10
 -6.2239907244349557E-01 a       961     0    39     1    11
  3.4232651120899543E-01 a       962     0    39     1    12
  3.2164470959322324E-02 a       963     0    39     1    13
 -1.8132605311491176E-01 a       964     0    39     1    14
 -7.6636342997719639E-02 a       965     0    39     1    15
  1.5549799797996919E+00 a       966     0    39     1    16
  1.6468502164523724E+00 a       967     0    39     1    17
 -6.8907039959548766E-01 a       968     0    39     1    18
  1.8202529524459146E-01 a       969     0    39     1    19
 -1.2936642698359682E+00 a       970     0    39     1    20
 -1.3676215796839155E+00 a       971     0    39     1    21
 -4.8584894303823944E-01 a       972     0    39     1    22
  2.2736376677703657E-01 a       973     0    39     1    23
 -1.7690230425723466E-01 a       974     0    39     1    24
 -4.7030480679770570E-01 a       975     0    39     1    25
 -1.5878853896989290E-01 a       976     0    40     1     1
 -5.1934836867158440E-02 a       977     0    40     1     2
 -2.4681096200884146E-02 a       978     0    40     1     3
  1.8568127531064019E-01 a       979     0    40     1     4
  4.5733108733315854E-02 a       980     0    40     1     5
  1.2124326574855704E-02 a       981     0    40     1     6
  8.9664950231963816E-02 a       982     0    40     1     7
  1.0216118762154056E-01 a       983     0    40     1     8
  7.7043301058153199E-02 a       984     0    40     1     9
  1.1311241441540261E-02 a       985     0    40     1    10
  3.1397997185916675E-02 a       986     0    40     1    11
  1.4901396523505842E-01 a       987     0    40     1    12
  6.2950861736282532E-02 a       988     0    40     1    13
  5.3083156921335688E-02 a       989     0    40     1    14
 -7.9599512639096093E-03 a       990     0    40     1    15
  4.0181681185546464E-02 a       991     0    40     1    16
  3.9886897766292978E-02 a       992     0    40     1    17
  1.3130904977481378E-01 a       993     0    40     1    18
 -8.1525452304175447E-02 a       994     0    40     1    19
 -2.8973746604881319E-03 a       995     0    40     1    20
  6.0426330891906958E-02 a       996     0    40     1    21
  1.8204449410375082E-02 a       997     0    40     1    22
  2.1374078607742339E-01 a       998     0    40     1    23
 -3.5428882138371733E-02 a       999     0    40     1    24
  1.4274476067275641E-02 a      1000     0    40     1    25
 -2.7034207068342253E-01 a      1001     0    41     1     1
  2.8254543469548016E-01 a      1002     0    41     1     2
 -2.0569899736274716E-01 a      1003     0    41     1     3
  1.8972715899114923E-01 a      1004     0    41     1     4
  2.1527282892280553E-02 a      1005     0    41     1     5
  5.1072749504077564E-01 a      1006     0    41     1     6
  1.9011935465269447E-01 a      1007     0    41     1     7
  6.6415692612169963E-01 a      1008     0    41     1     8
 -4.8605022151016092E-01 a      1009     0    41     1     9
  2.6725915387576915E-01 a      1010     0    41     1    10
 -1.5159697062187669E-01 a      1011     0    41     1    11
 -3.1623047978235688E-02 a      1012     0    41     1    12
  8.3897669100002986E-02 a      1013     0    41     1    13
 -2.0157942090505873E-01 a      1014     0    41     1    14
  1.8973820535355143E-01 a      1015     0    41     1    15
  3.0232730255676926E-01 a      1016     0    41     1    16
  4.5486778228780106E-01 a      1017     0    41     1    17
  3.2633544888442495E-01 a      1018     0    41     1    18
 -1.8805369779457601E-01 a      1019     0    41     1    19
 -9.9197296895993561E-02 a      1020     0    41     1    20
  3.7945625626514301E-01 a      1021     0    41     1    21
 -1.7737357950319621E-01 a      1022     0    41     1    22
  3.1677460978667710E-01 a      1023     0    41     1    23
  2.0330494739058892E-02 a      1024     0    41     1    24
 -5.2136079612597551E-02 a      1025     0    41     1    25
 -3.3190676112519046E-01 a      1026     0    42     1     1
 -3.0540537808811191E-01 a      1027     0    42     1     2
  3.8402165452692300E-01 a      1028     0    42     1     3
 -6.8688492259692768E-01 a      1029     0    42     1     4
  1.4834771623316187E-01 a      1030     0    42     1     5
 -4.1669776549598653E-01 a      1031     0    42     1     6
  3.7862352350113211E-02 a      1032     0    42     1     7
 -3.2877263744389007E-01 a      1033     0    42     1     8
 -6.9278980130595439E-03 a      1034     0    42     1     9
 -3.2355762791376674E-01 a      1035     0    42     1    10
 -7.1704484725981521E-01 a      1036     0    42     1    11
 -9.7605316521983634E-02 a      1037     0    42     1    12
  5.6392300080245716E-01 a      1038     0    42     1    13
 -4.8298250851295660E-01 a      1039     0    42     1    14
 -5.2263836020058951E-01 a      1040     0    42     1    15
 -6.8705303952909336E-01 a      1041     0    42     1    16
 -1.3622856773155329E-01 a      1042     0    42     1    17
  8.3007474184565178E-01 a      1043     0    42     1    18
 -1.4709653172374251E-01 a      1044     0    42     1    19
  6.5286930431333379E-02 a      1045     0    42     1    20
  3.4006326968218414E-01 a      1046     0    42     1    21
  5.4010449236316405E-01 a      1047     0    42     1    22
 -3.2108325184835779E-01 a      1048     0    42     1    23
  8.3007349361623989E-02 a      1049     0    42     1    24
  8.5419904036691174E-01 a      1050     0    42     1    25
 -3.8393502357583092E-01 a      1051     0    43     1     1
 -8.4609480427819725E-02 a      1052     0    43     1     2
 -1.9496086140530725E-01 a      1053     0    43     1     3
  1.0245109301131761E+00 a      1054     0    43     1     4
 -3.9941104587481385E-01 a      1055     0    43     1     5
 -4.9995560534400296E-01 a      1056     0    43     1     6
 -3.8799367204009577E-01 a      1057     0    43     1     7
 -2.4976216311256638E-02 a      1058     0    43     1     8
 -2.8068348022514222E-01 a      1059     0    43     1     9
  4.0593354000694126E-01 a      1060     0    43     1    10
  2.8348836056011245E-01 a      1061     0    43     1    11
 -4.0075496973263958E-01 a      1062     0    43     1    12
 -2.7667609336392274E-01 a      1063     0    43     1    13
 -3.7993026207405733E-01 a      1064     0    43     1    14
  1.8054998027384306E-01 a      1065     0    43     1    15
 -4.6603020563604969E-01 a      1066     0    43     1    16
 -3.9007237282992169E-01 a      1067     0    43     1    17
 -2.2193270638627785E-01 a      1068     0    43     1    18
 -5.5092489381275667E-01 a      1069     0    43     1    19
 -2.3841974744040217E-01 a      1070     0    43     1    20
  1.5570229216302398E-01 a      1071     0    43     1    21
  1.0074396633850526E-01 a      1072     0    43     1    22
  4.0219506561065532E-01 a      1073     0    43     1    23
 -3.5140454016349060E-01 a      1074     0    43     1    24
 -4.1109803252879801E-01 a      1075     0    43     1    25
 -2.7472328203546070E-01 a      1076     0    44     1     1
 -6.6373158351455547E-02 a      1077     0    44     1     2
 -2.7966264160777746E-02 a      1078     0    44     1     3
  1.1553966450712953E-01 a      1079     0    44     1     4
 -1.2066433583718202E-01 a      1080     0    44     1     5
  1.7269925881240780E-02 a      1081     0    44     1     6
  9.1117851352289309E-02 a      1082     0    44     1     7
 -3.5794492808492444E-02 a      1083     0    44     1     8
 -1.1081599092856671E-01 a      1084     0    44     1     9
  1.4463315079608505E-01 a      1085     0    44     1    10
 -2.0675695455693985E-01 a      1086     0    44     1    11
  5.7921238172425379E-02 a      1087     0    44     1    12
  4.4404263744091413E-02 a      1088     0    44     1    13
 -2.3410772906099253E-01 a      1089     0    44     1    14
 -8.4784413098120875E-02 a      1090     0    44     1    15
 -1.3546736793816241E-01 a      1091     0    44     1    16
  1.1547901900394666E-02 a      1092     0    44     1    17
  2.6644311377897673E-01 a      1093     0    44     1    18
 -5.1609634114663835E-02 a      1094     0    44     1    19
 -1.4393329672301930E-01 a      1095     0    44     1    20
  4.6796096485519764E-03 a      1096     0    44     1    21
  5.9373088229618023E-02 a      1097     0    44     1    22
 -3.4657668849674433E-01 a      1098     0    44     1    23
 -1.7763211704319398E-01 a      1099     0    44     1    24
  1.0313242215483658E-01 a      1100     0    44     1    25
  1.3877659967093785E+00 a      1101     0    45     1     1
  6.7176039618004918E-02 a      1102     0    45     1     2
  6.7958912196985433E-01 a      1103     0    45     1     3
 -9.5859000982624221E-01 a      1104     0    45     1     4
 -3.3620972871892085E-01 a      1105     0    45     1     5
  7.7306300183499654E-02 a      1106     0    45     1     6
  4.4468988727645037E-01 a      1107     0    45     1     7
  4.3604503080549117E-01 a      1108     0    45     1     8
 -3.6939660758222975E-01 a      1109     0    45     1     9
 -3.5912287694444411E-01 a      1110     0    45     1    10
  3.5461426739999297E-01 a      1111     0    45     1    11
  1.4328561409319421E-01 a      1112     0    45     1    12
  3.2096971749602166E-01 a      1113     0    45     1    13
  8.8810621843724374E-02 a      1114     0    45     1    14
  6.0231932692886592E-01 a      1115     0    45     1    15
  1.6282508008204832E+00 a      1116     0    45     1    16
  3.5329515398311728E-01 a      1117     0    45     1    17
  4.2318436397529730E-01 a      1118     0    45     1    18
  7.6610428100347139E-01 a      1119     0    45     1    19
  1.3529519160063013E-02 a      1120     0    45     1    20
 -1.6919842061571264E-01 a      1121     0    45     1    21
 -3.6564476269495577E-01 a      1122     0    45     1    22
 -3.9455893503557160E-01 a      1123     0    45     1    23
  2.4245600324981578E-01 a      1124     0    45     1    24
 -4.3751399532224622E-01 a      1125     0    45     1    25
 -2.2449149766083587E-01 a      1126     0    46     1     1
 -1.1720171745129275E-01 a      1127     0    46     1     2
 -3.4445164678124723E-02 a      1128     0    46     1     3
  6.7002320089791748E-02 a      1129     0    46     1     4
  4.3892806657342492E-02 a      1130     0    46     1     5
  6.1529883867264171E-02 a      1131     0    46     1     6
  1.1944201605932118E-01 a      1132     0    46     1     7
  7.3737005096715926E-03 a      1133     0    46     1     8
  2.2420940767284993E-02 a      1134     0    46     1     9
  5.1042024559942681E-02 a      1135     0    46     1    10
  4.3648587682048803E-04 a      1136     0    46     1    11
  1.8298046176050534E-02 a      1137     0    46     1    12
  7.9303968009217640E-03 a      1138     0    46     1    13
 -1.5227830582998786E-01 a      1139     0    46     1    14
 -1.7346836531080476E-02 a      1140     0    46     1    15
 -2.1361851359751032E-02 a      1141     0    46     1    16
  3.5638553460150803E-02 a      1142     0    46     1    17
  2.6669449278365946E-02 a      1143     0    46     1    18
 -1.2712828122270148E-01 a      1144     0    46     1    19
 -1.3897133058491432E-01 a      1145     0    46     1    20
  2.0066711553551071E-02 a      1146     0    46     1    21
  1.5270321006983240E-01 a      1147     0    46     1    22
 -1.4585665171143580E-01 a      1148     0    46     1    23
 -2.9574178838880387E-04 a      1149     0    46     1    24
  4.9342378194021166E-02 a      1150     0    46     1    25
  1.6901795395255992E-02 a      1151     0    47     1     1
  1.1130686785828570E-01 a      1152     0    47     1     2
  1.1165911802070554E-01 a      1153     0    47     1     3
  9.5647768217299034E-02 a      1154     0    47     1     4
 -2.3916063300019937E-02 a      1155     0    47     1     5
 -1.1641568891333362E-01 a      1156     0    47     1     6
 -1.5359160574838954E-01 a      1157     0    47     1     7
  3.2703803631400831E-02 a      1158     0    47     1     8
  1.0510099103000523E-01 a      1159     0    47     1     9
  1.1254357243880200E-01 a      1160     0    47     1    10
 -2.3560747807701335E-01 a      1161     0    47     1    11
  3.4325182119954750E-01 a      1162     0    47     1    12
  6.3292457134078453E-02 a      1163     0    47     1    13
  5.8688729326492861E-01 a      1164     0    47     1    14
  6.7510875447387070E-02 a      1165     0    47     1    15
  2.5365821423224050E-01 a      1166     0    47     1    16
  1.3718779570145082E-01 a      1167     0    47     1    17
  1.8856375079202894E-01 a      1168     0    47     1    18
  1.0384639354562389E-01 a      1169     0    47     1    19
  3.3036213345242510E-02 a      1170     0    47     1    20
 -3.1789905425294938E-02 a      1171     0    47     1    21
 -7.7673933076554652E-02 a      1172     0    47     1    22
 -2.2182757487791316E-01 a      1173     0    47     1    23
  5.9714449189346791E-02 a      1174     0    47     1    24
 -2.2607182157648536E-03 a      1175     0    47     1    25
 -3.5468409729400796E-01 a      1176     0    48     1     1
 -2.4028683507517634E-01 a      1177     0    48     1     2
  3.0546548947322005E-01 a      1178     0    48     1     3
  9.2677373150135245E-02 a      1179     0    48     1     4
  1.0254860333310012E-01 a      1180     0    48     1     5
  3.0453691955507606E-01 a      1181     0    48     1     6
 -4.2133332832447433E-02 a      1182     0    48     1     7
 -3.8034614770804664E-01 a      1183     0    48     1     8
  1.6025420238487240E-01 a      1184     0    48     1     9
 -3.2066390330169714E-01 a      1185     0    48     1    10
  4.6697208715216981E-01 a      1186     0    48     1    11
  4.3546448797839954E-01 a      1187     0    48     1    12
 -4.5330959524855323E-02 a      1188     0    48     1    13
 -7.1474116714141545E-01 a      1189     0    48     1    14
 -6.7788874651364572E-01 a      1190     0    48     1    15
 -2.6318278562655373E-01 a      1191     0    48     1    16
 -3.4254686611156543E-01 a      1192     0    48     1    17
  9.4727233040207706E-02 a      1193     0    48     1    18
 -1.7514703047544908E-01 a      1194     0    48     1    19
 -1.8306284047654856E-01 a      1195     0    48     1    20
  2.5711729293202784E-01 a      1196     0    48     1    21
  3.1399066471685377E-01 a      1197     0    48     1    22
  2.3909708767444862E-01 a      1198     0    48     1    23
 -3.9629356402370414E-01 a      1199     0    48     1    24
  2.6200052823416431E-01 a      1200     0    48     1    25
  2.0792951360171735E-01 a      1201     0    49     1     1
 -1.8175042854725695E-01 a      1202     0    49     1     2
 -4.7835851344271693E-02 a      1203     0    49     1     3
  1.1129349699263678E+00 a      1204     0    49     1     4
  7.4794218901656662E-01 a      1205     0    49     1     5
 -2.0680018872191169E-01 a      1206     0    49     1     6
  1.5208651852291671E-01 a      1207     0    49     1     7
 -5.3140238022143460E-01 a      1208     0    49     1     8
 -6.3447717138458237E-01 a      1209     0    49     1     9
 -7.5536403428112719E-01 a      1210     0    49     1    10
  2.7938692861576908E-01 a      1211     0    49     1    11
  1.2015830640039379E-01 a      1212     0    49     1    12
  9.6357271640568554E-01 a      1213     0    49     1    13
 -5.5064883856450764E-01 a      1214     0    49     1    14
  1.3107816508428845E-02 a      1215     0    49     1    15
 -1.0658471141543174E-02 a      1216     0    49     1    16
  2.8373320995486059E-02 a      1217     0    49     1    17
  4.6851606313122596E-01 a      1218     0    49     1    18
  2.5707420341069431E-01 a      1219     0    49     1    19
 -5.6248265063912550E-01 a      1220     0    49     1    20
  3.3595149748628333E-01 a      1221     0    49     1    21
  2.5400891162523498E-01 a      1222     0    49     1    22
 -3.3277615636562181E-02 a      1223     0    49     1    23
  1.0756821550127595E+00 a      1224     0    49     1    24
  1.5615803474030190E-01 a      1225     0    49     1    25
  8.5159964840533856E-02 a      1226     0    50     1     1
  2.6654187424835270E-02 a      1227     0    50     1     2
  7.2115158308054149E-03 a      1228     0    50     1     3
 -1.5575201993089005E-01 a      1229     0    50     1     4
  7.5415391713188215E-02 a      1230     0    50     1     5
  2.3634903917555826E-04 a      1231     0    50     1     6
  2.5908107062358320E-02 a      1232     0    50     1     7
 -2.7236235608285406E-02 a      1233     0    50     1     8
  4.6004699564308936E-02 a      1234     0    50     1     9
 -8.9689874379343865E-02 a      1235     0    50     1    10
  9.9705781403316346E-02 a      1236     0    50     1    11
 -7.6334472629197264E-02 a      1237     0    50     1    12
 -3.1594465727745227E-02 a      1238     0    50     1    13
  9.0888677031696119E-02 a      1239     0    50     1    14
  3.5201936510999385E-02 a      1240     0    50     1    15
 -6.4651436753579747E-02 a      1241     0    50     1    16
 -7.0861538795939261E-02 a      1242     0    50     1    17
 -2.0780287081280219E-01 a      1243     0    50     1    18
 -5.6872510056182539E-02 a      1244     0    50     1    19
  1.1826810744956782E-01 a      1245     0    50     1    20
 -1.3118835981602520E-01 a      1246     0    50     1    21
 -1.9919201836602542E-02 a      1247     0    50     1    22
  1.2850918682661297E-02 a      1248     0    50     1    23
  1.3138481171799618E-01 a      1249     0    50     1    24
  3.4136327373330527E-02 a      1250     0    50     1    25
 -1.6780295158361044E-01 a      1251     0    51     1     1
  5.6724888040705179E-01 a      1252     0    51     1     2
 -4.3630109885803048E-01 a      1253     0    51     1     3
 -4.8748981919447087E-01 a      1254     0    51     1     4
 -1.9062751772495641E+00 a      1255     0    51     1     5
  1.2666810463126750E+00 a      1256     0    51     1     6
 -1.0756098441258957E-02 a      1257     0    51     1     7
  5.8510426700304996E-01 a      1258     0    51     1     8
  3.4558494787819638E-01 a      1259     0    51     1     9
  4.0078038543358829E-01 a      1260     0    51     1    10
 -1.5524575680198474E-01 a      1261     0    51     1    11
 -6.7195639515441596E-01 a      1262     0    51     1    12
 -1.0779933629026341E+00 a      1263     0    51     1    13
 -3.5673510015879967E-01 a      1264     0    51     1    14
 -5.4915384261890865E-01 a      1265     0    51     1    15
  2.7904001939991702E-01 a      1266     0    51     1    16
 -1.0799794847667534E+00 a      1267     0    51     1    17
 -4.0903665386839605E-01 a      1268     0    51     1    18
 -1.3753913535114664E+00 a      1269     0    51     1    19
 -6.8457731785177844E-01 a      1270     0    51     1    20
  6.0648545707777701E-01 a      1271     0    51     1    21
  7.4558440933328352E-01 a      1272     0    51     1    22
  6.7626170593097912E-01 a      1273     0    51     1    23
 -2.7100758682074849E-01 a      1274     0    51     1    24
 -5.7969587091271535E-01 a      1275     0    51     1    25
 -2.8905081317083013E-03 a      1276     0    52     1     1
  8.5127382890308988E-03 a      1277     0    52     1     2
 -5.7231107798834432E-02 a      1278     0    52     1     3
 -1.5631919060105585E-02 a      1279     0    52     1     4
 -3.4476726919676813E-02 a      1280     0    52     1     5
  2.5053896865366052E-02 a      1281     0    52     1     6
  2.6056848516889447E-03 a      1282     0    52     1     7
 -1.2236025451198583E-01 a      1283     0    52     1     8
 -6.6259780619888367E-02 a      1284     0    52     1     9
 -7.7234788793074179E-04 a      1285     0    52     1    10
 -8.1764657232583110E-02 a      1286     0    52     1    11
 -1.8150054728267082E-01 a      1287     0    52     1    12
 -7.5777737794666608E-02 a      1288     0    52     1    13
 -7.0587998258384091E-02 a      1289     0    52     1    14
 -3.7125459456112828E-02 a      1290     0    52     1    15
 -6.4143047040038897E-02 a      1291     0    52     1    16
 -5.1873845184989720E-02 a      1292     0    52     1    17
 -1.5346288665774410E-01 a      1293     0    52     1    18
  9.5289795569150446E-02 a      1294     0    52     1    19
  9.1763645065841157E-02 a      1295     0    52     1    20
 -1.0725472585892125E-01 a      1296     0    52     1    21
 -5.7935683885883341E-02 a      1297     0    52     1    22
 -1.7057099474020901E-01 a      1298     0    52     1    23
 -1.4517728380570261E-01 a      1299     0    52     1    24
 -2.3885419247039460E-02 a      1300     0    52     1    25
  2.0150661440882653E-01 a      1301     0    53     1     1
 -2.3980254223430608E-01 a      1302     0    53     1     2
  9.3507368424719350E-02 a      1303     0    53     1     3
 -1.6208523752390100E-01 a      1304     0    53     1     4
 -9.0824887988699421E-03 a      1305     0    53     1     5
 -1.0223268894937712E-01 a      1306     0    53     1     6
 -3.8719440344280193E-01 a      1307     0    53     1     7
 -5.1082722111575718E-01 a      1308     0    53     1     8
  1.0720544144397935E-02 a      1309     0    53     1     9
 -1.5333866905651403E-01 a      1310     0    53     1    10
  2.3787360793777054E-01 a      1311     0    53     1    11
  6.2233273039171322E-01 a      1312     0    53     1    12
  7.1645554917200652E-03 a      1313     0    53     1    13
  3.6946985438995084E-01 a      1314     0    53     1    14
 -2.0893565889470572E-01 a      1315     0    53     1    15
 -3.7584660311114987E-01 a      1316     0    53     1    16
 -3.7894159644863734E-01 a      1317     0    53     1    17
  5.5080604883658575E-02 a      1318     0    53     1    18
 -3.8341536801553505E-01 a      1319     0    53     1    19
 -5.1250676293943431E-01 a      1320     0    53     1    20
 -1.6346612847799299E-01 a      1321     0    53     1    21
  5.3666291014191170E-01 a      1322     0    53     1    22
 -1.7707031987677341E-01 a      1323     0    53     1    23
  4.4771608027141863E-01 a      1324     0    53     1    24
 -2.2481026667408127E-01 a      1325     0    53     1    25
  1.3002131483732507E-01 a      1326     0    54     1     1
 -1.4553292879372171E-01 a      1327     0    54     1     2
  2.3666596794517988E-01 a      1328     0    54     1     3
  1.2443910088913233E-01 a      1329     0    54     1     4
  1.1858927564248044E-01 a      1330     0    54     1     5
  2.6962431871770609E-01 a      1331     0    54     1     6
  3.2049800575941495E-01 a      1332     0    54     1     7
 -5.7023892779064313E-02 a      1333     0    54     1     8
  7.1761137561202459E-01 a      1334     0    54     1     9
 -2.2950778029055122E-01 a      1335     0    54     1    10
  4.5354393151160893E-01 a      1336     0    54     1    11
  2.3256048613557792E-01 a      1337     0    54     1    12
 -7.5555552141290089E-02 a      1338     0    54     1    13
 -9.9986677369987301E-02 a      1339     0    54     1    14
  1.4340241675119419E-01 a      1340     0    54     1    15
  4.2182090020776319E-01 a      1341     0    54     1    16
 -2.0699862601635907E-02 a      1342     0    54     1    17
 -3.0485570184787658E-01 a      1343     0    54     1    18
  3.5733104163516000E-01 a      1344     0    54     1    19
  1.3896959641182552E-01 a      1345     0    54     1    20
 -2.4188204957479237E-01 a      1346     0    54     1    21
 -2.5994675497633601E-01 a      1347     0    54     1    22
  7.1507079667447415E-01 a      1348     0    54     1    23
  2.4729829530961248E-01 a      1349     0    54     1    24
 -3.7465777397938278E-03 a      1350     0    54     1    25
  1.3403927646294285E+00 b      1351     1     1
 -5.6795646975481717E-01 b      1352     1     2
  6.2883001607694688E-01 b      1353     1     3
 -5.2569956421657971E-01 b      1354     1     4
 -8.1942422308251139E-01 b      1355     1     5
 -5.4734611983463477E-01 b      1356     1     6
  1.2647123511386393E+00 b      1357     1     7
  8.1728190220750263E-01 b      1358     1     8
 -4.4298082499921376E-01 b      1359     1     9
  6.9950067930843907E-01 b      1360     1    10
  7.2151960982298713E-01 b      1361     1    11
  1.1653245054290300E+00 b      1362     1    12
  7.2989871912250137E-01 b      1363     1    13
  1.3267845026532847E+00 b      1364     1    14
  4.1695828832206427E-01 b      1365     1    15
  1.0811100656392101E+00 b      1366     1    16
  1.4075023492395888E-01 b      1367     1    17
 -4.9820318731407465E-01 b      1368     1    18
 -4.1958130450903702E-01 b      1369     1    19
 -8.4687494275442521E-01 b      1370     1    20
  8.4140338002374648E-01 b      1371     1    21
  7.8665335305067785E-01 b      1372     1    22
 -1.4329271384592914E+00 b      1373     1    23
  2.3548236026815067E-01 b      1374     1    24
  8.3922654561066867E-01 b      1375     1    25
 -3.1523748573204829E-01 a      1376     1     1     2     1
 -7.6033480715215573E-01 a      1377     1     1     2     2
 -4.5414432261747573E-01 a      1378     1     1     2     3
 -4.2440296286735360E-02 a      1379     1     1     2     4
 -9.5381900954831910E-03 a      1380     1     1     2     5
  1.4371909402357415E-02 a      1381     1     1     2     6
 -5.4351882651472538E-01 a      1382     1     1     2     7
  4.8566321279978447E-01 a      1383     1     1     2     8
 -3.2608579271735355E-01 a      1384     1     1     2     9
  4.8362378222203767E-02 a      1385     1     1     2    10
  8.2115196727953921E-01 a      1386     1     1     2    11
  1.2697675624120641E-01 a      1387     1     1     2    12
  4.4731423197809844E-01 a      1388     1     1     2    13
 -1.7915162251055375E-03 a      1389     1     1     2    14
  3.7270524957134665E-01 a      1390     1     1     2    15
 -3.2632293860301187E-01 a      1391     1     1     2    16
  2.2263690897177513E-01 a      1392     1     1     2    17
 -2.6995478725006899E-01 a      1393     1     1     2    18
 -6.3808920037078520E-01 a      1394     1     1     2    19
 -4.3655533987256898E-02 a      1395     1     1     2    20
  3.8277523244274297E-01 a      1396     1     1     2    21
  2.5761964217637295E-01 a      1397     1     1     2    22
 -7.3857038849248047E-01 a      1398     1     1     2    23
 -2.4311103607316983E-01 a      1399     1     1     2    24
 -5.1963674190110221E-02 a      1400     1     1     2    25
 -5.8466031614456480E-02 a      1401     1     2     2     1
 -8.1923937191731788E-01 a      1402     1     2     2     2
  4.3384527991638711E-01 a      1403     1     2     2     3
  4.7712168369092584E-01 a      1404     1     2     2     4
  3.5664813867048173E-01 a      1405     1     2     2     5
 -1.8222672402145310E-01 a      1406     1     2     2     6
  7.0461561733275935E-01 a      1407     1     2     2     7
  8.4117693738056318E-03 a      1408     1     2     2     8
  2.7599352621359263E-01 a      1409     1     2     2     9
  2.6205612774364773E-01 a      1410     1     2     2    10
  2.6980102605500972E-01 a      1411     1     2     2    11
  1.4526304891221822E-01 a      1412     1     2     2    12
  1.6008717694916413E-01 a      1413     1     2     2    13
 -6.2537820759646101E-01 a      1414     1     2     2    14
 -5.1179185429924257E-01 a      1415     1     2     2    15
  8.0389949408859873E-01 a      1416     1     2     2    16
 -1.4249420983730204E-01 a      1417     1     2     2    17
  6.7379308754704048E-01 a      1418     1     2     2    18
  5.9102827300871663E-01 a      1419     1     2     2    19
 -3.4785431081473883E-01 a      1420     1     2     2    20
 -6.3311495424716702E-01 a      1421     1     2     2    21
 -4.0756618784585708E-01 a      1422     1     2     2    22
 -2.7052361792936674E-01 a      1423     1     2     2    23
  3.4497142166665651E-01 a      1424     1     2     2    24
  2.4737511314159868E-01 a      1425     1     2     2    25
 -1.9189331614047944E-01 a      1426     1     3     2     1
 -6.4444632251093592E-01 a      1427     1     3     2     2
  9.5712943365819966E-02 a      1428     1     3     2     3
  3.3568411970406747E-01 a      1429     1     3     2     4
  2.6022715229764887E-01 a      1430     1     3     2     5
 -3.6509595082093388E-01 a      1431     1     3     2     6
  4.9630967396896139E-02 a      1432     1     3     2     7
 -4.1701259251245010E-01 a      1433     1     3     2     8
  4.6545401760175326E-02 a      1434     1     3     2     9
 -4.0989136806061799E-01 a      1435     1     3     2    10
  5.3495424069251218E-01 a      1436     1     3     2    11
  4.4827299654100061E-01 a      1437     1     3     2    12
  3.9853650931938550E-01 a      1438     1     3     2    13
 -4.4260503663677403E-01 a      1439     1     3     2    14
  6.9463074411775916E-01 a      1440     1     3     2    15
  7.1961292071115712E-01 a      1441     1     3     2    16
  2.0094823114167129E-01 a      1442     1     3     2    17
  1.8930769039040277E-01 a      1443     1     3     2    18
  4.8637703460770731E-01 a      1444     1     3     2    19
  7.7216135030659772E-01 a      1445     1     3     2    20
  1.1367195536654426E-01 a      1446     1     3     2    21
  2.5391071120290148E-01 a      1447     1     3     2    22
 -1.2737883625741306E-01 a      1448     1     3     2    23
 -1.2091486168076314E-03 a      1449     1     3     2    24
  2.5543914290611841E-01 a      1450     1     3     2    25
 -8.3573840363266128E-01 a      1451     1     4     2     1
 -8.7812520030376040E-01 a      1452     1     4     2     2
 -2.4449031616850181E-01 a      1453     1     4     2     3
  1.0441254519711063E-02 a      1454     1     4     2     4
  2.5899991894818936E-01 a      1455     1     4     2     5
 -6.8198927396805317E-02 a      1456     1     4     2     6
 -6.0241341312071495E-01 a      1457     1     4     2     7
  4.0626294845890915E-01 a      1458     1     4     2     8
  6.2553403462511359E-01 a      1459     1     4     2     9
 -7.8749877694982773E-01 a      1460     1     4     2    10
  3.0145276534020143E-01 a      1461     1     4     2    11
 -7.7654540687567358E-02 a      1462     1     4     2    12
  2.5564719723140329E-02 a      1463     1     4     2    13
 -8.5314077478307948E-01 a      1464     1     4     2    14
 -5.6873820077012438E-01 a      1465     1     4     2    15
  3.4986531071902072E-01 a      1466     1     4     2    16
  4.4151722452546965E-01 a      1467     1     4     2    17
 -1.4212876398058985E-01 a      1468     1     4     2    18
  5.6403531958898567E-01 a      1469     1     4     2    19
 -2.3428837149580556E-01 a      1470     1     4     2    20
 -1.4171667735554030E-01 a      1471     1     4     2    21
  3.2803199245714965E-01 a      1472     1     4     2    22
 -3.0213765335007869E-01 a      1473     1     4     2    23
 -1.4110240623923315E-01 a      1474     1     4     2    24
  4.1469654894925062E-01 a      1475     1     4     2    25
  4.9915023448556212E-01 a      1476     1     5     2     1
 -1.1650873263125908E-01 a      1477     1     5     2     2
  6.8686399221162897E-01 a      1478     1     5     2     3
 -9.3123868797831233E-01 a      1479     1     5     2     4
 -4.4580625008614039E-02 a      1480     1     5     2     5
 -3.3251456203556640E-01 a      1481     1     5     2     6
 -4.0244984476106260E-01 a      1482     1     5     2     7
 -2.6264207422211583E-01 a      1483     1     5     2     8
  1.5691719253761149E-01 a      1484     1     5     2     9
 -8.6058180235450504E-02 a      1485     1     5     2    10
  3.4745634100373030E-01 a      1486     1     5     2    11
  4.4880146535084131E-01 a      1487     1     5     2    12
  2.0466342316206002E-01 a      1488     1     5     2    13
  1.7926122820067042E-01 a      1489     1     5     2    14
  1.9338727267101112E-02 a      1490     1     5     2    15
 -1.8148330795816789E-01 a      1491     1     5     2    16
  1.3529158187783272E-01 a      1492     1     5     2    17
  5.8317123605357779E-01 a      1493     1     5     2    18
 -4.3996017633052242E-01 a      1494     1     5     2    19
  3.9715268073477222E-01 a      1495     1     5     2    20
 -1.3571428805800390E-01 a      1496     1     5     2    21
 -8.8543888542140861E-02 a      1497     1     5     2    22
 -5.4783780366866708E-01 a      1498     1     5     2    23
  5.4176358311510964E-01 a      1499     1     5     2    24
  2.7000845979384147E-01 a      1500     1     5     2    25
 -5.2629524493774393E-01 a      1501     1     6     2     1
 -2.0033691260825218E-01 a      1502     1     6     2     2
  6.2398116983620266E-01 a      1503     1     6     2     3
  4.3599471788162175E-01 a      1504     1     6     2     4
  5.0732334585210426E-01 a      1505     1     6     2     5
 -3.0737703402332900E-01 a      1506     1     6     2     6
  3.3821007752344789E-01 a      1507     1     6     2     7
 -8.0920137593604412E-03 a      1508     1     6     2     8
 -3.2992000770267021E-01 a      1509     1     6     2     9
  6.0805910896324178E-01 a      1510     1     6     2    10
 -4.7265778656108531E-01 a      1511     1     6     2    11
  2.7246238473634510E-01 a      1512     1     6     2    12
  2.7762030803211835E-01 a      1513     1     6     2    13
  5.4234672183560417E-01 a      1514     1     6     2    14
 -7.6447795981138134E-01 a      1515     1     6     2    15
  5.6569668785788085E-01 a      1516     1     6     2    16
  1.9228922974315360E-01 a      1517     1     6     2    17
  6.1473045444234242E-01 a      1518     1     6     2    18
  6.0566684638287538E-01 a      1519     1     6     2    19
 -4.8645825033514961E-01 a      1520     1     6     2    20
 -5.9929210650706854E-01 a      1521     1     6     2    21
 -7.1057847673906216E-01 a      1522     1     6     2    22
 -3.4253495035436204E-01 a      1523     1     6     2    23
  7.1653661703692140E-02 a      1524     1     6     2    24
  6.1070114387418761E-01 a      1525     1     6     2    25
  5.8342054401349541E-01 a      1526     1     7     2     1
 -1.5200507525355270E-01 a      1527     1     7     2     2
  1.8445930923044265E-01 a      1528     1     7     2     3
  1.3248615268437922E-01 a      1529     1     7     2     4
  4.6869168961378167E-02 a      1530     1     7     2     5
 -5.8686204590394198E-01 a      1531     1     7     2     6
  1.5235887727079231E-01 a      1532     1     7     2     7
 -5.0027456988391716E-01 a      1533     1     7     2     8
  2.7652005311450489E-01 a      1534     1     7     2     9
  2.4723690194063924E-01 a      1535     1     7     2    10
  4.8898373685996949E-01 a      1536     1     7     2    11
  5.3209687542077229E-02 a      1537     1     7     2    12
  2.4094855441797247E-01 a      1538     1     7     2    13
 -9.2490077746579538E-02 a      1539     1     7     2    14
 -6.1703310488866370E-01 a      1540     1     7     2    15
 -2.0417820965291528E-01 a      1541     1     7     2    16
  2.4914808390426557E-01 a      1542     1     7     2    17
 -3.8163390406049119E-01 a      1543     1     7     2    18
 -6.4860632345507485E-02 a      1544     1     7     2    19
 -4.5131649451516526E-01 a      1545     1     7     2    20
 -4.0755687462309523E-02 a      1546     1     7     2    21
 -3.6065368582703522E-01 a      1547     1     7     2    22
  3.1150053964611751E-01 a      1548     1     7     2    23
 -1.2466119333476676E-02 a      1549     1     7     2    24
  1.8679788299889484E-02 a      1550     1     7     2    25
  7.1499726687014070E-02 a      1551     1     8     2     1
 -4.2854671668462485E-01 a      1552     1     8     2     2
  6.2001079784450319E-01 a      1553     1     8     2     3
 -6.0241882458612672E-01 a      1554     1     8     2     4
  4.5317902095383400E-01 a      1555     1     8     2     5
  1.1349901521919113E-01 a      1556     1     8     2     6
  2.3106786830603568E-01 a      1557     1     8     2     7
 -4.0616856467555157E-01 a      1558     1     8     2     8
  6.0691341394490006E-01 a      1559     1     8     2     9
 -2.0527602178394955E-01 a      1560     1     8     2    10
  3.5414524766817324E-01 a      1561     1     8     2    11
 -6.1659339340022234E-01 a      1562     1     8     2    12
  2.5934212434333642E-01 a      1563     1     8     2    13
 -1.7541540685078250E-01 a      1564     1     8     2    14
  2.1603527493154620E-01 a      1565     1     8     2    15
  1.6792346920457918E-01 a      1566     1     8     2    16
 -1.6188524552556571E-01 a      1567     1     8     2    17
  5.2984635116902434E-01 a      1568     1     8     2    18
 -2.5363692091910905E-01 a      1569     1     8     2    19
  1.6172035618146209E-02 a      1570     1     8     2    20
 -1.2624737821479359E-01 a      1571     1     8     2    21
 -4.9735707034936505E-01 a      1572     1     8     2    22
  3.7887875747041450E-01 a      1573     1     8     2    23
  3.8932879002841919E-01 a      1574     1     8     2    24
 -3.2443956848445527E-01 a      1575     1     8     2    25
 -1.2322810117999888E-01 a      1576     1     9     2     1
 -1.6223532616749139E-01 a      1577     1     9     2     2
  4.7299153982474756E-01 a      1578     1     9     2     3
 -5.9028960173489609E-01 a      1579     1     9     2     4
 -2.0342678671945449E-01 a      1580     1     9     2     5
  5.2174661073548767E-01 a      1581     1     9     2     6
 -5.7592137220562079E-01 a      1582     1     9     2     7
 -3.5520994292993663E-01 a      1583     1     9     2     8
 -2.6059254878239876E-03 a      1584     1     9     2     9
  5.2755806877888745E-01 a      1585     1     9     2    10
 -4.5619882958850538E-01 a      1586     1     9     2    11
  4.0682299734989213E-01 a      1587     1     9     2    12
  5.2177421342183028E-01 a      1588     1     9     2    13
  2.7442722593910562E-01 a      1589     1     9     2    14
 -1.7204725682273495E-01 a      1590     1     9     2    15
  9.3945632382552824E-02 a      1591     1     9     2    16
 -2.6507826285691671E-01 a      1592     1     9     2    17
  7.3563950855415050E-01 a      1593     1     9     2    18
 -2.9692216642297975E-01 a      1594     1     9     2    19
  1.5860811775976938E-01 a      1595     1     9     2    20
 -9.1681325817978332E-01 a      1596     1     9     2    21
  1.3374762514188157E-01 a      1597     1     9     2    22
 -1.8007288241321565E-01 a      1598     1     9     2    23
  3.8941428895639973E-01 a      1599     1     9     2    24
  5.5342169440389742E-02 a      1600     1     9     2    25
  7.6892426279344084E-01 a      1601     1    10     2     1
 -3.2079187015298638E-01 a      1602     1    10     2     2
  5.8513485198423243E-01 a      1603     1    10     2     3
 -8.1616223600571158E-01 a      1604     1    10     2     4
 -2.9532045399885898E-01 a      1605     1    10     2     5
  2.6241430979046593E-01 a      1606     1    10     2     6
 -4.5000539665263661E-01 a      1607     1    10     2     7
 -1.8487696293849923E-01 a      1608     1    10     2     8
  3.9674317337677213E-02 a      1609     1    10     2     9
  1.3888442553656446E-02 a      1610     1    10     2    10
  6.6817319718271099E-03 a      1611     1    10     2    11
 -1.5005050474953308E-01 a      1612     1    10     2    12
  2.5766716026855419E-02 a      1613     1    10     2    13
 -6.3938228257168961E-01 a      1614     1    10     2    14
 -2.7328332696710422E-01 a      1615     1    10     2    15
 -2.3103638505412244E-01 a      1616     1    10     2    16
  4.8644847051358747E-01 a      1617     1    10     2    17
  5.4892231063279384E-01 a      1618     1    10     2    18
 -4.1054241020981974E-01 a      1619     1    10     2    19
 -1.3682521268162787E-01 a      1620     1    10     2    20
  1.5703099687125799E-01 a      1621     1    10     2    21
 -5.6572943903630757E-01 a      1622     1    10     2    22
  3.3682549198511174E-04 a      1623     1    10     2    23
  3.6086773720107962E-01 a      1624     1    10     2    24
  3.8476869257188506E-01 a      1625     1    10     2    25
 -3.5277396032019720E-01 a      1626     1    11     2     1
 -2.7960531747242025E-02 a      1627     1    11     2     2
 -6.6437186439473772E-02 a      1628     1    11     2     3
