################################################################################
# Neural network connection values (weights and biases).
################################################################################
# Col  Name       Description
################################################################################
# 1    connection Neural network connection value.
# 2    t          Connection type (a = weight, b = bias).
# 3    index      Index enumerating weights.
# 4    l_s        Starting point layer (end point layer for biases).
# 5    n_s        Starting point neuron in starting layer (end point neuron for biases).
# 6    l_e        End point layer.
# 7    n_e        End point neuron in end layer.
################################################################################
#                      1 2         3     4     5     6     7
#             connection t     index   l_s   n_s   l_e   n_e
############################################################
 -7.7746482184950239E-01 a         1     0     1     1     1
  9.0882269746935904E-02 a         2     0     1     1     2
  3.3162765446897940E-01 a         3     0     1     1     3
 -5.0688860905896427E-01 a         4     0     1     1     4
  3.2058513397859872E-01 a         5     0     1     1     5
  3.2782382530796940E-02 a         6     0     1     1     6
  7.7141945534681200E-01 a         7     0     1     1     7
 -6.2392419886157169E-01 a         8     0     1     1     8
  2.3212753470222548E-02 a         9     0     1     1     9
 -3.2134862240071510E-01 a        10     0     1     1    10
  8.6794349428170137E-01 a        11     0     1     1    11
  5.3683244738159919E-01 a        12     0     1     1    12
  6.2174280046515817E-01 a        13     0     1     1    13
  7.8162358884921157E-01 a        14     0     1     1    14
 -4.5081813405162779E-01 a        15     0     1     1    15
 -5.0432113003910173E-01 a        16     0     1     1    16
  7.3233400108806979E-01 a        17     0     1     1    17
 -5.6652562915753291E-01 a        18     0     1     1    18
 -5.1294087246622611E-01 a        19     0     1     1    19
 -1.7511608713072249E-02 a        20     0     1     1    20
 -7.4709479844372817E-02 a        21     0     1     1    21
 -5.0239370481025392E-01 a        22     0     1     1    22
 -3.6529913322753071E-01 a        23     0     1     1    23
 -4.7147796746870441E-01 a        24     0     1     1    24
  5.8216560900052328E-01 a        25     0     1     1    25
 -5.7442916650707519E-02 a        26     0     2     1     1
 -1.7709809333738887E-02 a        27     0     2     1     2
 -6.9523155463914008E-02 a        28     0     2     1     3
 -1.2884833714187388E-02 a        29     0     2     1     4
 -4.0605874570998693E-02 a        30     0     2     1     5
 -1.4937217752728318E-01 a        31     0     2     1     6
 -1.9300575988439383E-01 a        32     0     2     1     7
 -2.0796622768411089E-02 a        33     0     2     1     8
 -9.7012488580241071E-02 a        34     0     2     1     9
 -1.4209961247067862E-01 a        35     0     2     1    10
  2.5152025764440106E-02 a        36     0     2     1    11
 -2.9147482828099404E-02 a        37     0     2     1    12
  1.3534063250781961E-01 a        38     0     2     1    13
  1.7294480685998109E-01 a        39     0     2     1    14
 -2.7561393789737065E-03 a        40     0     2     1    15
 -2.5504542583109502E-01 a        41     0     2     1    16
 -3.2903039583906682E-02 a        42     0     2     1    17
 -9.8321662738904705E-02 a        43     0     2     1    18
 -2.3199821198831093E-02 a        44     0     2     1    19
 -1.1476493633293999E-01 a        45     0     2     1    20
  1.3618243895383006E-01 a        46     0     2     1    21
  4.1799077185002115E-02 a        47     0     2     1    22
 -1.3755794689811410E-01 a        48     0     2     1    23
 -2.1101347313710500E-01 a        49     0     2     1    24
 -2.0556034822809502E-01 a        50     0     2     1    25
 -4.5980740035003587E-01 a        51     0     3     1     1
 -6.7785740346263057E-01 a        52     0     3     1     2
  1.7608645830045339E-01 a        53     0     3     1     3
  3.1247761777802641E-01 a        54     0     3     1     4
 -4.2956419191956058E-02 a        55     0     3     1     5
  9.2880153744217397E-01 a        56     0     3     1     6
  1.8677968492298838E-01 a        57     0     3     1     7
 -7.1322935489773875E-01 a        58     0     3     1     8
 -3.6709987479288592E-01 a        59     0     3     1     9
 -2.2658267752923897E-01 a        60     0     3     1    10
  2.6694799256532453E-01 a        61     0     3     1    11
  4.6042323162214419E-02 a        62     0     3     1    12
  4.0202577980799070E-01 a        63     0     3     1    13
  6.4766685858417528E-01 a        64     0     3     1    14
  1.1937379760868072E-01 a        65     0     3     1    15
  4.3075089713704801E-01 a        66     0     3     1    16
  2.0327792004867482E-01 a        67     0     3     1    17
  7.4827468387406781E-02 a        68     0     3     1    18
 -3.9736740930337044E-01 a        69     0     3     1    19
  1.9820973712349282E-01 a        70     0     3     1    20
  4.8717587558055342E-01 a        71     0     3     1    21
  6.3004170340753263E-01 a        72     0     3     1    22
  8.9963419386185045E-02 a        73     0     3     1    23
  3.1709295054278114E-01 a        74     0     3     1    24
 -3.8197218073077605E-01 a        75     0     3     1    25
 -3.8231334482178086E-01 a        76     0     4     1     1
 -2.8290924100983711E-01 a        77     0     4     1     2
 -2.9002881472055566E-02 a        78     0     4     1     3
 -7.9097879686775474E-01 a        79     0     4     1     4
 -4.8344859842695104E-01 a        80     0     4     1     5
 -4.2815634000191793E-01 a        81     0     4     1     6
 -1.0160238922366498E+00 a        82     0     4     1     7
  6.1813504763823357E-01 a        83     0     4     1     8
 -6.1373826780608809E-01 a        84     0     4     1     9
  8.3091467500120952E-01 a        85     0     4     1    10
  1.0446399028378073E+00 a        86     0     4     1    11
  2.9926209873539267E-01 a        87     0     4     1    12
 -1.4253407405989782E+00 a        88     0     4     1    13
 -8.9250101791096126E-01 a        89     0     4     1    14
  9.7058430591745071E-02 a        90     0     4     1    15
  1.2994975090458032E+00 a        91     0     4     1    16
  1.1713552297761452E-01 a        92     0     4     1    17
  2.3348203247485211E-01 a        93     0     4     1    18
  4.0340606324771039E-01 a        94     0     4     1    19
  7.2760499273006082E-02 a        95     0     4     1    20
  3.4679059172816641E-02 a        96     0     4     1    21
  8.5747622620322461E-01 a        97     0     4     1    22
  1.0419469347171617E+00 a        98     0     4     1    23
  4.9890178806309304E-01 a        99     0     4     1    24
 -1.1135872495059461E-01 a       100     0     4     1    25
  1.3498081012942578E-01 a       101     0     5     1     1
 -6.9809266028636865E-02 a       102     0     5     1     2
  1.4386851076438995E-01 a       103     0     5     1     3
  4.8102671442168702E-03 a       104     0     5     1     4
 -3.1162643340336828E-02 a       105     0     5     1     5
  1.6547308945092984E-01 a       106     0     5     1     6
  4.4198747640488742E-02 a       107     0     5     1     7
 -2.8489744359323440E-02 a       108     0     5     1     8
  1.9293378782831291E-01 a       109     0     5     1     9
  1.9560023075660385E-01 a       110     0     5     1    10
 -4.8083648627083357E-02 a       111     0     5     1    11
  8.5709625187315161E-02 a       112     0     5     1    12
  4.3171695217692416E-02 a       113     0     5     1    13
 -1.8519290612754646E-01 a       114     0     5     1    14
  3.2622413783217480E-02 a       115     0     5     1    15
  2.5964870278542734E-01 a       116     0     5     1    16
 -1.5035234190248689E-01 a       117     0     5     1    17
 -2.0556189357701091E-01 a       118     0     5     1    18
  7.3270583757541849E-02 a       119     0     5     1    19
  7.1782767338660954E-03 a       120     0     5     1    20
 -2.0711814081450258E-01 a       121     0     5     1    21
 -2.2333612639744710E-01 a       122     0     5     1    22
 -9.0249860772736550E-03 a       123     0     5     1    23
  1.7203740949283025E-01 a       124     0     5     1    24
  2.7851410987609171E-01 a       125     0     5     1    25
 -1.3462075941601127E-03 a       126     0     6     1     1
 -3.3560695023456599E-01 a       127     0     6     1     2
 -1.4563563688767323E-01 a       128     0     6     1     3
  4.8705925311433975E-03 a       129     0     6     1     4
 -1.2794392872496524E-01 a       130     0     6     1     5
 -3.7036635878941521E-01 a       131     0     6     1     6
 -2.3314701437681304E-01 a       132     0     6     1     7
  1.1140093103977189E+00 a       133     0     6     1     8
  3.4335535377480375E-01 a       134     0     6     1     9
 -1.6434788995106070E-01 a       135     0     6     1    10
 -1.0515327430429355E-01 a       136     0     6     1    11
 -6.6539879742431063E-01 a       137     0     6     1    12
 -2.7819309134222836E-01 a       138     0     6     1    13
  1.6360872037321889E-01 a       139     0     6     1    14
  5.8792325231518372E-01 a       140     0     6     1    15
 -8.3662968371712765E-01 a       141     0     6     1    16
 -1.0784653991125695E-01 a       142     0     6     1    17
  1.6893512824224806E+00 a       143     0     6     1    18
  8.8278222615044077E-01 a       144     0     6     1    19
 -2.5975206417801466E-01 a       145     0     6     1    20
  2.6418505781900536E-01 a       146     0     6     1    21
 -6.0484233156477374E-01 a       147     0     6     1    22
 -2.0892585427409718E-01 a       148     0     6     1    23
 -1.2141511057199785E+00 a       149     0     6     1    24
  5.3939249737117623E-01 a       150     0     6     1    25
 -4.3003339983364763E-01 a       151     0     7     1     1
  6.5422950817333714E-01 a       152     0     7     1     2
 -1.4713754287378933E-01 a       153     0     7     1     3
  4.6002757390244631E-01 a       154     0     7     1     4
  3.8958025696528897E-01 a       155     0     7     1     5
  4.5081265915637359E-01 a       156     0     7     1     6
  6.7108705790892587E-01 a       157     0     7     1     7
 -7.9602248513702500E-01 a       158     0     7     1     8
  8.6968521161312429E-01 a       159     0     7     1     9
  2.4502133000921250E-01 a       160     0     7     1    10
 -8.1619062431507949E-01 a       161     0     7     1    11
  9.0421776632071862E-02 a       162     0     7     1    12
  8.5028893116193638E-01 a       163     0     7     1    13
  2.9945842951434803E-01 a       164     0     7     1    14
  2.8587803144106722E-01 a       165     0     7     1    15
 -1.6629435732403250E-01 a       166     0     7     1    16
  4.4869610773672242E-01 a       167     0     7     1    17
 -6.1013644911996023E-01 a       168     0     7     1    18
 -5.8564944591954653E-02 a       169     0     7     1    19
 -3.5850897072242061E-01 a       170     0     7     1    20
 -4.0742102241092026E-01 a       171     0     7     1    21
 -5.3170056889199513E-01 a       172     0     7     1    22
 -8.4193065885022317E-02 a       173     0     7     1    23
  1.1558467013901612E-01 a       174     0     7     1    24
  9.4843315472688638E-01 a       175     0     7     1    25
 -1.4763062721075756E-01 a       176     0     8     1     1
  6.1086351919168051E-02 a       177     0     8     1     2
 -7.3470857249049587E-02 a       178     0     8     1     3
 -1.0474863359554017E-01 a       179     0     8     1     4
 -2.0919311257070580E-02 a       180     0     8     1     5
 -1.7139865936727439E-02 a       181     0     8     1     6
  5.6736732281250388E-05 a       182     0     8     1     7
 -2.5856974278596130E-02 a       183     0     8     1     8
 -1.8962325395187423E-03 a       184     0     8     1     9
  3.6782492150017873E-02 a       185     0     8     1    10
  1.1578136960805190E-01 a       186     0     8     1    11
 -1.3966242322480568E-01 a       187     0     8     1    12
 -1.1022978351497033E-01 a       188     0     8     1    13
 -9.5728628110013800E-02 a       189     0     8     1    14
  6.3906474863753934E-02 a       190     0     8     1    15
  4.1726357720537517E-02 a       191     0     8     1    16
  2.7553362944312687E-01 a       192     0     8     1    17
 -1.9313723192190272E-02 a       193     0     8     1    18
 -1.1223413534352235E-01 a       194     0     8     1    19
 -1.5632744027635460E-02 a       195     0     8     1    20
 -3.6912179366201531E-02 a       196     0     8     1    21
  7.6009987376860919E-02 a       197     0     8     1    22
  2.4025203672333262E-01 a       198     0     8     1    23
 -9.9544605924671598E-02 a       199     0     8     1    24
  1.4432014518972965E-02 a       200     0     8     1    25
 -2.6997064323510611E-01 a       201     0     9     1     1
 -1.8908349680889464E-01 a       202     0     9     1     2
  7.6656336238549061E-01 a       203     0     9     1     3
 -2.7343794384551385E-02 a       204     0     9     1     4
  2.5371294144759393E-01 a       205     0     9     1     5
 -5.7315660060172069E-01 a       206     0     9     1     6
  3.8688342703581108E-01 a       207     0     9     1     7
 -6.0072723027167740E-01 a       208     0     9     1     8
 -3.8648247299528921E-01 a       209     0     9     1     9
 -8.4396231205058722E-02 a       210     0     9     1    10
  3.5591908653844634E-01 a       211     0     9     1    11
 -1.3399470727452137E-01 a       212     0     9     1    12
  5.6769649671783196E-01 a       213     0     9     1    13
  2.0894635963751509E-01 a       214     0     9     1    14
 -3.8238402269207195E-01 a       215     0     9     1    15
  2.4790318663276656E-01 a       216     0     9     1    16
 -3.4567802072884757E-01 a       217     0     9     1    17
 -5.1349365669669556E-01 a       218     0     9     1    18
  1.1405520897155204E-01 a       219     0     9     1    19
  7.8204567463460839E-01 a       220     0     9     1    20
 -3.4819927803695333E-01 a       221     0     9     1    21
  5.9435170030696138E-01 a       222     0     9     1    22
  7.4860210386842013E-02 a       223     0     9     1    23
  2.6309632691354740E-01 a       224     0     9     1    24
 -9.4422383731765203E-01 a       225     0     9     1    25
 -2.0775966410956853E-01 a       226     0    10     1     1
 -2.3457679861070549E-01 a       227     0    10     1     2
  3.3923916878748905E-01 a       228     0    10     1     3
 -8.2873282771594592E-01 a       229     0    10     1     4
 -1.9794909224630619E-01 a       230     0    10     1     5
 -4.1484328514816227E-01 a       231     0    10     1     6
 -1.8401118241302369E-01 a       232     0    10     1     7
 -1.7381725630819275E-01 a       233     0    10     1     8
 -4.5052482857376847E-01 a       234     0    10     1     9
  4.7689998998795852E-01 a       235     0    10     1    10
  3.0455196277752705E-01 a       236     0    10     1    11
  3.3413624860239138E-01 a       237     0    10     1    12
 -1.9407224550570931E-01 a       238     0    10     1    13
  1.0394778797441327E-01 a       239     0    10     1    14
 -4.0157314826537649E-01 a       240     0    10     1    15
 -1.1437835066518298E-01 a       241     0    10     1    16
 -3.9591206678435931E-01 a       242     0    10     1    17
 -1.7357626129100046E-01 a       243     0    10     1    18
 -3.7538213066759540E-01 a       244     0    10     1    19
 -5.8620947298858361E-01 a       245     0    10     1    20
  4.5445803004476489E-02 a       246     0    10     1    21
  2.3361119654321622E-01 a       247     0    10     1    22
  4.3042778142601751E-01 a       248     0    10     1    23
 -9.2210508945411829E-02 a       249     0    10     1    24
  1.3124977384224315E-01 a       250     0    10     1    25
  1.0045101910995674E-02 a       251     0    11     1     1
  1.7142150086628134E-02 a       252     0    11     1     2
 -2.2289249416263979E-01 a       253     0    11     1     3
  1.9567484596157295E-01 a       254     0    11     1     4
  1.1704791127734248E-02 a       255     0    11     1     5
  2.0510123578447573E-01 a       256     0    11     1     6
  2.7639269132728883E-01 a       257     0    11     1     7
 -2.9865170603777641E-01 a       258     0    11     1     8
  3.8372668614302989E-02 a       259     0    11     1     9
  1.6794114604832269E-01 a       260     0    11     1    10
 -1.1095954160069456E-01 a       261     0    11     1    11
  4.7722030897946265E-02 a       262     0    11     1    12
 -6.7233227615230290E-02 a       263     0    11     1    13
 -2.8307511317478745E-01 a       264     0    11     1    14
 -6.6437159702886564E-02 a       265     0    11     1    15
  1.7009663999146451E-02 a       266     0    11     1    16
 -1.4108713806203388E-01 a       267     0    11     1    17
 -2.0341945119836732E-01 a       268     0    11     1    18
  2.0838745952243207E-02 a       269     0    11     1    19
 -4.3050891679076819E-01 a       270     0    11     1    20
  1.5746356084646587E-01 a       271     0    11     1    21
 -5.5140328283670645E-02 a       272     0    11     1    22
  1.8186919978590091E-01 a       273     0    11     1    23
  3.3074665616550626E-02 a       274     0    11     1    24
  8.7764933889054167E-02 a       275     0    11     1    25
 -3.8908606010768687E-01 a       276     0    12     1     1
 -3.0011161564257882E-01 a       277     0    12     1     2
 -2.0755283745948866E-01 a       278     0    12     1     3
  1.6741649185052521E-01 a       279     0    12     1     4
 -5.1137555513359523E-01 a       280     0    12     1     5
  4.3983813250234466E-01 a       281     0    12     1     6
 -6.9402254236129057E-01 a       282     0    12     1     7
  5.7582135490045405E-01 a       283     0    12     1     8
  1.1166605391272301E-01 a       284     0    12     1     9
 -4.2536675180789019E-01 a       285     0    12     1    10
  1.1772703637804945E-01 a       286     0    12     1    11
 -3.1024979488044790E-01 a       287     0    12     1    12
 -4.5864116192727694E-01 a       288     0    12     1    13
  1.8334158329246192E-01 a       289     0    12     1    14
  6.7374589954150332E-01 a       290     0    12     1    15
 -3.8770688554240727E-02 a       291     0    12     1    16
  2.1250521823511070E-01 a       292     0    12     1    17
  1.1854474488640170E+00 a       293     0    12     1    18
  3.5141924852524770E-01 a       294     0    12     1    19
 -4.0040737321407105E-01 a       295     0    12     1    20
  5.3269708743488819E-01 a       296     0    12     1    21
 -6.2951171711091114E-01 a       297     0    12     1    22
 -2.7511596543491273E-01 a       298     0    12     1    23
 -3.8927270146514337E-01 a       299     0    12     1    24
  4.6559798417967485E-01 a       300     0    12     1    25
 -1.8595278198124110E-01 a       301     0    13     1     1
  2.2241117972216767E-01 a       302     0    13     1     2
 -2.2709595446743544E-01 a       303     0    13     1     3
  4.5276008295274001E-01 a       304     0    13     1     4
  2.8075246815015475E-01 a       305     0    13     1     5
 -2.5143502746219637E-01 a       306     0    13     1     6
  2.5140281428980810E-01 a       307     0    13     1     7
 -3.0885934681289307E-01 a       308     0    13     1     8
  2.6978509817417057E-01 a       309     0    13     1     9
  2.2306227023274847E-01 a       310     0    13     1    10
 -1.3506719052156059E-02 a       311     0    13     1    11
  3.3523564301708011E-02 a       312     0    13     1    12
 -3.4805258584880211E-01 a       313     0    13     1    13
 -2.8797850677650672E-01 a       314     0    13     1    14
  3.5690586333283016E-02 a       315     0    13     1    15
  6.0001858760202731E-01 a       316     0    13     1    16
  3.9611041059633018E-01 a       317     0    13     1    17
  1.0287241244252325E-01 a       318     0    13     1    18
  3.3010293804720131E-01 a       319     0    13     1    19
  6.4401112636966892E-02 a       320     0    13     1    20
 -1.0241921060955365E-01 a       321     0    13     1    21
  2.3730926604986008E-01 a       322     0    13     1    22
  6.2693914578201462E-02 a       323     0    13     1    23
  1.5775686414490558E-01 a       324     0    13     1    24
  5.3006721671156398E-01 a       325     0    13     1    25
 -1.6119726997940155E-02 a       326     0    14     1     1
  7.4643797796939429E-02 a       327     0    14     1     2
  2.6164371350483595E-01 a       328     0    14     1     3
 -7.3546731217065939E-02 a       329     0    14     1     4
  3.6056560430673963E-02 a       330     0    14     1     5
 -1.5717212986835993E-01 a       331     0    14     1     6
 -6.5022861910626645E-02 a       332     0    14     1     7
  1.9847215289055465E-02 a       333     0    14     1     8
  1.4856941281779484E-02 a       334     0    14     1     9
  3.8017996785398500E-01 a       335     0    14     1    10
 -4.5013001421762629E-02 a       336     0    14     1    11
 -1.0091760264482566E-01 a       337     0    14     1    12
  8.1514567624963077E-02 a       338     0    14     1    13
 -5.7414230477614979E-02 a       339     0    14     1    14
  3.5179155274994593E-02 a       340     0    14     1    15
 -4.2030997589694152E-03 a       341     0    14     1    16
  7.4959733071241083E-02 a       342     0    14     1    17
 -8.9434437930447919E-02 a       343     0    14     1    18
 -7.7413035381268050E-02 a       344     0    14     1    19
 -6.8839855056736898E-02 a       345     0    14     1    20
 -2.2356597301988773E-01 a       346     0    14     1    21
  4.0267567812942960E-03 a       347     0    14     1    22
 -3.8874792805292088E-02 a       348     0    14     1    23
 -5.5774275653275023E-02 a       349     0    14     1    24
  3.7746564887702494E-01 a       350     0    14     1    25
  1.4381432247597112E-01 a       351     0    15     1     1
 -4.2093240099112778E-02 a       352     0    15     1     2
  4.2289765934647827E-01 a       353     0    15     1     3
  7.1409905062489634E-02 a       354     0    15     1     4
  8.3541082497729124E-02 a       355     0    15     1     5
 -6.9205389067996434E-02 a       356     0    15     1     6
  2.6487918668716104E-01 a       357     0    15     1     7
  6.1436840011751391E-02 a       358     0    15     1     8
 -2.8441290211678028E-01 a       359     0    15     1     9
  5.0418364609195283E-03 a       360     0    15     1    10
  1.0848716112725336E-01 a       361     0    15     1    11
 -3.5192462344919864E-02 a       362     0    15     1    12
  4.1013785538375813E-01 a       363     0    15     1    13
  5.3911231156409702E-02 a       364     0    15     1    14
 -2.7229248188695404E-01 a       365     0    15     1    15
 -4.5512095519624457E-02 a       366     0    15     1    16
 -2.2234945378672222E-01 a       367     0    15     1    17
 -1.2277289248420446E-01 a       368     0    15     1    18
  1.5618252351539166E-01 a       369     0    15     1    19
  6.8859648479500157E-01 a       370     0    15     1    20
 -7.5259179501308768E-02 a       371     0    15     1    21
  3.9753573274047432E-01 a       372     0    15     1    22
 -7.1280324698404993E-02 a       373     0    15     1    23
  1.9547629430450128E-01 a       374     0    15     1    24
 -5.4619694258595752E-01 a       375     0    15     1    25
 -2.0541081121412136E-01 a       376     0    16     1     1
 -4.7940206763730309E-03 a       377     0    16     1     2
  3.2458772577751938E-01 a       378     0    16     1     3
 -3.9855552077814088E-01 a       379     0    16     1     4
 -1.9308265916768574E-01 a       380     0    16     1     5
 -4.3686942342467255E-02 a       381     0    16     1     6
 -4.3452955551694011E-02 a       382     0    16     1     7
  1.6813758898533041E-01 a       383     0    16     1     8
 -3.2282597202934388E-01 a       384     0    16     1     9
  3.7853077930962487E-01 a       385     0    16     1    10
 -1.5166062564071153E-01 a       386     0    16     1    11
  2.7903657320334446E-01 a       387     0    16     1    12
  1.4195835252982411E-01 a       388     0    16     1    13
  5.1096715763883999E-02 a       389     0    16     1    14
 -1.8507043767963960E-01 a       390     0    16     1    15
 -5.0117214571408353E-01 a       391     0    16     1    16
 -3.4135910694652877E-01 a       392     0    16     1    17
 -2.6425361981578899E-01 a       393     0    16     1    18
 -2.0552913092989933E-01 a       394     0    16     1    19
 -4.5029148146279296E-01 a       395     0    16     1    20
 -1.5692673782071470E-01 a       396     0    16     1    21
  4.2764834045951959E-02 a       397     0    16     1    22
 -2.1952722842923050E-01 a       398     0    16     1    23
 -2.5883912431894102E-02 a       399     0    16     1    24
  3.5515262286753960E-02 a       400     0    16     1    25
 -1.3650552493450790E-01 a       401     0    17     1     1
 -4.7149562368063641E-02 a       402     0    17     1     2
 -2.8788643330143110E-01 a       403     0    17     1     3
 -1.6008007173170999E-01 a       404     0    17     1     4
  5.4119499304237574E-02 a       405     0    17     1     5
  5.1825582520719414E-02 a       406     0    17     1     6
  2.8643803771235610E-01 a       407     0    17     1     7
 -1.4312837810037418E-01 a       408     0    17     1     8
  7.1852803677645974E-02 a       409     0    17     1     9
 -7.7468880844226568E-02 a       410     0    17     1    10
  3.6961625501722259E-02 a       411     0    17     1    11
 -2.6483757685182706E-02 a       412     0    17     1    12
 -1.2619387266340629E-01 a       413     0    17     1    13
 -1.5949448788896226E-01 a       414     0    17     1    14
 -7.2453965257469805E-02 a       415     0    17     1    15
  8.0659105337617221E-02 a       416     0    17     1    16
 -5.7994941505077967E-02 a       417     0    17     1    17
 -2.6506873456773783E-01 a       418     0    17     1    18
 -1.0895827547093787E-02 a       419     0    17     1    19
 -3.6241541298074875E-01 a       420     0    17     1    20
  9.2943177598373852E-02 a       421     0    17     1    21
  4.8019447421845107E-02 a       422     0    17     1    22
 -3.9777349634318268E-02 a       423     0    17     1    23
 -8.0618447173137894E-04 a       424     0    17     1    24
  1.6593974320892994E-02 a       425     0    17     1    25
  3.6097832254287456E-02 a       426     0    18     1     1
 -1.9034975873669913E-02 a       427     0    18     1     2
  1.6183823050689758E-01 a       428     0    18     1     3
 -8.8136273616514507E-02 a       429     0    18     1     4
 -1.8802535017056435E-01 a       430     0    18     1     5
  4.5427106005969265E-03 a       431     0    18     1     6
 -4.1727459928421512E-01 a       432     0    18     1     7
  1.0859131101765021E-01 a       433     0    18     1     8
  1.8883619892505987E-01 a       434     0    18     1     9
 -1.3479769214867049E-01 a       435     0    18     1    10
 -2.1987725790497101E-02 a       436     0    18     1    11
  2.1160161283469109E-01 a       437     0    18     1    12
 -1.9784349526909648E-01 a       438     0    18     1    13
  3.8422215546377914E-01 a       439     0    18     1    14
  3.2832319147614153E-01 a       440     0    18     1    15
 -8.9532729965480673E-02 a       441     0    18     1    16
  1.2423384367765003E-02 a       442     0    18     1    17
  1.2958904428748400E-01 a       443     0    18     1    18
  1.3887012893431097E-01 a       444     0    18     1    19
  2.3714508055413591E-01 a       445     0    18     1    20
  1.2191467060150854E-01 a       446     0    18     1    21
 -2.9444304685850448E-01 a       447     0    18     1    22
  2.2760612049305079E-01 a       448     0    18     1    23
 -1.1439155881479242E-01 a       449     0    18     1    24
 -5.8545490462667195E-02 a       450     0    18     1    25
  2.3228561818319712E-01 a       451     0    19     1     1
 -1.0433132521741330E-01 a       452     0    19     1     2
 -3.5999741978886945E-01 a       453     0    19     1     3
  1.9262624083772339E-01 a       454     0    19     1     4
  3.1125609403801835E-01 a       455     0    19     1     5
 -2.9377104789067926E-01 a       456     0    19     1     6
 -1.0360817622218266E-01 a       457     0    19     1     7
 -2.9344925029854402E-01 a       458     0    19     1     8
  2.7874912323677487E-01 a       459     0    19     1     9
 -2.9107824609218937E-02 a       460     0    19     1    10
  1.2732806482294357E-01 a       461     0    19     1    11
 -3.2803698576536527E-01 a       462     0    19     1    12
 -2.1631066399249760E-01 a       463     0    19     1    13
 -8.3319826373274605E-02 a       464     0    19     1    14
  1.1199259038489481E-01 a       465     0    19     1    15
  4.8457419636810350E-01 a       466     0    19     1    16
 -5.0513961461881841E-02 a       467     0    19     1    17
  2.6978402163054926E-01 a       468     0    19     1    18
  8.3884655532635397E-02 a       469     0    19     1    19
  9.9195233507195793E-02 a       470     0    19     1    20
  4.4250180908939028E-02 a       471     0    19     1    21
  3.0370071184026747E-02 a       472     0    19     1    22
  8.7765515480278597E-02 a       473     0    19     1    23
 -1.2885171263142386E-01 a       474     0    19     1    24
  1.3847756615999243E-01 a       475     0    19     1    25
  4.3279295717358491E-03 a       476     0    20     1     1
  4.0462116119569132E-02 a       477     0    20     1     2
  2.8053708108237635E-01 a       478     0    20     1     3
  8.9664797530057891E-03 a       479     0    20     1     4
  8.1351191276406415E-02 a       480     0    20     1     5
 -2.6683988178089885E-01 a       481     0    20     1     6
 -1.8508477597645726E-01 a       482     0    20     1     7
  2.2825997887203645E-02 a       483     0    20     1     8
 -6.7858207745350577E-02 a       484     0    20     1     9
  4.7800767990222665E-01 a       485     0    20     1    10
 -5.5789581457547303E-02 a       486     0    20     1    11
 -5.8473368802572062E-02 a       487     0    20     1    12
  8.9086674095115476E-02 a       488     0    20     1    13
 -1.8886396098618165E-02 a       489     0    20     1    14
  8.5067724134333014E-02 a       490     0    20     1    15
 -6.2950460965769159E-02 a       491     0    20     1    16
 -9.8695247353014812E-02 a       492     0    20     1    17
  1.4904365041959744E-01 a       493     0    20     1    18
 -7.0945060878603361E-02 a       494     0    20     1    19
  3.8720263510761511E-04 a       495     0    20     1    20
 -2.5253936178499753E-01 a       496     0    20     1    21
  1.4055283479991371E-02 a       497     0    20     1    22
 -5.3130149695815088E-02 a       498     0    20     1    23
 -1.1769983891149974E-01 a       499     0    20     1    24
  1.4721575284378846E-01 a       500     0    20     1    25
  4.1521299555206698E-01 a       501     0    21     1     1
 -6.0340960575140171E-02 a       502     0    21     1     2
  6.9481395007035179E-02 a       503     0    21     1     3
  2.0928940863989556E-01 a       504     0    21     1     4
 -1.0396388103377988E-01 a       505     0    21     1     5
  3.2799364598657121E-01 a       506     0    21     1     6
  7.7364240260018174E-02 a       507     0    21     1     7
 -3.4429433419083680E-02 a       508     0    21     1     8
 -3.3454825805862870E-02 a       509     0    21     1     9
 -2.0710530007158567E-01 a       510     0    21     1    10
 -4.2667742306615082E-02 a       511     0    21     1    11
 -1.3669224507630953E-01 a       512     0    21     1    12
  2.9751562785332747E-01 a       513     0    21     1    13
 -2.2862654573895680E-01 a       514     0    21     1    14
 -2.9489744703143378E-01 a       515     0    21     1    15
 -2.3589353328725981E-02 a       516     0    21     1    16
  2.2018463819765832E-01 a       517     0    21     1    17
 -1.9338997878841933E-02 a       518     0    21     1    18
 -1.2682497340739531E-02 a       519     0    21     1    19
 -1.4999423098941617E-02 a       520     0    21     1    20
  1.4187734000813562E-01 a       521     0    21     1    21
  4.1470169981599359E-02 a       522     0    21     1    22
 -8.7392289314193058E-02 a       523     0    21     1    23
  1.6087392190205599E-01 a       524     0    21     1    24
  1.0485792059140294E-02 a       525     0    21     1    25
 -5.7934538568898586E-01 a       526     0    22     1     1
  1.0162865617597425E-01 a       527     0    22     1     2
  5.1983194969218494E-01 a       528     0    22     1     3
 -4.0087660079262355E-01 a       529     0    22     1     4
  4.0533870374031703E-03 a       530     0    22     1     5
 -1.6600916568394125E-01 a       531     0    22     1     6
  1.3037670738279061E-01 a       532     0    22     1     7
  1.0368133613725848E-01 a       533     0    22     1     8
 -1.8288216022477682E-01 a       534     0    22     1     9
  4.3230744346019678E-01 a       535     0    22     1    10
 -3.1758746686717916E-02 a       536     0    22     1    11
  1.9683683989234257E-01 a       537     0    22     1    12
  2.1214858831232838E-01 a       538     0    22     1    13
  1.2407703303878545E-01 a       539     0    22     1    14
 -2.1187315990361987E-03 a       540     0    22     1    15
 -2.2425432044968457E-01 a       541     0    22     1    16
 -1.3275714779524586E-01 a       542     0    22     1    17
 -4.5981536069501464E-02 a       543     0    22     1    18
  2.8746689021539790E-02 a       544     0    22     1    19
 -3.3799352670165389E-01 a       545     0    22     1    20
 -3.8740518874627522E-01 a       546     0    22     1    21
  1.1997580023496847E-01 a       547     0    22     1    22
 -1.3015544494210290E-01 a       548     0    22     1    23
  8.4861888674106017E-02 a       549     0    22     1    24
  6.8023603252353917E-02 a       550     0    22     1    25
 -1.5238801783512579E-01 a       551     0    23     1     1
 -6.8413530877967421E-02 a       552     0    23     1     2
 -1.1262051881712032E-01 a       553     0    23     1     3
 -2.2564383479679537E-01 a       554     0    23     1     4
  1.1557968034362509E-01 a       555     0    23     1     5
 -1.9967992794112652E-01 a       556     0    23     1     6
  1.8009675841352138E-01 a       557     0    23     1     7
 -2.0579563778327312E-01 a       558     0    23     1     8
  7.4812671987509197E-02 a       559     0    23     1     9
 -7.8899541015765032E-02 a       560     0    23     1    10
  1.5094491371143149E-02 a       561     0    23     1    11
 -1.2715156766274660E-02 a       562     0    23     1    12
 -1.2021700062008384E-01 a       563     0    23     1    13
  1.3986829192974778E-01 a       564     0    23     1    14
 -1.2286544130265456E-01 a       565     0    23     1    15
  1.6944030051482989E-01 a       566     0    23     1    16
 -2.4009500643012183E-01 a       567     0    23     1    17
 -4.4268894563674485E-02 a       568     0    23     1    18
  3.2119599835393892E-02 a       569     0    23     1    19
 -1.8370915361054452E-01 a       570     0    23     1    20
 -1.3257437466514185E-02 a       571     0    23     1    21
  1.8102010286958023E-01 a       572     0    23     1    22
  1.4869619370614875E-01 a       573     0    23     1    23
  4.2039058683781709E-02 a       574     0    23     1    24
 -8.6806553600152735E-03 a       575     0    23     1    25
  5.0785091822058051E-02 a       576     0    24     1     1
  1.1344772784065742E-01 a       577     0    24     1     2
 -7.0720358188445825E-02 a       578     0    24     1     3
  3.0893688283069043E-03 a       579     0    24     1     4
 -9.0836549479202541E-02 a       580     0    24     1     5
  2.5553252263038168E-01 a       581     0    24     1     6
 -1.6613271399828836E-01 a       582     0    24     1     7
  2.8018822791967400E-02 a       583     0    24     1     8
  6.6000934968231006E-02 a       584     0    24     1     9
  6.3922067901247825E-02 a       585     0    24     1    10
  1.5472571453297253E-02 a       586     0    24     1    11
  1.0098252889907698E-01 a       587     0    24     1    12
 -1.6370850244080512E-01 a       588     0    24     1    13
  4.0870083119522428E-02 a       589     0    24     1    14
  2.8604267377686232E-01 a       590     0    24     1    15
 -1.5304425200761140E-01 a       591     0    24     1    16
 -4.1495492702275502E-03 a       592     0    24     1    17
  3.1272163353365988E-02 a       593     0    24     1    18
  1.9829238746891232E-02 a       594     0    24     1    19
  2.6010629039868222E-01 a       595     0    24     1    20
  3.8385965634418922E-03 a       596     0    24     1    21
 -1.6752002583151213E-01 a       597     0    24     1    22
  3.6111082209960138E-01 a       598     0    24     1    23
 -6.6452500901651959E-02 a       599     0    24     1    24
 -2.0651611883308341E-01 a       600     0    24     1    25
  3.9482546125168999E-01 a       601     0    25     1     1
 -1.5546099337529093E-01 a       602     0    25     1     2
 -2.4611875691553595E-01 a       603     0    25     1     3
  1.3728359869490961E-01 a       604     0    25     1     4
  4.2174981859369964E-02 a       605     0    25     1     5
 -1.5198911716025287E-01 a       606     0    25     1     6
 -1.4249322135899645E-01 a       607     0    25     1     7
 -7.6935922340282875E-02 a       608     0    25     1     8
  2.1798935321148963E-01 a       609     0    25     1     9
 -2.6045545698116479E-01 a       610     0    25     1    10
  2.9575938264547415E-02 a       611     0    25     1    11
 -1.1433158987922498E-01 a       612     0    25     1    12
 -1.0216889514903012E-01 a       613     0    25     1    13
 -4.5246569857507406E-02 a       614     0    25     1    14
  2.2477683802039083E-02 a       615     0    25     1    15
  1.2178846594310778E-01 a       616     0    25     1    16
 -1.3936084211231284E-01 a       617     0    25     1    17
 -1.8360468539175025E-02 a       618     0    25     1    18
  1.1608120983245982E-02 a       619     0    25     1    19
  2.0206399060792782E-01 a       620     0    25     1    20
  1.9316560375951300E-01 a       621     0    25     1    21
 -6.2524055599553194E-02 a       622     0    25     1    22
 -2.7171254161622711E-02 a       623     0    25     1    23
 -9.9298147093005718E-02 a       624     0    25     1    24
 -3.5848552097829029E-03 a       625     0    25     1    25
  2.1331758646806313E-02 a       626     0    26     1     1
  5.4754986953907361E-02 a       627     0    26     1     2
 -1.3423465770454156E-02 a       628     0    26     1     3
  9.8562940045520339E-02 a       629     0    26     1     4
 -6.7847343323283460E-02 a       630     0    26     1     5
 -2.4940739263418020E-02 a       631     0    26     1     6
  6.3237618465638162E-02 a       632     0    26     1     7
  1.2461058720146691E-01 a       633     0    26     1     8
 -1.2420883523921050E-01 a       634     0    26     1     9
  4.7503985429835582E-02 a       635     0    26     1    10
  9.2103367404473002E-03 a       636     0    26     1    11
  6.5682184284041323E-02 a       637     0    26     1    12
  2.6480711106066774E-02 a       638     0    26     1    13
 -1.0188911934176885E-01 a       639     0    26     1    14
  7.3696313601883764E-02 a       640     0    26     1    15
 -2.8229738564719671E-02 a       641     0    26     1    16
  1.4101166532645235E-01 a       642     0    26     1    17
  1.0315390369107259E-01 a       643     0    26     1    18
 -4.0364728401225874E-02 a       644     0    26     1    19
  6.1641343762485187E-02 a       645     0    26     1    20
  6.6236160383204332E-02 a       646     0    26     1    21
 -5.6020458531863875E-02 a       647     0    26     1    22
 -2.3193568756841645E-01 a       648     0    26     1    23
  1.7453181673520470E-03 a       649     0    26     1    24
 -2.0137757282713054E-02 a       650     0    26     1    25
  1.2732156943026632E-01 a       651     0    27     1     1
 -2.0242408074532196E-02 a       652     0    27     1     2
  2.6178874710350662E-02 a       653     0    27     1     3
  9.6397018254004097E-02 a       654     0    27     1     4
 -1.9265377309841007E-02 a       655     0    27     1     5
  6.5313572695879785E-03 a       656     0    27     1     6
 -9.9918582734427261E-03 a       657     0    27     1     7
  2.1732694505685497E-03 a       658     0    27     1     8
 -1.0958483339214717E-01 a       659     0    27     1     9
 -1.7005822937232970E-01 a       660     0    27     1    10
 -9.5654168593789377E-02 a       661     0    27     1    11
  3.8662382601509547E-03 a       662     0    27     1    12
  9.3561005008802836E-02 a       663     0    27     1    13
  9.9704100411513133E-02 a       664     0    27     1    14
 -2.6189257335698107E-01 a       665     0    27     1    15
  5.1401380773264992E-03 a       666     0    27     1    16
  1.0962577428654087E-01 a       667     0    27     1    17
 -9.1512560210309873E-02 a       668     0    27     1    18
 -4.5569094669546818E-02 a       669     0    27     1    19
 -2.4341290594317590E-02 a       670     0    27     1    20
  1.1279920506505109E-01 a       671     0    27     1    21
  8.2063731804081705E-02 a       672     0    27     1    22
 -1.3656001271740126E-01 a       673     0    27     1    23
  5.8744904573841315E-02 a       674     0    27     1    24
  2.5408293968794748E-02 a       675     0    27     1    25
 -2.0795197848310473E-01 a       676     0    28     1     1
  7.8291288418869204E-02 a       677     0    28     1     2
  1.6771729192290999E-01 a       678     0    28     1     3
 -2.4902602875788177E-02 a       679     0    28     1     4
 -1.7927824468976814E-02 a       680     0    28     1     5
 -6.1879290510438903E-02 a       681     0    28     1     6
  8.9831766385724460E-02 a       682     0    28     1     7
  2.0644032756590023E-02 a       683     0    28     1     8
 -1.5965507657789038E-01 a       684     0    28     1     9
  1.5241345328671507E-01 a       685     0    28     1    10
 -4.0926272094847088E-02 a       686     0    28     1    11
  1.1970335677610718E-01 a       687     0    28     1    12
 -1.4294383261226421E-02 a       688     0    28     1    13
 -5.6463175674900789E-03 a       689     0    28     1    14
 -8.8524548946910128E-02 a       690     0    28     1    15
 -2.1216182055419884E-02 a       691     0    28     1    16
  1.3279470848877445E-01 a       692     0    28     1    17
  1.0361318849971128E-02 a       693     0    28     1    18
  3.8954359511018478E-02 a       694     0    28     1    19
 -1.3125304957813708E-01 a       695     0    28     1    20
 -8.2863822972437939E-02 a       696     0    28     1    21
  1.0528018184998250E-01 a       697     0    28     1    22
 -1.2446527354524473E-02 a       698     0    28     1    23
  5.4648721806685265E-02 a       699     0    28     1    24
  1.2162673174881003E-02 a       700     0    28     1    25
 -9.0619254667942295E-02 a       701     0    29     1     1
 -3.9197778552127090E-02 a       702     0    29     1     2
  9.2955566076230942E-02 a       703     0    29     1     3
 -2.6627865982555604E-01 a       704     0    29     1     4
  1.8018113518939788E-01 a       705     0    29     1     5
 -2.5018315110747830E-01 a       706     0    29     1     6
  4.3276541100705536E-03 a       707     0    29     1     7
 -1.0734166111917569E-01 a       708     0    29     1     8
  1.3025525697272716E-01 a       709     0    29     1     9
  1.3291462409641083E-01 a       710     0    29     1    10
  2.2558056602098704E-02 a       711     0    29     1    11
 -1.7521042791327881E-04 a       712     0    29     1    12
 -3.5080086655880631E-02 a       713     0    29     1    13
  1.4629342048568960E-02 a       714     0    29     1    14
  2.6275995249359897E-02 a       715     0    29     1    15
  6.7227925593531690E-02 a       716     0    29     1    16
 -3.2004559742006833E-01 a       717     0    29     1    17
 -3.1016516832385261E-03 a       718     0    29     1    18
  2.3617786687408261E-02 a       719     0    29     1    19
 -1.4093708714641592E-02 a       720     0    29     1    20
 -2.1237591012530943E-01 a       721     0    29     1    21
  1.2239801857534326E-01 a       722     0    29     1    22
  1.3538852798309017E-01 a       723     0    29     1    23
 -1.6143303862295906E-02 a       724     0    29     1    24
  3.3306269247030763E-02 a       725     0    29     1    25
  1.3094718272181316E-01 a       726     0    30     1     1
  2.3057398570956185E-02 a       727     0    30     1     2
 -2.5437524550550178E-02 a       728     0    30     1     3
 -2.2708253750727842E-02 a       729     0    30     1     4
 -4.8859832147905340E-02 a       730     0    30     1     5
  1.7795295811857292E-01 a       731     0    30     1     6
 -4.0959823584129904E-02 a       732     0    30     1     7
 -6.3821505728338312E-03 a       733     0    30     1     8
  7.1268060701028743E-02 a       734     0    30     1     9
  3.5650453320574552E-02 a       735     0    30     1    10
  3.8593387512878594E-02 a       736     0    30     1    11
 -2.5156206073965212E-03 a       737     0    30     1    12
 -2.5397074457310764E-02 a       738     0    30     1    13
 -1.1581472838493191E-01 a       739     0    30     1    14
  1.3347379994518177E-01 a       740     0    30     1    15
 -7.6674861372006478E-02 a       741     0    30     1    16
 -9.4409561456850269E-03 a       742     0    30     1    17
 -1.1555183829067233E-02 a       743     0    30     1    18
 -1.5142803110435860E-02 a       744     0    30     1    19
  1.4438978499777677E-01 a       745     0    30     1    20
  2.5741663945172081E-02 a       746     0    30     1    21
 -1.0275441501556280E-01 a       747     0    30     1    22
  1.2828936600383992E-01 a       748     0    30     1    23
 -4.1398949398539490E-02 a       749     0    30     1    24
 -5.5827243776256481E-02 a       750     0    30     1    25
  2.8341727722519761E-01 a       751     0    31     1     1
 -4.8220716748968634E-01 a       752     0    31     1     2
 -6.2787261706073225E-02 a       753     0    31     1     3
  8.2794141015989231E-01 a       754     0    31     1     4
  6.7493641679207839E-01 a       755     0    31     1     5
  3.9209868110589075E-01 a       756     0    31     1     6
 -4.0604128742159386E-02 a       757     0    31     1     7
  7.9106857562370125E-01 a       758     0    31     1     8
  3.6314319822745106E-01 a       759     0    31     1     9
 -3.4178322131515620E-01 a       760     0    31     1    10
  2.4972636377472954E-01 a       761     0    31     1    11
  8.0086945274879295E-01 a       762     0    31     1    12
 -5.3673362779236677E-01 a       763     0    31     1    13
  8.8503040840342079E-02 a       764     0    31     1    14
 -8.2294992143425105E-01 a       765     0    31     1    15
 -7.6363403735399582E-01 a       766     0    31     1    16
 -1.5370827820032867E-01 a       767     0    31     1    17
  7.8642717732677014E-01 a       768     0    31     1    18
 -4.0030682273649126E-01 a       769     0    31     1    19
  9.4715009703660791E-01 a       770     0    31     1    20
  3.6885992872382090E-01 a       771     0    31     1    21
 -2.9972525250763060E-01 a       772     0    31     1    22
  7.7340222701281394E-02 a       773     0    31     1    23
  1.9517663491748577E-01 a       774     0    31     1    24
 -1.9750674141256855E-01 a       775     0    31     1    25
  7.1304529807253395E-02 a       776     0    32     1     1
 -2.7109325445120278E-02 a       777     0    32     1     2
  5.0818713348286942E-02 a       778     0    32     1     3
 -3.4106886985018653E-02 a       779     0    32     1     4
  1.4761619688172720E-01 a       780     0    32     1     5
  3.2493901438719100E-03 a       781     0    32     1     6
 -2.4740586428218933E-01 a       782     0    32     1     7
  1.6662891638523092E-01 a       783     0    32     1     8
 -3.2884418260149509E-03 a       784     0    32     1     9
  5.9491030343881569E-02 a       785     0    32     1    10
 -1.1299349654165189E-02 a       786     0    32     1    11
  1.5730849816311943E-01 a       787     0    32     1    12
  1.2540417758301352E-02 a       788     0    32     1    13
  4.1173145859685922E-01 a       789     0    32     1    14
 -2.1903847601637057E-02 a       790     0    32     1    15
 -1.1623668707547460E-01 a       791     0    32     1    16
 -6.4016836477334282E-01 a       792     0    32     1    17
 -1.1089509009140790E-01 a       793     0    32     1    18
  1.4715007609473594E-02 a       794     0    32     1    19
  2.0249118965316251E-01 a       795     0    32     1    20
 -2.3998496674634592E-02 a       796     0    32     1    21
 -1.4316879411268644E-02 a       797     0    32     1    22
  1.7701696515102114E-01 a       798     0    32     1    23
  1.1993690529554984E-01 a       799     0    32     1    24
  9.3145528860763174E-02 a       800     0    32     1    25
  1.5473082083339076E-01 a       801     0    33     1     1
  5.8628548258756269E-02 a       802     0    33     1     2
 -3.5613985478283672E-01 a       803     0    33     1     3
 -3.2223016038148961E-01 a       804     0    33     1     4
 -1.2332444985698729E+00 a       805     0    33     1     5
 -3.8738293957618525E-01 a       806     0    33     1     6
  9.5325078343762715E-01 a       807     0    33     1     7
 -8.3373953735730200E-01 a       808     0    33     1     8
 -8.4972089720895927E-01 a       809     0    33     1     9
 -7.2611843656759911E-01 a       810     0    33     1    10
  6.6584316527675169E-01 a       811     0    33     1    11
 -8.1581850410379797E-01 a       812     0    33     1    12
 -1.8495311439134066E-01 a       813     0    33     1    13
  5.0920360486398775E-01 a       814     0    33     1    14
  7.4448611467206560E-01 a       815     0    33     1    15
 -3.9026921338582216E-01 a       816     0    33     1    16
  6.0884811360315115E-02 a       817     0    33     1    17
  2.4340156739143772E-02 a       818     0    33     1    18
  1.5905649429359834E+00 a       819     0    33     1    19
  6.9908885199730619E-01 a       820     0    33     1    20
 -1.0652119752839186E+00 a       821     0    33     1    21
  4.1692184895803047E-01 a       822     0    33     1    22
  2.2192113158575871E-02 a       823     0    33     1    23
 -7.9980593817755463E-01 a       824     0    33     1    24
  4.9792552310260824E-01 a       825     0    33     1    25
 -2.3959757932690195E-01 a       826     0    34     1     1
 -9.3296330234215146E-06 a       827     0    34     1     2
  1.5905969312077467E-01 a       828     0    34     1     3
 -3.0186066584596761E-02 a       829     0    34     1     4
  5.1601632398115431E-02 a       830     0    34     1     5
 -4.6079615051462346E-02 a       831     0    34     1     6
  1.1978743797809159E-01 a       832     0    34     1     7
  1.0525661016348448E-01 a       833     0    34     1     8
 -1.3191914986488881E-01 a       834     0    34     1     9
 -2.1122371025230577E-01 a       835     0    34     1    10
  1.3035896792557364E-01 a       836     0    34     1    11
  3.0184491222728007E-02 a       837     0    34     1    12
 -2.5073549085374464E-01 a       838     0    34     1    13
  4.3493087452674307E-02 a       839     0    34     1    14
 -5.1571869409692390E-02 a       840     0    34     1    15
 -3.7617219905521880E-02 a       841     0    34     1    16
  4.3200372309792140E-01 a       842     0    34     1    17
 -4.2994344018586615E-02 a       843     0    34     1    18
  1.7887852799822002E-01 a       844     0    34     1    19
 -1.0706773222329186E-01 a       845     0    34     1    20
 -2.1336600913212400E-01 a       846     0    34     1    21
  4.6309258880311788E-02 a       847     0    34     1    22
 -1.0094828591408511E-01 a       848     0    34     1    23
  1.0660507971469202E-01 a       849     0    34     1    24
  3.3994108634042597E-01 a       850     0    34     1    25
  2.3168779036922110E-01 a       851     0    35     1     1
  1.4854511279781510E-01 a       852     0    35     1     2
  1.9323763578702000E-01 a       853     0    35     1     3
  1.3530585840752526E-01 a       854     0    35     1     4
  5.6157773066343020E-01 a       855     0    35     1     5
 -1.1140473248811350E-01 a       856     0    35     1     6
 -3.1228574373823786E-01 a       857     0    35     1     7
  1.8632365549605506E-01 a       858     0    35     1     8
  7.7029317844667011E-01 a       859     0    35     1     9
  4.5683458752246003E-01 a       860     0    35     1    10
 -7.6793216703685374E-01 a       861     0    35     1    11
  4.2888540200191771E-01 a       862     0    35     1    12
  1.1838447434760784E+00 a       863     0    35     1    13
 -3.3503520076036891E-01 a       864     0    35     1    14
 -8.5901949602607119E-01 a       865     0    35     1    15
  6.3048707979265317E-01 a       866     0    35     1    16
  7.6478207302590018E-01 a       867     0    35     1    17
 -5.4582061600402176E-01 a       868     0    35     1    18
 -8.0570850553727036E-01 a       869     0    35     1    19
 -1.1010241712654922E+00 a       870     0    35     1    20
  1.4809594903106071E-01 a       871     0    35     1    21
 -2.1614292444944730E-01 a       872     0    35     1    22
 -4.3452545346185478E-02 a       873     0    35     1    23
  7.4127566000273126E-01 a       874     0    35     1    24
 -8.0579839091341532E-01 a       875     0    35     1    25
 -1.4878743111699315E-02 a       876     0    36     1     1
  2.9245876493625245E-01 a       877     0    36     1     2
  2.1528968717131605E-01 a       878     0    36     1     3
 -5.0808638531256811E-01 a       879     0    36     1     4
  8.1864663742319092E-03 a       880     0    36     1     5
 -2.3820734685570880E-01 a       881     0    36     1     6
 -1.2436056290993942E+00 a       882     0    36     1     7
 -5.3653659470930748E-01 a       883     0    36     1     8
 -1.4890764316634201E-02 a       884     0    36     1     9
  4.2235716556727573E-02 a       885     0    36     1    10
 -1.2753655230239724E+00 a       886     0    36     1    11
  2.7861057342673334E-01 a       887     0    36     1    12
 -8.3811022599582008E-01 a       888     0    36     1    13
  1.0374971309847458E-01 a       889     0    36     1    14
  2.9135096116107490E-01 a       890     0    36     1    15
  1.0179309005085531E+00 a       891     0    36     1    16
 -5.5018252362778020E-01 a       892     0    36     1    17
 -8.2790471158876233E-01 a       893     0    36     1    18
  1.8131553971976680E-01 a       894     0    36     1    19
  5.7911456643663373E-01 a       895     0    36     1    20
  8.5871539712127021E-01 a       896     0    36     1    21
  6.3817835821073243E-01 a       897     0    36     1    22
 -2.0239735105149542E-01 a       898     0    36     1    23
 -7.9056174981911043E-01 a       899     0    36     1    24
 -1.8879935497936112E-01 a       900     0    36     1    25
  4.1820890877566394E-02 a       901     0    37     1     1
  6.0225435352935168E-02 a       902     0    37     1     2
  5.4761714670925728E-02 a       903     0    37     1     3
 -6.1998138390437565E-03 a       904     0    37     1     4
  6.9775130863900386E-02 a       905     0    37     1     5
 -1.0191746599219466E-01 a       906     0    37     1     6
  2.3801500649911083E-02 a       907     0    37     1     7
 -1.7593684987190530E-01 a       908     0    37     1     8
  4.1058366617796098E-02 a       909     0    37     1     9
  7.5479562441490927E-02 a       910     0    37     1    10
 -2.1294127730630059E-02 a       911     0    37     1    11
 -3.4265347179623984E-02 a       912     0    37     1    12
 -9.0897302010616340E-02 a       913     0    37     1    13
 -2.9932521952813301E-01 a       914     0    37     1    14
 -8.4560361580148194E-02 a       915     0    37     1    15
  7.4518840957181059E-02 a       916     0    37     1    16
  3.9469337549300337E-01 a       917     0    37     1    17
  3.3460570463961453E-01 a       918     0    37     1    18
  7.2291147889305310E-02 a       919     0    37     1    19
  1.5446491654883016E-01 a       920     0    37     1    20
 -1.4507592155131531E-02 a       921     0    37     1    21
  1.8799304179186194E-01 a       922     0    37     1    22
 -4.2313003937012345E-02 a       923     0    37     1    23
 -1.1525457595413421E-01 a       924     0    37     1    24
 -2.1157721512300759E-01 a       925     0    37     1    25
  2.8657099413126847E-02 a       926     0    38     1     1
  7.9678292722566851E-02 a       927     0    38     1     2
  6.0676926653379748E-01 a       928     0    38     1     3
  5.2410941725154059E-01 a       929     0    38     1     4
  6.5695120822846953E-01 a       930     0    38     1     5
 -5.7327647334301013E-01 a       931     0    38     1     6
  8.9694439106707080E-01 a       932     0    38     1     7
  1.3118216952546828E+00 a       933     0    38     1     8
 -1.0848888504290199E+00 a       934     0    38     1     9
  3.3930177987577415E-01 a       935     0    38     1    10
  6.0059813002198381E-01 a       936     0    38     1    11
  4.7921103843267387E-01 a       937     0    38     1    12
  3.9297104023737366E-02 a       938     0    38     1    13
  8.0411595739332897E-01 a       939     0    38     1    14
  2.8086361175037322E-01 a       940     0    38     1    15
 -1.0095800827935597E-01 a       941     0    38     1    16
 -3.9448054103671237E-01 a       942     0    38     1    17
 -1.7833639273774418E-01 a       943     0    38     1    18
 -2.0732182077751156E+00 a       944     0    38     1    19
  1.7694716520812701E-01 a       945     0    38     1    20
 -1.2494830278599127E+00 a       946     0    38     1    21
 -4.6616874094836591E-01 a       947     0    38     1    22
  9.1916361828616133E-01 a       948     0    38     1    23
  6.9014027118219301E-01 a       949     0    38     1    24
 -9.2953798744510641E-01 a       950     0    38     1    25
 -6.4870868031237511E-02 a       951     0    39     1     1
  7.4186767591901792E-02 a       952     0    39     1     2
  4.0103141255470171E-01 a       953     0    39     1     3
  1.0257756874995272E-01 a       954     0    39     1     4
 -5.4259353566629953E-01 a       955     0    39     1     5
 -1.3710780830915628E-01 a       956     0    39     1     6
  3.0742175577848591E-01 a       957     0    39     1     7
  2.7176553470412790E-01 a       958     0    39     1     8
 -2.9006476093957306E-01 a       959     0    39     1     9
 -1.0534385876490214E-01 a       960     0    39     1    10
  7.0243186728308704E-02 a       961     0    39     1    11
  1.4514336688880189E-01 a       962     0    39     1    12
  3.6810222089907174E-01 a       963     0    39     1    13
  4.9799267908992834E-01 a       964     0    39     1    14
  9.4195809109203069E-02 a       965     0    39     1    15
  2.5272669078590565E-01 a       966     0    39     1    16
 -3.3453072636047182E-01 a       967     0    39     1    17
 -1.8349160669039871E-01 a       968     0    39     1    18
 -5.1634551849340315E-01 a       969     0    39     1    19
  7.1797151873986137E-02 a       970     0    39     1    20
 -1.1086307594232697E-01 a       971     0    39     1    21
 -6.1336414834589514E-02 a       972     0    39     1    22
  7.1180475569481400E-02 a       973     0    39     1    23
  2.1160940240336248E-01 a       974     0    39     1    24
  1.7845694300871112E-01 a       975     0    39     1    25
  9.1524955373324857E-01 a       976     0    40     1     1
  5.6386369573241546E-01 a       977     0    40     1     2
 -7.8360963032018927E-01 a       978     0    40     1     3
  8.2250810626816384E-02 a       979     0    40     1     4
  2.8050608905397822E-01 a       980     0    40     1     5
  5.6117419382323597E-01 a       981     0    40     1     6
 -6.6189314037429092E-01 a       982     0    40     1     7
 -1.1934464404825591E+00 a       983     0    40     1     8
 -1.2769313388101064E-01 a       984     0    40     1     9
  5.4333850374483061E-01 a       985     0    40     1    10
 -2.2712358053028861E-01 a       986     0    40     1    11
  6.9968671945251748E-02 a       987     0    40     1    12
 -3.7980407566182744E-01 a       988     0    40     1    13
 -9.6900619380827030E-02 a       989     0    40     1    14
  2.7340230514920366E-01 a       990     0    40     1    15
 -3.5739592376101154E-01 a       991     0    40     1    16
 -9.6642800781086735E-01 a       992     0    40     1    17
  1.9167481362455885E-01 a       993     0    40     1    18
  5.4345559905840424E-01 a       994     0    40     1    19
  9.0726405942653188E-02 a       995     0    40     1    20
  7.8828040766891483E-01 a       996     0    40     1    21
  2.0027541269572488E-01 a       997     0    40     1    22
  6.8102516027169976E-02 a       998     0    40     1    23
 -1.2600192309405145E-01 a       999     0    40     1    24
  2.2942259929895803E-01 a      1000     0    40     1    25
 -6.7490406378045453E-01 a      1001     0    41     1     1
  2.1837081428793280E-02 a      1002     0    41     1     2
  2.0361787122661623E-01 a      1003     0    41     1     3
 -3.9359712977839151E-01 a      1004     0    41     1     4
  1.8472654853236878E-01 a      1005     0    41     1     5
 -3.7820341965061144E-01 a      1006     0    41     1     6
  2.1366327287240575E-01 a      1007     0    41     1     7
  1.4704978439301317E-01 a      1008     0    41     1     8
 -5.1444393076729274E-02 a      1009     0    41     1     9
  3.8579520496752745E-01 a      1010     0    41     1    10
  1.4816798734459477E-02 a      1011     0    41     1    11
  2.2529011078688516E-02 a      1012     0    41     1    12
 -8.0540354822054697E-02 a      1013     0    41     1    13
 -2.1001616512380888E-01 a      1014     0    41     1    14
  2.2753566230431163E-01 a      1015     0    41     1    15
  2.2211733316982010E-01 a      1016     0    41     1    16
  1.3261230742633182E-01 a      1017     0    41     1    17
  4.5300399651044881E-01 a      1018     0    41     1    18
  8.1918582066848201E-03 a      1019     0    41     1    19
 -2.2784769976031205E-01 a      1020     0    41     1    20
 -1.6834048719976558E-01 a      1021     0    41     1    21
  1.2800093049422298E-02 a      1022     0    41     1    22
 -5.9683474289813443E-01 a      1023     0    41     1    23
 -5.6736610645975967E-02 a      1024     0    41     1    24
  2.5137152824821868E-01 a      1025     0    41     1    25
 -8.0534785953775057E-02 a      1026     0    42     1     1
  1.7338897637257444E-01 a      1027     0    42     1     2
 -9.6560260669452641E-02 a      1028     0    42     1     3
  3.3716048006471967E-02 a      1029     0    42     1     4
  8.4721026007708256E-02 a      1030     0    42     1     5
  3.2347492283463897E-01 a      1031     0    42     1     6
 -2.8854237428124353E-02 a      1032     0    42     1     7
  1.8586850859705070E-01 a      1033     0    42     1     8
  2.2502411717535916E-02 a      1034     0    42     1     9
 -6.9080693182762096E-02 a      1035     0    42     1    10
 -2.7007217136434086E-01 a      1036     0    42     1    11
  1.1528408081462281E-01 a      1037     0    42     1    12
  3.8605171537204622E-02 a      1038     0    42     1    13
 -3.8555608561346694E-01 a      1039     0    42     1    14
  9.9927074615096048E-02 a      1040     0    42     1    15
 -3.2090664752421438E-01 a      1041     0    42     1    16
  2.8468222454736164E-01 a      1042     0    42     1    17
  3.2279666936282242E-01 a      1043     0    42     1    18
  1.1985059665865640E-02 a      1044     0    42     1    19
 -8.4375716402567594E-02 a      1045     0    42     1    20
  2.5025108440221528E-03 a      1046     0    42     1    21
 -3.0217916547182106E-02 a      1047     0    42     1    22
 -2.3717742837312072E-01 a      1048     0    42     1    23
  6.4968237376867126E-03 a      1049     0    42     1    24
 -1.0776004978329848E-01 a      1050     0    42     1    25
  5.1642846850548851E-01 a      1051     0    43     1     1
 -1.1657475921899640E-01 a      1052     0    43     1     2
  6.1327654887110916E-01 a      1053     0    43     1     3
  1.9391452865230930E-03 a      1054     0    43     1     4
 -2.5198439282966434E-01 a      1055     0    43     1     5
  3.4048831102348304E-01 a      1056     0    43     1     6
  4.7656288528215313E-01 a      1057     0    43     1     7
  5.4635501368543712E-02 a      1058     0    43     1     8
  2.5139605537774412E-01 a      1059     0    43     1     9
  2.7178570317090156E-01 a      1060     0    43     1    10
  2.7979308216284689E-02 a      1061     0    43     1    11
 -1.5791691290826723E-01 a      1062     0    43     1    12
  4.6958306413553735E-01 a      1063     0    43     1    13
  6.8979768308281486E-03 a      1064     0    43     1    14
  1.6836562657259035E-01 a      1065     0    43     1    15
 -8.8199425229704129E-02 a      1066     0    43     1    16
 -2.2756750584191313E-02 a      1067     0    43     1    17
 -6.2829101772168938E-01 a      1068     0    43     1    18
  1.1816448479395381E-01 a      1069     0    43     1    19
 -4.7692919793136901E-01 a      1070     0    43     1    20
  2.2804148732618858E-02 a      1071     0    43     1    21
 -2.8165092849201323E-01 a      1072     0    43     1    22
 -7.7724110597409274E-03 a      1073     0    43     1    23
  4.2649593524665845E-02 a      1074     0    43     1    24
  2.3124861230606508E-01 a      1075     0    43     1    25
  5.8238667389156354E-02 a      1076     0    44     1     1
 -9.2946333045121864E-03 a      1077     0    44     1     2
  1.0180314514933853E-01 a      1078     0    44     1     3
  9.6409714816270739E-02 a      1079     0    44     1     4
 -5.0645343317162438E-02 a      1080     0    44     1     5
  1.0050029185268615E-01 a      1081     0    44     1     6
  2.0956144934849985E-02 a      1082     0    44     1     7
  1.1288708636639798E-02 a      1083     0    44     1     8
  1.0838323028339933E-02 a      1084     0    44     1     9
  1.5107467717024689E-01 a      1085     0    44     1    10
  1.6904796682411093E-02 a      1086     0    44     1    11
  1.3615526750493939E-02 a      1087     0    44     1    12
  7.2461630903048564E-03 a      1088     0    44     1    13
 -2.1881418257377258E-02 a      1089     0    44     1    14
  1.0965771464465247E-01 a      1090     0    44     1    15
  3.9709000635507766E-02 a      1091     0    44     1    16
 -1.9765915812664106E-01 a      1092     0    44     1    17
  5.0747829264402453E-02 a      1093     0    44     1    18
  1.4029004145752910E-01 a      1094     0    44     1    19
 -2.4678804340746808E-02 a      1095     0    44     1    20
  6.2356396190807399E-02 a      1096     0    44     1    21
  1.3729804824454477E-03 a      1097     0    44     1    22
  2.2990769523602989E-02 a      1098     0    44     1    23
  2.7718403958463294E-02 a      1099     0    44     1    24
  5.7840308025987462E-02 a      1100     0    44     1    25
 -3.7677661843192295E-01 a      1101     0    45     1     1
  1.9532125386113833E-02 a      1102     0    45     1     2
 -4.8563774949967631E-01 a      1103     0    45     1     3
 -1.5426657681769348E-01 a      1104     0    45     1     4
  2.8602824363333446E-02 a      1105     0    45     1     5
  2.0888640221260729E-01 a      1106     0    45     1     6
  2.1090248901667677E-01 a      1107     0    45     1     7
  7.6076128772706711E-02 a      1108     0    45     1     8
 -1.4118806910508414E-01 a      1109     0    45     1     9
 -1.3650900434812513E-01 a      1110     0    45     1    10
 -2.7556104894931977E-02 a      1111     0    45     1    11
 -7.2157346078763909E-02 a      1112     0    45     1    12
 -2.3622901133302307E-01 a      1113     0    45     1    13
 -1.6815363903999703E-01 a      1114     0    45     1    14
  2.0633535665353659E-02 a      1115     0    45     1    15
 -9.6003636704017584E-02 a      1116     0    45     1    16
 -1.9953373051806425E-01 a      1117     0    45     1    17
  1.3917796881989147E-01 a      1118     0    45     1    18
 -4.2019772994211724E-01 a      1119     0    45     1    19
  4.0695781522349489E-01 a      1120     0    45     1    20
  3.2884795910359962E-02 a      1121     0    45     1    21
  9.0881458133336479E-02 a      1122     0    45     1    22
  3.4561904781443303E-01 a      1123     0    45     1    23
 -3.5194194390979545E-02 a      1124     0    45     1    24
 -4.4891174357650721E-02 a      1125     0    45     1    25
 -4.1117962143608433E-01 a      1126     0    46     1     1
 -6.4538690031656576E-01 a      1127     0    46     1     2
  6.2012400376542187E-01 a      1128     0    46     1     3
  5.8954977048019670E-02 a      1129     0    46     1     4
 -4.1014096758863011E-01 a      1130     0    46     1     5
 -1.1078738979849688E-01 a      1131     0    46     1     6
  4.2776505258802983E-01 a      1132     0    46     1     7
  2.2972212505669332E-01 a      1133     0    46     1     8
  3.6472556695388396E-02 a      1134     0    46     1     9
 -3.7459874494920165E-01 a      1135     0    46     1    10
  4.7478319748249109E-01 a      1136     0    46     1    11
 -1.9190267265016317E-01 a      1137     0    46     1    12
  4.2820747722926045E-01 a      1138     0    46     1    13
 -7.8506719273422954E-01 a      1139     0    46     1    14
 -2.6157794544774665E-01 a      1140     0    46     1    15
 -8.2766232726950273E-01 a      1141     0    46     1    16
  6.4658826465201313E-01 a      1142     0    46     1    17
  9.8526636004490908E-01 a      1143     0    46     1    18
  7.5072349310512987E-02 a      1144     0    46     1    19
 -8.6644457936881325E-01 a      1145     0    46     1    20
 -5.5335939391563249E-01 a      1146     0    46     1    21
 -3.1392755533724070E-01 a      1147     0    46     1    22
 -2.8149478055603294E-01 a      1148     0    46     1    23
 -9.5634023789726547E-02 a      1149     0    46     1    24
  2.0967794215373048E-01 a      1150     0    46     1    25
  9.0148480507384110E-02 a      1151     0    47     1     1
  1.2318674564988443E-02 a      1152     0    47     1     2
 -1.9895576650069227E-01 a      1153     0    47     1     3
 -1.0987995399465149E-02 a      1154     0    47     1     4
 -1.8275143736776734E-02 a      1155     0    47     1     5
  1.4451302469220306E-01 a      1156     0    47     1     6
 -2.3936979876714486E-02 a      1157     0    47     1     7
  2.8944373551718118E-02 a      1158     0    47     1     8
 -6.7866581012291732E-02 a      1159     0    47     1     9
 -2.2980010616369981E-01 a      1160     0    47     1    10
 -8.6011591919363473E-02 a      1161     0    47     1    11
  1.3264575763355405E-01 a      1162     0    47     1    12
 -2.2643959673826208E-02 a      1163     0    47     1    13
  5.2052431234807864E-02 a      1164     0    47     1    14
  9.4088308737129117E-02 a      1165     0    47     1    15
 -8.0853526432145897E-02 a      1166     0    47     1    16
 -3.5337032005174279E-01 a      1167     0    47     1    17
 -6.3967843448757042E-02 a      1168     0    47     1    18
 -1.1340613158220923E-01 a      1169     0    47     1    19
 -5.8294108346746663E-02 a      1170     0    47     1    20
  3.3723680647201298E-02 a      1171     0    47     1    21
 -1.0486659075635790E-01 a      1172     0    47     1    22
  1.7508688740671180E-01 a      1173     0    47     1    23
  8.9662711433545289E-02 a      1174     0    47     1    24
 -9.8337941124405526E-02 a      1175     0    47     1    25
  9.9823547146217018E-01 a      1176     0    48     1     1
  5.1218829876959904E-01 a      1177     0    48     1     2
 -9.4436330759860043E-01 a      1178     0    48     1     3
  1.6971178480530408E-01 a      1179     0    48     1     4
 -1.7119921770847116E-01 a      1180     0    48     1     5
  1.1667798093292323E+00 a      1181     0    48     1     6
  2.5020760504083145E-01 a      1182     0    48     1     7
  2.1063831350465015E-01 a      1183     0    48     1     8
  1.2962587054446546E+00 a      1184     0    48     1     9
  2.5171639449233302E-01 a      1185     0    48     1    10
 -4.6155321808078392E-01 a      1186     0    48     1    11
 -1.3753553875075408E+00 a      1187     0    48     1    12
  1.7713873679227032E+00 a      1188     0    48     1    13
  5.0039780141537415E-01 a      1189     0    48     1    14
 -5.8588217275379351E-01 a      1190     0    48     1    15
 -1.6034153223132613E-01 a      1191     0    48     1    16
  8.4246835726683800E-01 a      1192     0    48     1    17
 -5.0834591666439377E-01 a      1193     0    48     1    18
  8.4853578304780219E-01 a      1194     0    48     1    19
 -4.6243437448499708E-01 a      1195     0    48     1    20
  1.0881287947610256E+00 a      1196     0    48     1    21
  2.3172702522603953E-02 a      1197     0    48     1    22
 -1.1208429450911483E+00 a      1198     0    48     1    23
  9.3862822907936860E-01 a      1199     0    48     1    24
  8.2242219159228325E-01 a      1200     0    48     1    25
  7.4214639249709308E-02 a      1201     0    49     1     1
 -2.0778180051388662E-01 a      1202     0    49     1     2
 -3.8301626226525076E-01 a      1203     0    49     1     3
 -4.0569099115242641E-01 a      1204     0    49     1     4
  3.6221476323405499E-01 a      1205     0    49     1     5
 -3.6652001331290945E-01 a      1206     0    49     1     6
 -1.1105235779553747E-01 a      1207     0    49     1     7
 -9.5957285551612856E-02 a      1208     0    49     1     8
  3.9565200444841858E-01 a      1209     0    49     1     9
  1.8406352011730237E-01 a      1210     0    49     1    10
  1.0023418805157762E-01 a      1211     0    49     1    11
 -2.9952581720510757E-01 a      1212     0    49     1    12
  1.7907325977262134E-01 a      1213     0    49     1    13
  1.5463140776784093E-01 a      1214     0    49     1    14
 -2.1141154964703471E-01 a      1215     0    49     1    15
 -1.4295415713854634E-01 a      1216     0    49     1    16
  1.7707554870708425E-01 a      1217     0    49     1    17
  7.5368423337713528E-02 a      1218     0    49     1    18
  1.0501971299036932E-01 a      1219     0    49     1    19
  3.0859724212430356E-01 a      1220     0    49     1    20
  1.0680554061890962E-01 a      1221     0    49     1    21
  7.9968445147364370E-02 a      1222     0    49     1    22
 -3.4413584080261594E-01 a      1223     0    49     1    23
 -2.4220679394382780E-01 a      1224     0    49     1    24
 -2.6416091530030189E-01 a      1225     0    49     1    25
 -5.4505525049312564E-01 a      1226     0    50     1     1
 -2.3925798972314245E-02 a      1227     0    50     1     2
 -1.1404387743458599E-01 a      1228     0    50     1     3
 -1.1714518121163756E-01 a      1229     0    50     1     4
  2.6178198231016225E-01 a      1230     0    50     1     5
 -1.0701429237789589E-01 a      1231     0    50     1     6
  4.0324861686815211E-01 a      1232     0    50     1     7
  1.6104689209282924E-01 a      1233     0    50     1     8
  5.8840283316686913E-02 a      1234     0    50     1     9
 -1.5188721298916466E-01 a      1235     0    50     1    10
  3.8735438397432914E-01 a      1236     0    50     1    11
 -2.0470737696128082E-02 a      1237     0    50     1    12
 -4.0871587849488761E-01 a      1238     0    50     1    13
 -6.2159489600926576E-01 a      1239     0    50     1    14
  3.4342815814441369E-01 a      1240     0    50     1    15
  1.5217737008959359E-01 a      1241     0    50     1    16
  2.7821246133288907E-01 a      1242     0    50     1    17
  1.6707552099550574E-01 a      1243     0    50     1    18
 -1.8530316301563943E-01 a      1244     0    50     1    19
  1.6445292524188696E-02 a      1245     0    50     1    20
 -7.5985915389985559E-01 a      1246     0    50     1    21
 -9.7766673251072758E-02 a      1247     0    50     1    22
  2.9663558702771836E-01 a      1248     0    50     1    23
 -1.2526607018447358E-01 a      1249     0    50     1    24
 -1.4274039685942133E-01 a      1250     0    50     1    25
  3.2897690296980503E-01 b      1251     1     1
  1.7338469598645848E-01 b      1252     1     2
  1.1811656765936790E-01 b      1253     1     3
 -8.4001490341682095E-01 b      1254     1     4
  8.3132512989552640E-03 b      1255     1     5
 -1.1737407026479043E+00 b      1256     1     6
  1.0209228186129458E+00 b      1257     1     7
 -1.7553079156488194E-01 b      1258     1     8
 -3.7329315846725775E-01 b      1259     1     9
 -5.4555968623495255E-01 b      1260     1    10
  4.5067296990784478E-01 b      1261     1    11
  7.5469143458762078E-01 b      1262     1    12
  1.2884451058430302E+00 b      1263     1    13
 -1.1819050624652261E+00 b      1264     1    14
  1.0552296367962326E-02 b      1265     1    15
 -6.8437896229753137E-01 b      1266     1    16
 -8.0729638472209242E-01 b      1267     1    17
 -8.7276098432601823E-01 b      1268     1    18
 -2.7670106027631997E-01 b      1269     1    19
  7.5301544934560527E-01 b      1270     1    20
  7.8108987800835294E-01 b      1271     1    21
 -6.2478356786714395E-01 b      1272     1    22
  5.1689458254495169E-01 b      1273     1    23
  1.9242944051233829E-01 b      1274     1    24
 -8.6376166444894764E-01 b      1275     1    25
  7.4283887356444797E-02 a      1276     1     1     2     1
 -1.7493460103938216E-01 a      1277     1     1     2     2
  1.2632260023141173E-01 a      1278     1     1     2     3
  3.0038684888078993E-01 a      1279     1     1     2     4
 -3.5192663147620185E-01 a      1280     1     1     2     5
 -4.7329268230530175E-01 a      1281     1     1     2     6
  7.4948692834997288E-01 a      1282     1     1     2     7
  7.2492282034784363E-03 a      1283     1     1     2     8
  3.0928888719915959E-01 a      1284     1     1     2     9
 -3.2368875375006112E-01 a      1285     1     1     2    10
  1.2478074978256401E-01 a      1286     1     1     2    11
  2.8713794382297847E-01 a      1287     1     1     2    12
  1.7746850108811016E-01 a      1288     1     1     2    13
  5.4385518598074785E-02 a      1289     1     1     2    14
  2.0392982199795640E-01 a      1290     1     1     2    15
 -3.5328040028466527E-03 a      1291     1     1     2    16
 -8.3376434472391625E-02 a      1292     1     1     2    17
 -9.9829643086674402E-01 a      1293     1     1     2    18
 -2.6319921195210150E-02 a      1294     1     1     2    19
 -1.4236477372668027E-01 a      1295     1     1     2    20
 -1.0085639231302195E+00 a      1296     1     1     2    21
 -3.6790726108719855E-02 a      1297     1     1     2    22
  2.1600164330661034E-01 a      1298     1     1     2    23
  1.0048294767432532E-01 a      1299     1     1     2    24
  7.2896638893944057E-02 a      1300     1     1     2    25
 -2.7378048060701810E-01 a      1301     1     2     2     1
 -4.3440895496793454E-02 a      1302     1     2     2     2
 -5.2530041022751117E-01 a      1303     1     2     2     3
  2.3685624803830174E-01 a      1304     1     2     2     4
 -3.4057461451573490E-01 a      1305     1     2     2     5
 -5.1518567350125866E-01 a      1306     1     2     2     6
 -5.0082883389465105E-01 a      1307     1     2     2     7
  3.4086482990968309E-01 a      1308     1     2     2     8
 -1.1227354968922929E+00 a      1309     1     2     2     9
 -4.1421544562650658E-01 a      1310     1     2     2    10
 -2.8806472408444328E-01 a      1311     1     2     2    11
 -8.8497901003493973E-01 a      1312     1     2     2    12
  3.7220742417725766E-01 a      1313     1     2     2    13
 -6.8831255649149448E-01 a      1314     1     2     2    14
  3.8246508399091467E-01 a      1315     1     2     2    15
 -1.1181482917921428E+00 a      1316     1     2     2    16
  4.6086166518786782E-02 a      1317     1     2     2    17
 -1.4341838621078265E-04 a      1318     1     2     2    18
  3.4758774840388601E-01 a      1319     1     2     2    19
  7.1628724932629495E-01 a      1320     1     2     2    20
  5.0122127205387013E-01 a      1321     1     2     2    21
 -2.9570276617236835E-01 a      1322     1     2     2    22
  4.7070134721042114E-02 a      1323     1     2     2    23
  5.0775941878330133E-01 a      1324     1     2     2    24
  3.0684039373864330E-01 a      1325     1     2     2    25
  8.7200559171598274E-02 a      1326     1     3     2     1
 -5.2026989660669515E-02 a      1327     1     3     2     2
 -2.9298012740549706E-01 a      1328     1     3     2     3
 -3.6336349437902171E-01 a      1329     1     3     2     4
  2.0976555048694548E-01 a      1330     1     3     2     5
 -1.1616282964329934E-01 a      1331     1     3     2     6
 -1.9831026278185826E-01 a      1332     1     3     2     7
  3.5948960488714715E-01 a      1333     1     3     2     8
  3.4596456512911555E-01 a      1334     1     3     2     9
  4.0892854954839308E-01 a      1335     1     3     2    10
  3.5847392988258835E-02 a      1336     1     3     2    11
  3.8596787310273706E-01 a      1337     1     3     2    12
 -6.6747524190050797E-02 a      1338     1     3     2    13
  5.8889066507436777E-02 a      1339     1     3     2    14
  8.6428110718004183E-03 a      1340     1     3     2    15
 -2.9076494544769399E-01 a      1341     1     3     2    16
 -3.8377584267339809E-01 a      1342     1     3     2    17
  1.0262877072578996E-01 a      1343     1     3     2    18
  3.0516025389020474E-01 a      1344     1     3     2    19
 -5.2942226946118076E-01 a      1345     1     3     2    20
  3.9136796775090360E-01 a      1346     1     3     2    21
 -9.3828002181500336E-02 a      1347     1     3     2    22
 -4.9871071957026863E-01 a      1348     1     3     2    23
  5.6653768216281986E-02 a      1349     1     3     2    24
  5.5247746563362410E-01 a      1350     1     3     2    25
 -5.9384614140762126E-01 a      1351     1     4     2     1
 -3.9252159816401044E-01 a      1352     1     4     2     2
 -3.2641000638243906E-01 a      1353     1     4     2     3
 -3.5860179120248725E-01 a      1354     1     4     2     4
 -8.4257853592414722E-01 a      1355     1     4     2     5
  4.3379416547040806E-01 a      1356     1     4     2     6
 -1.3967986469954771E-01 a      1357     1     4     2     7
  5.8344513391345765E-01 a      1358     1     4     2     8
 -6.5421438333044191E-01 a      1359     1     4     2     9
  1.7876091322719754E-02 a      1360     1     4     2    10
  8.4090331955991443E-02 a      1361     1     4     2    11
 -3.6494271439421327E-02 a      1362     1     4     2    12
  7.4791472727480957E-01 a      1363     1     4     2    13
 -7.3820953454239913E-01 a      1364     1     4     2    14
 -2.5173583183918172E-02 a      1365     1     4     2    15
 -4.0013787912160009E-01 a      1366     1     4     2    16
  3.1208790765458438E-01 a      1367     1     4     2    17
 -2.9935139590566762E-01 a      1368     1     4     2    18
 -1.5817774024472905E-01 a      1369     1     4     2    19
 -1.2360758771193027E-01 a      1370     1     4     2    20
  6.9773395399798499E-01 a      1371     1     4     2    21
 -2.9209841062720254E-01 a      1372     1     4     2    22
 -4.8574476264972294E-01 a      1373     1     4     2    23
  1.5571352922112450E-01 a      1374     1     4     2    24
  2.3040981691535645E-01 a      1375     1     4     2    25
  8.4474812678696623E-02 a      1376     1     5     2     1
 -2.6632959967190872E-01 a      1377     1     5     2     2
 -6.0265353077931283E-01 a      1378     1     5     2     3
  1.6556569449205766E-01 a      1379     1     5     2     4
  4.0919462570790888E-01 a      1380     1     5     2     5
 -3.0522928644017433E-01 a      1381     1     5     2     6
 -4.0287556293053262E-01 a      1382     1     5     2     7
 -1.8152238560757014E-01 a      1383     1     5     2     8
  3.3908431141438339E-01 a      1384     1     5     2     9
  2.2753868709137363E-02 a      1385     1     5     2    10
  4.3770652464081639E-01 a      1386     1     5     2    11
  1.4919969217110587E-01 a      1387     1     5     2    12
 -6.5598665173402781E-01 a      1388     1     5     2    13
 -2.5975976116870320E-01 a      1389     1     5     2    14
  3.3495579614245685E-01 a      1390     1     5     2    15
  9.4770231812337638E-02 a      1391     1     5     2    16
 -3.1240777801718878E-01 a      1392     1     5     2    17
  1.0891448160927859E-01 a      1393     1     5     2    18
 -3.5730741634424118E-01 a      1394     1     5     2    19
  4.3739803292813145E-01 a      1395     1     5     2    20
 -4.2544168858606096E-01 a      1396     1     5     2    21
 -1.0504706185491686E-01 a      1397     1     5     2    22
 -7.2888083852748076E-01 a      1398     1     5     2    23
  5.3935685445214410E-01 a      1399     1     5     2    24
  6.5926204527050647E-01 a      1400     1     5     2    25
 -3.6773793830305865E-02 a      1401     1     6     2     1
  3.8622234078855305E-01 a      1402     1     6     2     2
  7.8600180052579405E-01 a      1403     1     6     2     3
 -2.1127027886462615E-01 a      1404     1     6     2     4
 -3.7062796385160923E-01 a      1405     1     6     2     5
 -3.4365011830040693E-01 a      1406     1     6     2     6
 -3.3164473892177283E-02 a      1407     1     6     2     7
  9.5848754273087783E-02 a      1408     1     6     2     8
 -2.6342945262221629E-01 a      1409     1     6     2     9
  8.4649961810836749E-01 a      1410     1     6     2    10
  1.0791463245379739E-01 a      1411     1     6     2    11
  6.6455776544654155E-01 a      1412     1     6     2    12
 -9.0311417038022548E-02 a      1413     1     6     2    13
  2.6777386018045141E-01 a      1414     1     6     2    14
  7.1779406102722787E-01 a      1415     1     6     2    15
 -1.7086905768974109E-01 a      1416     1     6     2    16
 -1.3381429935935543E-01 a      1417     1     6     2    17
 -4.1177364886576175E-02 a      1418     1     6     2    18
  4.7203324936284474E-01 a      1419     1     6     2    19
 -2.1536466672890334E-01 a      1420     1     6     2    20
  6.5942118759478663E-01 a      1421     1     6     2    21
 -2.8808223225736207E-01 a      1422     1     6     2    22
  5.1813457929837192E-01 a      1423     1     6     2    23
 -3.7980595632941788E-01 a      1424     1     6     2    24
  6.5636045582990765E-01 a      1425     1     6     2    25
  8.9024308571750657E-02 a      1426     1     7     2     1
 -1.5003487238526203E-01 a      1427     1     7     2     2
  7.6941502699852127E-01 a      1428     1     7     2     3
 -6.9135000009407410E-01 a      1429     1     7     2     4
 -8.4413431231193728E-02 a      1430     1     7     2     5
  4.3172911528089475E-01 a      1431     1     7     2     6
  2.2297401450758902E-01 a      1432     1     7     2     7
  6.1967466649173564E-01 a      1433     1     7     2     8
 -7.2286462331222423E-01 a      1434     1     7     2     9
  1.8514412563098753E-01 a      1435     1     7     2    10
  2.2104630169690365E-01 a      1436     1     7     2    11
  6.0992459604179905E-01 a      1437     1     7     2    12
 -1.4653351025828543E-01 a      1438     1     7     2    13
  6.4202714800943494E-01 a      1439     1     7     2    14
 -5.6822013944151296E-02 a      1440     1     7     2    15
 -2.1261805988692750E-01 a      1441     1     7     2    16
 -3.0895826463829279E-01 a      1442     1     7     2    17
  8.1938999605135829E-02 a      1443     1     7     2    18
  4.2297109100158697E-01 a      1444     1     7     2    19
 -6.5520338709455628E-01 a      1445     1     7     2    20
  3.8799645473544614E-01 a      1446     1     7     2    21
 -2.1241447859617285E-01 a      1447     1     7     2    22
  1.5310284106854741E-01 a      1448     1     7     2    23
 -7.0814771064427273E-01 a      1449     1     7     2    24
 -1.2002711809695155E-01 a      1450     1     7     2    25
  3.7834345077609510E-01 a      1451     1     8     2     1
 -6.8334928755220170E-01 a      1452     1     8     2     2
 -1.0864939078387957E-01 a      1453     1     8     2     3
  2.4943447377720692E-02 a      1454     1     8     2     4
 -2.1513204133052124E+00 a      1455     1     8     2     5
  9.2156476648782670E-01 a      1456     1     8     2     6
  1.0355029258308511E-01 a      1457     1     8     2     7
  3.0689985522214103E-01 a      1458     1     8     2     8
  5.3441812849021042E-01 a      1459     1     8     2     9
 -4.3234124939758206E-01 a      1460     1     8     2    10
  3.9348640361155435E-01 a      1461     1     8     2    11
 -3.4664808912180656E-01 a      1462     1     8     2    12
 -1.4720298710634999E-01 a      1463     1     8     2    13
  3.8361991541305063E-01 a      1464     1     8     2    14
  3.0276858038665033E-01 a      1465     1     8     2    15
  3.5888008637374869E-01 a      1466     1     8     2    16
 -3.5869143220862643E-01 a      1467     1     8     2    17
 -1.0321418162114115E+00 a      1468     1     8     2    18
  6.2383055543540800E-01 a      1469     1     8     2    19
  2.8391436885060783E-01 a      1470     1     8     2    20
 -7.3107506106689824E-01 a      1471     1     8     2    21
  8.7877652959104502E-01 a      1472     1     8     2    22
  1.2643345817815382E-01 a      1473     1     8     2    23
  1.9371666085751479E-01 a      1474     1     8     2    24
 -5.4898626621038793E-01 a      1475     1     8     2    25
 -4.5812845304672856E-01 a      1476     1     9     2     1
  1.8834383324505086E-01 a      1477     1     9     2     2
 -2.2039377124053083E-01 a      1478     1     9     2     3
 -5.6683686880476947E-01 a      1479     1     9     2     4
 -5.9149860131760129E-02 a      1480     1     9     2     5
  4.3947141908271904E-02 a      1481     1     9     2     6
 -7.9121458752165497E-01 a      1482     1     9     2     7
 -1.0610250139109900E-01 a      1483     1     9     2     8
  7.1561190390757468E-01 a      1484     1     9     2     9
 -2.7147127901451823E-02 a      1485     1     9     2    10
 -3.0797630739511928E-01 a      1486     1     9     2    11
 -2.0500797891290812E-01 a      1487     1     9     2    12
  3.2129097654498651E-01 a      1488     1     9     2    13
 -4.9256234653201969E-01 a      1489     1     9     2    14
  6.2290040796567847E-01 a      1490     1     9     2    15
 -1.3460835678072089E-01 a      1491     1     9     2    16
  1.1107707015691826E+00 a      1492     1     9     2    17
  9.2460767195760840E-01 a      1493     1     9     2    18
 -1.0713641791119980E-02 a      1494     1     9     2    19
  7.8287023297407454E-01 a      1495     1     9     2    20
 -7.6421210382847313E-02 a      1496     1     9     2    21
 -5.7991862616647827E-01 a      1497     1     9     2    22
  3.8102870113423642E-01 a      1498     1     9     2    23
 -9.4991175575091819E-02 a      1499     1     9     2    24
 -8.3394332878347216E-02 a      1500     1     9     2    25
  2.0699369396361553E-01 a      1501     1    10     2     1
  3.5655904034221292E-01 a      1502     1    10     2     2
 -1.2993300736583327E-01 a      1503     1    10     2     3
 -1.9421793603019386E-01 a      1504     1    10     2     4
  9.2282487555298637E-02 a      1505     1    10     2     5
  5.6323385475711396E-01 a      1506     1    10     2     6
 -3.6285430693809556E-01 a      1507     1    10     2     7
 -2.8441547645297116E-01 a      1508     1    10     2     8
  6.3612753267302868E-01 a      1509     1    10     2     9
 -2.6279260695736373E-01 a      1510     1    10     2    10
  3.5522873151457424E-01 a      1511     1    10     2    11
 -1.1475024147994291E-01 a      1512     1    10     2    12
  2.3470580060669016E-01 a      1513     1    10     2    13
  1.5954005262616758E-01 a      1514     1    10     2    14
 -6.2586764086097557E-01 a      1515     1    10     2    15
  1.0972233010116907E+00 a      1516     1    10     2    16
  2.4957226895343401E-01 a      1517     1    10     2    17
 -2.2618144414120225E-01 a      1518     1    10     2    18
  3.6316152675832242E-01 a      1519     1    10     2    19
  4.1463497404166244E-01 a      1520     1    10     2    20
  4.2144551318851853E-01 a      1521     1    10     2    21
  2.7560655174716303E-01 a      1522     1    10     2    22
  3.2378983506798303E-01 a      1523     1    10     2    23
  4.1892612277645208E-02 a      1524     1    10     2    24
 -4.4358897356236615E-01 a      1525     1    10     2    25
  8.2109784964210275E-01 a      1526     1    11     2     1
  8.6575015851975051E-02 a      1527     1    11     2     2
 -3.0650834163970975E-01 a      1528     1    11     2     3
  1.3623495022222480E+00 a      1529     1    11     2     4
 -4.8743343450217559E-02 a      1530     1    11     2     5
 -3.6110552358696468E-01 a      1531     1    11     2     6
 -1.9772795215438085E-01 a      1532     1    11     2     7
 -8.5686411876268229E-02 a      1533     1    11     2     8
 -4.8222586687083913E-01 a      1534     1    11     2     9
  9.5893513576929684E-03 a      1535     1    11     2    10
 -1.6509094713266365E-01 a      1536     1    11     2    11
  8.9453407344237390E-01 a      1537     1    11     2    12
  2.6830453875905191E-01 a      1538     1    11     2    13
 -1.0801175247671090E-01 a      1539     1    11     2    14
  8.2952616433339066E-01 a      1540     1    11     2    15
  6.5487652608760549E-02 a      1541     1    11     2    16
 -1.7800665958086823E-01 a      1542     1    11     2    17
 -1.5912415826997623E+00 a      1543     1    11     2    18
  4.4198236098171995E-01 a      1544     1    11     2    19
 -2.5292580480032073E-01 a      1545     1    11     2    20
 -4.4862444049978600E-01 a      1546     1    11     2    21
 -1.8187674906275356E-01 a      1547     1    11     2    22
 -3.8290687254158695E-01 a      1548     1    11     2    23
  5.6352059991146752E-01 a      1549     1    11     2    24
  1.9507084880248743E-01 a      1550     1    11     2    25
  2.5106320392296122E-01 a      1551     1    12     2     1
 -1.2645798042262461E-02 a      1552     1    12     2     2
 -2.1362365330644209E-01 a      1553     1    12     2     3
 -6.6999450170245800E-01 a      1554     1    12     2     4
  3.0014833716560646E-01 a      1555     1    12     2     5
 -5.7030068910705822E-01 a      1556     1    12     2     6
 -7.3248068021083371E-02 a      1557     1    12     2     7
  2.2287364307573299E-01 a      1558     1    12     2     8
  8.5347357850033079E-01 a      1559     1    12     2     9
  5.0025804977434984E-01 a      1560     1    12     2    10
  3.4633351028728893E-01 a      1561     1    12     2    11
 -6.4438398069876635E-01 a      1562     1    12     2    12
  7.3908419942280701E-01 a      1563     1    12     2    13
  8.8090957955995489E-02 a      1564     1    12     2    14
  4.4814912975323040E-01 a      1565     1    12     2    15
  5.3707971730894277E-01 a      1566     1    12     2    16
  2.8354876839058900E-02 a      1567     1    12     2    17
 -6.5494080815212807E-01 a      1568     1    12     2    18
 -4.9159028859146789E-02 a      1569     1    12     2    19
  1.9103408365802507E-01 a      1570     1    12     2    20
 -8.1771662126881896E-03 a      1571     1    12     2    21
 -3.3479862065703914E-01 a      1572     1    12     2    22
  2.9366878405219423E-02 a      1573     1    12     2    23
 -2.2571116090553769E-01 a      1574     1    12     2    24
 -6.4229919448247719E-01 a      1575     1    12     2    25
 -4.5392490187256335E-01 a      1576     1    13     2     1
 -5.1595064987558870E-01 a      1577     1    13     2     2
  1.8232611124865367E-01 a      1578     1    13     2     3
  3.5675680620723155E-01 a      1579     1    13     2     4
  2.8838028154557471E-01 a      1580     1    13     2     5
  3.4166874771890648E-01 a      1581     1    13     2     6
 -6.8862264619203772E-01 a      1582     1    13     2     7
  7.2944927442126795E-01 a      1583     1    13     2     8
 -2.3732159311453208E-01 a      1584     1    13     2     9
 -2.0857499769924573E-01 a      1585     1    13     2    10
  5.9081548528721639E-01 a      1586     1    13     2    11
  3.1815428348592106E-01 a      1587     1    13     2    12
  1.1764010944524800E-01 a      1588     1    13     2    13
 -2.6948290311421741E-01 a      1589     1    13     2    14
  3.3301499824432795E-01 a      1590     1    13     2    15
 -1.2720037393357370E-01 a      1591     1    13     2    16
  8.4361961299029664E-01 a      1592     1    13     2    17
 -1.2147865712460790E+00 a      1593     1    13     2    18
  1.3268660028224755E-01 a      1594     1    13     2    19
  4.6641540580712332E-01 a      1595     1    13     2    20
  2.2878174045122834E-01 a      1596     1    13     2    21
  3.6014138108683230E-01 a      1597     1    13     2    22
  6.8791109731760636E-01 a      1598     1    13     2    23
 -4.9864691553321622E-01 a      1599     1    13     2    24
  4.1660560645706966E-02 a      1600     1    13     2    25
  1.9528330232522559E-01 a      1601     1    14     2     1
 -5.1357574961873675E-01 a      1602     1    14     2     2
 -4.4283389113565230E-01 a      1603     1    14     2     3
  1.7267813831078566E-01 a      1604     1    14     2     4
 -4.3798062076709032E-01 a      1605     1    14     2     5
 -6.2776516177453479E-01 a      1606     1    14     2     6
  3.5388949073808962E-01 a      1607     1    14     2     7
 -3.0123317594975263E-01 a      1608     1    14     2     8
  2.8531101266795883E-01 a      1609     1    14     2     9
 -3.4441610584367000E-01 a      1610     1    14     2    10
  5.8052471668145411E-01 a      1611     1    14     2    11
  5.3084769520891828E-01 a      1612     1    14     2    12
  4.0191405962577781E-01 a      1613     1    14     2    13
 -1.0234273107230610E-02 a      1614     1    14     2    14
  8.2626791637719743E-02 a      1615     1    14     2    15
 -3.3911093541638232E-01 a      1616     1    14     2    16
 -4.6186058571931754E-01 a      1617     1    14     2    17
 -3.1984207434830436E-01 a      1618     1    14     2    18
  5.3461776277069395E-01 a      1619     1    14     2    19
 -1.8412440897114393E-01 a      1620     1    14     2    20
 -1.4556889319194455E-01 a      1621     1    14     2    21
  3.7378156211599639E-01 a      1622     1    14     2    22
 -1.2776390770562918E-01 a      1623     1    14     2    23
 -3.5232076435657356E-01 a      1624     1    14     2    24
 -6.1383848258229279E-01 a      1625     1    14     2    25
 -6.7029459282305259E-01 a      1626     1    15     2     1
 -1.1721178525345130E-01 a      1627     1    15     2     2
  1.9060021360249271E-01 a      1628     1    15     2     3
