################################################################################
# Neural network connection values (weights and biases).
################################################################################
# Col  Name       Description
################################################################################
# 1    connection Neural network connection value.
# 2    t          Connection type (a = weight, b = bias).
# 3    index      Index enumerating weights.
# 4    l_s        Starting point layer (end point layer for biases).
# 5    n_s        Starting point neuron in starting layer (end point neuron for biases).
# 6    l_e        End point layer.
# 7    n_e        End point neuron in end layer.
################################################################################
#                      1 2         3     4     5     6     7
#             connection t     index   l_s   n_s   l_e   n_e
############################################################
  3.1373843009885080E-03 a         1     0     1     1     1
 -2.2083203157423520E-01 a         2     0     1     1     2
  2.1250878852871508E-01 a         3     0     1     1     3
 -9.0551250678696571E-02 a         4     0     1     1     4
 -2.2129653369744681E-01 a         5     0     1     1     5
  1.1150715431015683E-01 a         6     0     1     1     6
  1.2244595614372158E-01 a         7     0     1     1     7
  4.5936433399892659E-02 a         8     0     1     1     8
  5.9390038547708829E-02 a         9     0     1     1     9
  3.9158213925092377E-03 a        10     0     1     1    10
 -1.5839738100055210E-02 a        11     0     1     1    11
  1.9530485453354787E-01 a        12     0     1     1    12
  7.5343516296447671E-02 a        13     0     1     1    13
 -1.6238097595414913E-01 a        14     0     1     1    14
  1.2983646499428980E-01 a        15     0     1     1    15
 -1.3522548400687304E-01 a        16     0     1     1    16
  2.7307861937909716E-01 a        17     0     1     1    17
  1.0894286303769828E-02 a        18     0     1     1    18
 -2.4850971847439085E-01 a        19     0     1     1    19
 -1.1998178286483928E-01 a        20     0     1     1    20
  2.2142828698342831E-01 a        21     0     1     1    21
 -2.3576157125552566E-01 a        22     0     1     1    22
 -3.1121050408841701E-02 a        23     0     1     1    23
 -1.3578038591843516E-01 a        24     0     1     1    24
  1.0016693735576589E-02 a        25     0     1     1    25
  1.6822914901780894E-01 a        26     0     2     1     1
 -8.9660532687462505E-02 a        27     0     2     1     2
 -2.2448761357205849E-01 a        28     0     2     1     3
 -1.1542023411574052E-01 a        29     0     2     1     4
 -5.2712822827629596E-02 a        30     0     2     1     5
  2.3388967925028381E-01 a        31     0     2     1     6
  2.1448137845472331E-01 a        32     0     2     1     7
  1.3396508807254870E-01 a        33     0     2     1     8
  1.1237309383517574E-01 a        34     0     2     1     9
 -1.5234461869493582E-01 a        35     0     2     1    10
  2.1537584806829208E-01 a        36     0     2     1    11
 -1.8788604689100787E-02 a        37     0     2     1    12
  1.0630206031355396E-01 a        38     0     2     1    13
  2.0969588980504272E-01 a        39     0     2     1    14
  1.4588432101020871E-02 a        40     0     2     1    15
  9.9477547972056199E-02 a        41     0     2     1    16
  2.8863539645396274E-01 a        42     0     2     1    17
 -1.2131919362650781E-01 a        43     0     2     1    18
  6.4478526815588771E-02 a        44     0     2     1    19
 -1.9732229522176892E-01 a        45     0     2     1    20
  1.5732256241638298E-01 a        46     0     2     1    21
 -8.0861447189424382E-02 a        47     0     2     1    22
  2.1768286722527813E-01 a        48     0     2     1    23
  2.3818145979078453E-01 a        49     0     2     1    24
  7.3241463911330627E-03 a        50     0     2     1    25
  4.1952865251671323E-01 a        51     0     3     1     1
  3.1241995423745084E-01 a        52     0     3     1     2
  2.2687215001864441E-01 a        53     0     3     1     3
 -3.0973475048726629E-01 a        54     0     3     1     4
  1.8439080203352973E-01 a        55     0     3     1     5
  1.7982184507952501E-01 a        56     0     3     1     6
  4.4269786660025756E-01 a        57     0     3     1     7
  1.3614626969299187E-01 a        58     0     3     1     8
  3.2680143468925638E-01 a        59     0     3     1     9
  1.8988100105482383E-01 a        60     0     3     1    10
 -5.8450122770819601E-01 a        61     0     3     1    11
  1.6968845153796019E-01 a        62     0     3     1    12
 -5.6376875596785607E-02 a        63     0     3     1    13
 -9.8909413705237301E-02 a        64     0     3     1    14
 -4.1895246645869710E-01 a        65     0     3     1    15
  1.1043544875266006E-01 a        66     0     3     1    16
 -5.1703067963421490E-01 a        67     0     3     1    17
 -6.4918215570820792E-01 a        68     0     3     1    18
 -1.0718646003715782E-01 a        69     0     3     1    19
 -1.5398015486787306E-01 a        70     0     3     1    20
 -7.0124227291210345E-02 a        71     0     3     1    21
  3.2500855406394878E-03 a        72     0     3     1    22
  1.7740268056272201E-01 a        73     0     3     1    23
  6.5112738350704316E-02 a        74     0     3     1    24
  8.9752771623782168E-01 a        75     0     3     1    25
 -1.1608115008685181E-01 a        76     0     4     1     1
  7.2951821597865618E-02 a        77     0     4     1     2
 -2.4275566913830340E-01 a        78     0     4     1     3
  1.9758983279866046E-01 a        79     0     4     1     4
  7.1403973022535733E-02 a        80     0     4     1     5
 -2.3768058566515590E-01 a        81     0     4     1     6
  8.7768502172948917E-02 a        82     0     4     1     7
  1.0370480173417956E-01 a        83     0     4     1     8
  8.4768226913079447E-02 a        84     0     4     1     9
 -2.1347646412979238E-01 a        85     0     4     1    10
  2.7712941296999444E-01 a        86     0     4     1    11
 -1.0973727252294743E-01 a        87     0     4     1    12
  2.2161008698421797E-01 a        88     0     4     1    13
 -1.2816562024498993E-01 a        89     0     4     1    14
 -2.2411400876464904E-01 a        90     0     4     1    15
 -2.8480565593681137E-03 a        91     0     4     1    16
  2.1459801262436046E-01 a        92     0     4     1    17
 -1.4449414845972669E-02 a        93     0     4     1    18
  2.0049477777999450E-01 a        94     0     4     1    19
  1.2112526095046680E-01 a        95     0     4     1    20
 -2.4044975728770303E-03 a        96     0     4     1    21
  4.1030479690378502E-01 a        97     0     4     1    22
  1.8518298870110733E-01 a        98     0     4     1    23
  1.5773550863495200E-01 a        99     0     4     1    24
 -7.0463686778232518E-02 a       100     0     4     1    25
 -3.5608231099619364E-01 a       101     0     5     1     1
  1.8719348694688248E-01 a       102     0     5     1     2
  2.6792329550789890E-01 a       103     0     5     1     3
  2.4652839092436613E-01 a       104     0     5     1     4
 -9.6708563735807898E-02 a       105     0     5     1     5
  2.0335567044065410E-02 a       106     0     5     1     6
  5.4673851942282622E-02 a       107     0     5     1     7
 -8.2677473938030974E-02 a       108     0     5     1     8
  4.7715055670196953E-02 a       109     0     5     1     9
 -2.2755848364550568E-01 a       110     0     5     1    10
  1.9027259846373552E-03 a       111     0     5     1    11
  1.3203133983932439E-01 a       112     0     5     1    12
  1.5530539905707905E-01 a       113     0     5     1    13
  6.4215298019107150E-02 a       114     0     5     1    14
  2.6854363771875868E-02 a       115     0     5     1    15
 -4.1174584879890258E-02 a       116     0     5     1    16
  9.7520902658458211E-02 a       117     0     5     1    17
 -1.0069222919320596E-01 a       118     0     5     1    18
  1.5932833333716023E-01 a       119     0     5     1    19
  5.0632276462672245E-02 a       120     0     5     1    20
  4.7451337952220690E-01 a       121     0     5     1    21
  6.5775379021435487E-02 a       122     0     5     1    22
 -3.5063190054476201E-01 a       123     0     5     1    23
  1.7879352898078102E-01 a       124     0     5     1    24
 -1.4982038389164695E-01 a       125     0     5     1    25
  2.7950152646063253E-01 a       126     0     6     1     1
  5.9546384517482981E-02 a       127     0     6     1     2
  1.3472019773055341E-01 a       128     0     6     1     3
  1.3896367159607256E-01 a       129     0     6     1     4
  1.8478010513607021E-01 a       130     0     6     1     5
  1.7590680752540241E-01 a       131     0     6     1     6
  4.9028677379947971E-01 a       132     0     6     1     7
  7.7045448387973592E-01 a       133     0     6     1     8
 -1.7450859814499356E-01 a       134     0     6     1     9
  2.7178823881167774E-01 a       135     0     6     1    10
 -6.5982688839838891E-02 a       136     0     6     1    11
  3.3804439426621363E-01 a       137     0     6     1    12
 -2.9930740552543472E-01 a       138     0     6     1    13
  1.5326425614370816E-02 a       139     0     6     1    14
 -1.0158478861197329E-01 a       140     0     6     1    15
  2.2288638160491456E-01 a       141     0     6     1    16
  2.0232965955259450E-02 a       142     0     6     1    17
 -3.7119474690548759E-01 a       143     0     6     1    18
 -6.2653825690740447E-02 a       144     0     6     1    19
  1.5191785032781613E-03 a       145     0     6     1    20
 -1.2169984251103813E-01 a       146     0     6     1    21
 -1.3269438195977737E-01 a       147     0     6     1    22
  2.7495959275703102E-01 a       148     0     6     1    23
 -2.0984197818210087E-01 a       149     0     6     1    24
 -2.6800263884601599E-01 a       150     0     6     1    25
 -6.3447323326475458E-02 a       151     0     7     1     1
 -2.2778479463220655E-01 a       152     0     7     1     2
  2.2373681608322843E-01 a       153     0     7     1     3
 -2.1058483687930762E-01 a       154     0     7     1     4
  4.2012926833219261E-01 a       155     0     7     1     5
  7.8473039002476500E-02 a       156     0     7     1     6
 -5.5373283641003855E-03 a       157     0     7     1     7
  8.7145500588395961E-03 a       158     0     7     1     8
 -2.8726928336800217E-01 a       159     0     7     1     9
 -4.2369701752726606E-02 a       160     0     7     1    10
  1.0088184368420653E-02 a       161     0     7     1    11
  2.0650047982137393E-01 a       162     0     7     1    12
 -7.7535497217774127E-02 a       163     0     7     1    13
 -9.8441134510294889E-02 a       164     0     7     1    14
  9.1194306608660861E-02 a       165     0     7     1    15
 -3.1228358834815378E-01 a       166     0     7     1    16
 -4.2096719116664427E-01 a       167     0     7     1    17
  1.2173260563359266E-01 a       168     0     7     1    18
 -3.9855765274869082E-01 a       169     0     7     1    19
 -2.1519196633784571E-01 a       170     0     7     1    20
 -2.5550779213233465E-01 a       171     0     7     1    21
  3.5019737536233338E-02 a       172     0     7     1    22
 -2.1616244759909243E-02 a       173     0     7     1    23
  2.6069305576196017E-01 a       174     0     7     1    24
 -1.9789228745532150E-01 a       175     0     7     1    25
 -6.2196790326992837E-02 a       176     0     8     1     1
 -1.8653267141011548E-01 a       177     0     8     1     2
  1.4152587693912680E-01 a       178     0     8     1     3
 -3.2238689713710256E-01 a       179     0     8     1     4
  7.0826122484092924E-02 a       180     0     8     1     5
 -2.0023064746144112E-01 a       181     0     8     1     6
  4.2712124116210864E-02 a       182     0     8     1     7
 -1.9215735059995336E-02 a       183     0     8     1     8
  1.0506009265020631E-01 a       184     0     8     1     9
  6.5860208532250566E-02 a       185     0     8     1    10
  5.1695956443301707E-03 a       186     0     8     1    11
 -2.5077171263048420E-01 a       187     0     8     1    12
 -2.6875828865370294E-01 a       188     0     8     1    13
 -2.6182528957641465E-01 a       189     0     8     1    14
 -5.7042014163694163E-03 a       190     0     8     1    15
 -2.0252658825887690E-01 a       191     0     8     1    16
  1.0770964979574137E-01 a       192     0     8     1    17
  1.1187561049394262E-01 a       193     0     8     1    18
 -2.3355119645478234E-01 a       194     0     8     1    19
  1.1333480639743309E-02 a       195     0     8     1    20
  5.1347019182989777E-02 a       196     0     8     1    21
  4.7645779006401862E-01 a       197     0     8     1    22
 -8.6601783431581925E-02 a       198     0     8     1    23
  2.0518545087304338E-01 a       199     0     8     1    24
  2.8351093485514928E-02 a       200     0     8     1    25
 -2.0714411251898263E-01 a       201     0     9     1     1
  5.6067893670592162E-01 a       202     0     9     1     2
  1.8473866468671454E-01 a       203     0     9     1     3
  7.5695212402724255E-02 a       204     0     9     1     4
  3.1084653246879906E-01 a       205     0     9     1     5
  3.1122906867205802E-02 a       206     0     9     1     6
  3.8180873829104650E-02 a       207     0     9     1     7
 -8.3513317448601063E-02 a       208     0     9     1     8
  5.7212637484739988E-02 a       209     0     9     1     9
  1.6226758766918345E-01 a       210     0     9     1    10
 -4.3128210625071661E-01 a       211     0     9     1    11
 -1.9243573471532116E-01 a       212     0     9     1    12
  1.4379274191117736E-01 a       213     0     9     1    13
  2.8989359064920744E-01 a       214     0     9     1    14
 -2.7820968328656365E-01 a       215     0     9     1    15
 -7.1429632909293826E-03 a       216     0     9     1    16
 -3.1212306012909158E-01 a       217     0     9     1    17
 -6.3585065075351699E-01 a       218     0     9     1    18
  2.7039295704080374E-01 a       219     0     9     1    19
  5.1131460107642218E-02 a       220     0     9     1    20
 -3.5650839188147482E-01 a       221     0     9     1    21
  4.3133381278008143E-02 a       222     0     9     1    22
  4.7836974304740820E-02 a       223     0     9     1    23
  4.2966739323776648E-01 a       224     0     9     1    24
  8.4479882493869132E-02 a       225     0     9     1    25
 -1.8862689808605002E-01 a       226     0    10     1     1
  1.8324730216550078E-01 a       227     0    10     1     2
  1.2328399906057709E-01 a       228     0    10     1     3
 -1.2940798046181878E-01 a       229     0    10     1     4
  4.1978557954372060E-02 a       230     0    10     1     5
 -2.0558094284589459E-01 a       231     0    10     1     6
  6.8552685001367575E-02 a       232     0    10     1     7
  2.0917162620293542E-01 a       233     0    10     1     8
 -1.0013170763319129E-01 a       234     0    10     1     9
 -2.9792815955860202E-01 a       235     0    10     1    10
  2.9077352678367652E-01 a       236     0    10     1    11
  1.7143255229578228E-01 a       237     0    10     1    12
  1.4372551661247179E-01 a       238     0    10     1    13
 -3.8905716865085016E-01 a       239     0    10     1    14
  1.5999286136357885E-01 a       240     0    10     1    15
  1.8434040059858579E-02 a       241     0    10     1    16
 -1.4605749796930653E-01 a       242     0    10     1    17
  1.1364104155931190E-02 a       243     0    10     1    18
  2.4883874012729670E-01 a       244     0    10     1    19
 -4.2729113697600733E-02 a       245     0    10     1    20
  1.8896220953326023E-01 a       246     0    10     1    21
  4.5353574344726026E-02 a       247     0    10     1    22
 -8.8215916047550677E-02 a       248     0    10     1    23
  9.0530127786577375E-02 a       249     0    10     1    24
 -5.5379116220147018E-02 a       250     0    10     1    25
 -1.7661259756966538E-01 a       251     0    11     1     1
  1.3768047136564898E-01 a       252     0    11     1     2
 -1.4857714866618421E-01 a       253     0    11     1     3
  1.6590325691200369E-01 a       254     0    11     1     4
  3.6176589912813401E-01 a       255     0    11     1     5
 -1.6759845969406542E-01 a       256     0    11     1     6
  4.6437584928594960E-01 a       257     0    11     1     7
 -3.2431626552544829E-01 a       258     0    11     1     8
 -2.4901708554206103E-01 a       259     0    11     1     9
 -1.5989127220603352E-01 a       260     0    11     1    10
  2.7745028319615825E-02 a       261     0    11     1    11
  3.8090972140357691E-03 a       262     0    11     1    12
  3.7329432098205373E-01 a       263     0    11     1    13
  2.5540684865071595E-01 a       264     0    11     1    14
 -6.0318229760909323E-02 a       265     0    11     1    15
  5.1505960747265003E-02 a       266     0    11     1    16
 -2.8909897873067464E-01 a       267     0    11     1    17
  5.2423684066882907E-02 a       268     0    11     1    18
 -1.8863653982498291E-01 a       269     0    11     1    19
  1.8755738175154281E-02 a       270     0    11     1    20
 -1.2055061934060889E-01 a       271     0    11     1    21
  1.8768754492594691E-01 a       272     0    11     1    22
  2.3624037240046381E-01 a       273     0    11     1    23
 -9.1179200950216949E-02 a       274     0    11     1    24
 -1.2266077206075056E-01 a       275     0    11     1    25
 -5.2084605065894345E-02 a       276     0    12     1     1
 -6.4038234819022571E-02 a       277     0    12     1     2
  1.6605653392834449E-01 a       278     0    12     1     3
 -2.6986630273430989E-01 a       279     0    12     1     4
  4.8896074833896769E-01 a       280     0    12     1     5
  3.2670272064202827E-01 a       281     0    12     1     6
  6.5725634143398950E-02 a       282     0    12     1     7
  3.8534286382938904E-01 a       283     0    12     1     8
  1.1107386350830281E-01 a       284     0    12     1     9
  4.1251269432222132E-01 a       285     0    12     1    10
 -2.5045503409157902E-02 a       286     0    12     1    11
 -1.1445179278870206E-01 a       287     0    12     1    12
 -2.3014970350949533E-02 a       288     0    12     1    13
  2.6348588004511314E-01 a       289     0    12     1    14
 -2.1668046679920827E-01 a       290     0    12     1    15
  1.6677275527213134E-01 a       291     0    12     1    16
  2.9132119008494845E-02 a       292     0    12     1    17
  1.3739629237264682E-02 a       293     0    12     1    18
  2.2748644316008579E-01 a       294     0    12     1    19
  3.2128585637049578E-01 a       295     0    12     1    20
 -1.3392404008782364E-02 a       296     0    12     1    21
 -1.2762712862755873E-01 a       297     0    12     1    22
 -1.3284187212626788E-01 a       298     0    12     1    23
 -3.8525636498165691E-02 a       299     0    12     1    24
  8.7711879044733043E-02 a       300     0    12     1    25
 -2.4319993201602633E-01 a       301     0    13     1     1
 -7.5814825743197284E-02 a       302     0    13     1     2
  1.5858544117563547E-01 a       303     0    13     1     3
 -3.4671833897135101E-02 a       304     0    13     1     4
 -4.5227158713323995E-01 a       305     0    13     1     5
 -1.9904442749652387E-01 a       306     0    13     1     6
 -3.8248882241836812E-02 a       307     0    13     1     7
 -2.4140096868241152E-02 a       308     0    13     1     8
  8.9699964192219039E-02 a       309     0    13     1     9
 -1.8813353981179989E-01 a       310     0    13     1    10
 -8.1783337165139608E-02 a       311     0    13     1    11
  2.4388300130661228E-01 a       312     0    13     1    12
  2.6031402742726933E-01 a       313     0    13     1    13
 -9.2424845556209029E-02 a       314     0    13     1    14
  5.3271215398811661E-02 a       315     0    13     1    15
 -5.5564751201026574E-01 a       316     0    13     1    16
 -6.4139690304620717E-02 a       317     0    13     1    17
 -1.8615570267886278E-01 a       318     0    13     1    18
 -1.3840308792337663E-02 a       319     0    13     1    19
 -4.4762311040258174E-01 a       320     0    13     1    20
 -2.7670514223000281E-01 a       321     0    13     1    21
  9.9887369416533353E-02 a       322     0    13     1    22
  3.6939122657239296E-02 a       323     0    13     1    23
  1.3199191109426597E-01 a       324     0    13     1    24
 -3.0445759213107737E-01 a       325     0    13     1    25
 -2.2612609461749325E-01 a       326     0    14     1     1
  1.1416754541935560E-01 a       327     0    14     1     2
  2.1446995974398486E-01 a       328     0    14     1     3
 -1.2275492077056936E-01 a       329     0    14     1     4
 -3.6922283054391264E-01 a       330     0    14     1     5
  1.6532670888395473E-01 a       331     0    14     1     6
  5.8658711813033115E-02 a       332     0    14     1     7
 -2.1082311449626251E-01 a       333     0    14     1     8
 -1.5069120311423348E-01 a       334     0    14     1     9
 -1.2277930495526036E-01 a       335     0    14     1    10
 -2.2321767353311203E-02 a       336     0    14     1    11
  1.0093782753625875E-01 a       337     0    14     1    12
  6.6853502345084165E-02 a       338     0    14     1    13
 -2.1102066013483048E-01 a       339     0    14     1    14
  1.4439533403521715E-01 a       340     0    14     1    15
 -2.9425197946769421E-01 a       341     0    14     1    16
  4.6391832831403634E-02 a       342     0    14     1    17
 -4.1271659898767146E-02 a       343     0    14     1    18
 -2.2138990976349704E-01 a       344     0    14     1    19
  5.3479856856260263E-02 a       345     0    14     1    20
 -1.4517932148338827E-01 a       346     0    14     1    21
  7.5386347412031943E-02 a       347     0    14     1    22
 -1.8140741499792434E-01 a       348     0    14     1    23
  1.8415842166466040E-01 a       349     0    14     1    24
 -1.1089371963043015E-01 a       350     0    14     1    25
 -3.9531478683266986E-02 a       351     0    15     1     1
 -7.3941141618254158E-02 a       352     0    15     1     2
  2.0850037647678846E-01 a       353     0    15     1     3
  2.6963231990283504E-01 a       354     0    15     1     4
  1.9311364195480393E-01 a       355     0    15     1     5
  1.1222929243224980E-02 a       356     0    15     1     6
  1.0654341980676986E-01 a       357     0    15     1     7
 -2.7199485149978991E-01 a       358     0    15     1     8
  1.7680542263898119E-01 a       359     0    15     1     9
 -8.0106291588638689E-02 a       360     0    15     1    10
 -4.8787589028881062E-01 a       361     0    15     1    11
 -1.6695417499774221E-01 a       362     0    15     1    12
 -7.0219340548557330E-02 a       363     0    15     1    13
  1.2601552856291621E-02 a       364     0    15     1    14
 -1.3387814443151372E-01 a       365     0    15     1    15
  8.2547242442716148E-02 a       366     0    15     1    16
  1.5463941434203948E-01 a       367     0    15     1    17
 -2.4307491473261766E-01 a       368     0    15     1    18
 -2.3445457620751570E-01 a       369     0    15     1    19
  1.9322556974100924E-01 a       370     0    15     1    20
 -2.0526223454060303E-02 a       371     0    15     1    21
  3.1237534161564268E-01 a       372     0    15     1    22
  3.7146038441797258E-01 a       373     0    15     1    23
 -5.1338990130856832E-01 a       374     0    15     1    24
  1.9091031089454233E-01 a       375     0    15     1    25
  1.5854826197072808E-02 a       376     0    16     1     1
 -8.1356841194418217E-02 a       377     0    16     1     2
 -7.7830942133619296E-02 a       378     0    16     1     3
 -4.0874449885867047E-02 a       379     0    16     1     4
 -2.1845243013358176E-01 a       380     0    16     1     5
 -2.5310470590428930E-01 a       381     0    16     1     6
  2.7072324298832856E-02 a       382     0    16     1     7
  9.1331128057538860E-02 a       383     0    16     1     8
  2.1327153357889178E-01 a       384     0    16     1     9
  1.3628093183962878E-01 a       385     0    16     1    10
  1.6647194312162780E-01 a       386     0    16     1    11
  2.2466172795990441E-01 a       387     0    16     1    12
 -1.8740889811999695E-01 a       388     0    16     1    13
 -1.7402116134045389E-01 a       389     0    16     1    14
 -9.2921102364994679E-02 a       390     0    16     1    15
  5.1469628298770616E-02 a       391     0    16     1    16
  2.9465421502844671E-02 a       392     0    16     1    17
  6.4112486905908789E-02 a       393     0    16     1    18
  2.4353416205791983E-01 a       394     0    16     1    19
 -2.6371376255242995E-01 a       395     0    16     1    20
 -1.8400325138098125E-02 a       396     0    16     1    21
  8.2047999101927421E-02 a       397     0    16     1    22
 -2.5572589009517699E-01 a       398     0    16     1    23
 -9.4637050754510982E-02 a       399     0    16     1    24
  2.3151027737904450E-01 a       400     0    16     1    25
  1.7345547426681629E-01 a       401     0    17     1     1
 -5.1913153938850751E-02 a       402     0    17     1     2
 -2.5452066385479893E-01 a       403     0    17     1     3
 -1.6994611794438466E-02 a       404     0    17     1     4
 -6.3295907162632059E-02 a       405     0    17     1     5
  2.3178898161406693E-02 a       406     0    17     1     6
  2.6411193907195468E-01 a       407     0    17     1     7
  2.7183243395620865E-01 a       408     0    17     1     8
 -4.7237536585787852E-02 a       409     0    17     1     9
 -3.6672705219163527E-02 a       410     0    17     1    10
  9.7558255403480551E-02 a       411     0    17     1    11
  3.7854117792132475E-01 a       412     0    17     1    12
 -1.3366039799919455E-01 a       413     0    17     1    13
  1.7970893461978724E-01 a       414     0    17     1    14
 -9.3612889195266225E-02 a       415     0    17     1    15
 -2.5130881543073508E-01 a       416     0    17     1    16
  7.9194521482602004E-02 a       417     0    17     1    17
  1.7168287761431553E-01 a       418     0    17     1    18
 -2.4251200584234054E-02 a       419     0    17     1    19
  1.4840444407887463E-01 a       420     0    17     1    20
  6.1271444163787492E-02 a       421     0    17     1    21
  3.4719520863209688E-02 a       422     0    17     1    22
 -1.7323474824044757E-01 a       423     0    17     1    23
 -1.4736297607951282E-01 a       424     0    17     1    24
 -1.1210473634437537E-01 a       425     0    17     1    25
  1.2953326988865244E-01 a       426     0    18     1     1
 -5.6850796567300957E-03 a       427     0    18     1     2
 -8.9320936848954119E-02 a       428     0    18     1     3
  8.8061738972507131E-02 a       429     0    18     1     4
  2.0714165541798391E-01 a       430     0    18     1     5
  2.7136071924284927E-01 a       431     0    18     1     6
 -5.0793066021921081E-02 a       432     0    18     1     7
 -1.0200341397531248E-01 a       433     0    18     1     8
 -1.1234907215203725E-01 a       434     0    18     1     9
  2.9342146534595664E-01 a       435     0    18     1    10
 -1.6158725428143048E-01 a       436     0    18     1    11
 -3.3114088862682006E-01 a       437     0    18     1    12
  1.6350502275910039E-01 a       438     0    18     1    13
 -4.1503372833123511E-02 a       439     0    18     1    14
  1.2387842988596402E-02 a       440     0    18     1    15
  3.5237488441857256E-02 a       441     0    18     1    16
  1.9021339959137912E-01 a       442     0    18     1    17
 -3.4416988021043196E-03 a       443     0    18     1    18
  1.0761176813370121E-03 a       444     0    18     1    19
  1.7809925481151367E-01 a       445     0    18     1    20
 -1.4438148993639108E-01 a       446     0    18     1    21
  6.4079833631152758E-02 a       447     0    18     1    22
  1.4322823568481702E-01 a       448     0    18     1    23
  9.3556428038730086E-02 a       449     0    18     1    24
 -2.9776299453140243E-02 a       450     0    18     1    25
  1.2223763388747361E-01 a       451     0    19     1     1
 -1.7157936119705899E-01 a       452     0    19     1     2
 -2.9208766468974845E-01 a       453     0    19     1     3
 -1.3971129184418810E-01 a       454     0    19     1     4
  3.4127899580239379E-01 a       455     0    19     1     5
  1.3064971196575026E-01 a       456     0    19     1     6
  1.7491550422706840E-02 a       457     0    19     1     7
  9.8177551940004770E-02 a       458     0    19     1     8
 -2.3302922441820323E-01 a       459     0    19     1     9
  7.4393575964435493E-02 a       460     0    19     1    10
 -8.7700905925576486E-02 a       461     0    19     1    11
  6.2940114764153995E-02 a       462     0    19     1    12
 -2.4150338412268612E-03 a       463     0    19     1    13
  1.5718455831148745E-01 a       464     0    19     1    14
  3.1569958510831259E-01 a       465     0    19     1    15
 -4.6089911341223572E-01 a       466     0    19     1    16
  1.2158132829191727E-01 a       467     0    19     1    17
 -3.1895997765973507E-03 a       468     0    19     1    18
  1.7118992817839054E-01 a       469     0    19     1    19
  1.3936943810266159E-01 a       470     0    19     1    20
 -5.3262009392408896E-02 a       471     0    19     1    21
 -2.2894172698803339E-01 a       472     0    19     1    22
 -9.3479603701388858E-02 a       473     0    19     1    23
 -1.6887197338928658E-01 a       474     0    19     1    24
 -2.1027873973100666E-01 a       475     0    19     1    25
 -2.2480846497803389E-01 a       476     0    20     1     1
  1.8156520940708620E-01 a       477     0    20     1     2
 -2.0745598949488744E-01 a       478     0    20     1     3
  1.1994111813839103E-01 a       479     0    20     1     4
  1.3661134404754846E-01 a       480     0    20     1     5
  1.5698790220837347E-01 a       481     0    20     1     6
 -3.1439646011634043E-01 a       482     0    20     1     7
 -2.9520469854361273E-02 a       483     0    20     1     8
 -1.3560753297687853E-01 a       484     0    20     1     9
 -1.5029333568295566E-01 a       485     0    20     1    10
  9.5651762067151702E-02 a       486     0    20     1    11
 -1.5457368791452147E-01 a       487     0    20     1    12
 -3.6683123217734409E-01 a       488     0    20     1    13
 -1.4269736189160254E-01 a       489     0    20     1    14
  3.2345141943500196E-02 a       490     0    20     1    15
 -3.5162630382562773E-02 a       491     0    20     1    16
 -4.8870099702899683E-01 a       492     0    20     1    17
 -5.9349569877143259E-02 a       493     0    20     1    18
  2.6893678344118160E-01 a       494     0    20     1    19
 -4.2726371047302170E-01 a       495     0    20     1    20
  1.2467494922995348E-01 a       496     0    20     1    21
 -1.1391715690195953E-01 a       497     0    20     1    22
  6.9612970288940021E-02 a       498     0    20     1    23
 -2.1645324186804499E-01 a       499     0    20     1    24
  5.0113459819379841E-02 a       500     0    20     1    25
 -1.1615127949472823E-01 a       501     0    21     1     1
 -2.5667195867871268E-02 a       502     0    21     1     2
  2.0836924265110837E-01 a       503     0    21     1     3
 -2.0992808718073578E-02 a       504     0    21     1     4
  3.2622066280699490E-02 a       505     0    21     1     5
  3.2380594406651413E-02 a       506     0    21     1     6
 -4.6626160036949721E-02 a       507     0    21     1     7
 -3.4155785229579694E-01 a       508     0    21     1     8
  4.5981611042414640E-02 a       509     0    21     1     9
 -2.7710950691195957E-01 a       510     0    21     1    10
 -1.5794704408163832E-01 a       511     0    21     1    11
 -8.8730481481910789E-02 a       512     0    21     1    12
  1.7637597788395679E-01 a       513     0    21     1    13
  8.4581218568489019E-02 a       514     0    21     1    14
 -1.7717336963804367E-01 a       515     0    21     1    15
  2.1405973846116383E-01 a       516     0    21     1    16
 -9.3289890440898110E-02 a       517     0    21     1    17
  6.8989375538268685E-02 a       518     0    21     1    18
  2.2176343302804616E-01 a       519     0    21     1    19
  1.1374484696135244E-01 a       520     0    21     1    20
 -1.2463185816417251E-01 a       521     0    21     1    21
  1.9723010676980959E-01 a       522     0    21     1    22
 -1.2520010189798877E-01 a       523     0    21     1    23
 -2.1425952577244214E-01 a       524     0    21     1    24
  7.2538133824777834E-02 a       525     0    21     1    25
  2.3000129791562879E-01 a       526     0    22     1     1
  7.7935547372722222E-02 a       527     0    22     1     2
  5.5325498739359456E-02 a       528     0    22     1     3
  5.7833960958148418E-02 a       529     0    22     1     4
  4.3161600268760196E-02 a       530     0    22     1     5
  2.0415550913054661E-01 a       531     0    22     1     6
  7.1807002401160780E-02 a       532     0    22     1     7
  1.0083453105176126E-02 a       533     0    22     1     8
 -2.5245630143345266E-01 a       534     0    22     1     9
 -6.0813155214300744E-02 a       535     0    22     1    10
  1.1850331647700353E-01 a       536     0    22     1    11
 -2.7124273913018654E-01 a       537     0    22     1    12
 -2.1878708225981372E-01 a       538     0    22     1    13
  3.2721279041158241E-01 a       539     0    22     1    14
 -3.6100602859604136E-01 a       540     0    22     1    15
  1.3169175198809492E-03 a       541     0    22     1    16
  9.1089774046802324E-02 a       542     0    22     1    17
  1.3934765667454588E-01 a       543     0    22     1    18
 -1.3033106888943791E-01 a       544     0    22     1    19
 -1.6284120347562678E-01 a       545     0    22     1    20
  2.3610629524824334E-01 a       546     0    22     1    21
 -6.8577882290812478E-02 a       547     0    22     1    22
  2.2031868284700537E-01 a       548     0    22     1    23
  1.6135708671950955E-01 a       549     0    22     1    24
  1.0403371143443815E-01 a       550     0    22     1    25
 -1.2995757392531653E-03 a       551     0    23     1     1
 -1.1091102268467705E-01 a       552     0    23     1     2
 -2.4125477776251006E-01 a       553     0    23     1     3
 -2.0765327993129604E-01 a       554     0    23     1     4
 -1.1367619499745311E-01 a       555     0    23     1     5
 -1.3270234711160603E-01 a       556     0    23     1     6
  1.3938287125897508E-01 a       557     0    23     1     7
  1.5601922729024301E-01 a       558     0    23     1     8
 -2.7020217428004922E-01 a       559     0    23     1     9
  9.9590416701780982E-02 a       560     0    23     1    10
 -1.1175595157655317E-01 a       561     0    23     1    11
  5.0481500832637838E-01 a       562     0    23     1    12
 -1.5466627090811161E-01 a       563     0    23     1    13
  1.4570618279374598E-01 a       564     0    23     1    14
  3.8766883209545305E-01 a       565     0    23     1    15
 -2.6790559880225273E-01 a       566     0    23     1    16
 -4.1250927367414546E-03 a       567     0    23     1    17
  2.0944083026114371E-01 a       568     0    23     1    18
 -1.1704852816567375E-01 a       569     0    23     1    19
 -3.0069664316527167E-01 a       570     0    23     1    20
  6.6715871237578040E-03 a       571     0    23     1    21
 -1.9710146486531896E-01 a       572     0    23     1    22
  8.1857781815552200E-02 a       573     0    23     1    23
 -1.6910043244639114E-02 a       574     0    23     1    24
  1.8055023033115573E-02 a       575     0    23     1    25
  1.5186697254094011E-01 a       576     0    24     1     1
  1.5030964880232084E-02 a       577     0    24     1     2
  1.1922750311527477E-01 a       578     0    24     1     3
  6.3593888456370720E-02 a       579     0    24     1     4
 -2.9950448937906737E-01 a       580     0    24     1     5
 -2.7138197414022583E-02 a       581     0    24     1     6
  1.4189954448630604E-01 a       582     0    24     1     7
  1.3151908012867145E-01 a       583     0    24     1     8
  1.7084565509049587E-01 a       584     0    24     1     9
  8.6785981324411829E-02 a       585     0    24     1    10
 -8.0640388409150304E-02 a       586     0    24     1    11
 -9.1540984165850488E-03 a       587     0    24     1    12
  1.0167829472410415E-01 a       588     0    24     1    13
 -5.0829202252351192E-02 a       589     0    24     1    14
 -9.3251847415990893E-02 a       590     0    24     1    15
 -6.2508500806144007E-02 a       591     0    24     1    16
  2.3618177802662027E-01 a       592     0    24     1    17
 -9.8676641434894352E-02 a       593     0    24     1    18
  2.9843228744753070E-01 a       594     0    24     1    19
  1.0632558815571953E-01 a       595     0    24     1    20
 -3.0208496541619844E-02 a       596     0    24     1    21
  1.8877443194403334E-01 a       597     0    24     1    22
  4.5504959076315654E-01 a       598     0    24     1    23
  4.1725364710401408E-01 a       599     0    24     1    24
 -1.0328900226738495E-01 a       600     0    24     1    25
  4.5392100502984194E-02 a       601     0    25     1     1
 -1.5461160063813232E-02 a       602     0    25     1     2
 -9.5626494798286887E-02 a       603     0    25     1     3
  7.0804066416218225E-02 a       604     0    25     1     4
  1.8903441784665515E-01 a       605     0    25     1     5
 -7.4108682369755874E-02 a       606     0    25     1     6
 -2.9443845778342076E-01 a       607     0    25     1     7
  7.1886376555923670E-02 a       608     0    25     1     8
  2.6478305724304291E-01 a       609     0    25     1     9
  2.9527285033737870E-04 a       610     0    25     1    10
  7.1198072875818932E-02 a       611     0    25     1    11
  2.4092080434244842E-01 a       612     0    25     1    12
 -3.4440637859224676E-01 a       613     0    25     1    13
 -2.1654023170891565E-01 a       614     0    25     1    14
 -1.0411497985398074E-01 a       615     0    25     1    15
 -1.4900046947476475E-01 a       616     0    25     1    16
 -3.2042157215787809E-01 a       617     0    25     1    17
  7.5696197590199202E-02 a       618     0    25     1    18
  1.0935934633690457E-01 a       619     0    25     1    19
 -3.1027969570606734E-01 a       620     0    25     1    20
  1.1398793699770524E-01 a       621     0    25     1    21
  1.9430983749640755E-02 a       622     0    25     1    22
 -5.7871901516804436E-02 a       623     0    25     1    23
 -3.0024929434520949E-02 a       624     0    25     1    24
 -1.8119157058571400E-03 a       625     0    25     1    25
  1.0875403989945619E-01 a       626     0    26     1     1
 -1.0097474450171284E-01 a       627     0    26     1     2
 -9.8147912540837295E-02 a       628     0    26     1     3
  1.0473415635243018E-01 a       629     0    26     1     4
  1.2000249315824200E-01 a       630     0    26     1     5
  6.6969263179017829E-02 a       631     0    26     1     6
  5.0392245378288361E-02 a       632     0    26     1     7
 -4.4160360465065433E-02 a       633     0    26     1     8
  1.0627714847234289E-01 a       634     0    26     1     9
  1.3442519913854259E-01 a       635     0    26     1    10
  2.1567552920381951E-02 a       636     0    26     1    11
 -2.1244217474039129E-01 a       637     0    26     1    12
  9.3490444445384124E-02 a       638     0    26     1    13
  4.0761324249088828E-02 a       639     0    26     1    14
  9.2680912880497100E-03 a       640     0    26     1    15
 -1.6982478376139493E-01 a       641     0    26     1    16
  1.5875215023841929E-01 a       642     0    26     1    17
  2.9193396220385543E-02 a       643     0    26     1    18
  3.5284819663907130E-01 a       644     0    26     1    19
 -1.6075014349961107E-02 a       645     0    26     1    20
 -1.1520689232468760E-01 a       646     0    26     1    21
 -4.3268352488811578E-02 a       647     0    26     1    22
 -2.4265093738288553E-03 a       648     0    26     1    23
  1.0406403859719710E-02 a       649     0    26     1    24
  5.6952981009357452E-02 a       650     0    26     1    25
  8.8647716825260171E-03 a       651     0    27     1     1
 -1.5509826868916016E-01 a       652     0    27     1     2
  2.6982196237020310E-02 a       653     0    27     1     3
 -2.3822048984745753E-01 a       654     0    27     1     4
  5.9041431440044902E-02 a       655     0    27     1     5
 -1.7425996480482115E-02 a       656     0    27     1     6
 -1.5213461455005989E-01 a       657     0    27     1     7
 -8.7570471141229941E-02 a       658     0    27     1     8
 -1.5414627280961085E-01 a       659     0    27     1     9
 -1.4098428707072444E-01 a       660     0    27     1    10
 -1.4696737590608677E-01 a       661     0    27     1    11
 -1.2173587991979939E-01 a       662     0    27     1    12
  6.6500521163212284E-02 a       663     0    27     1    13
  2.6071142256725740E-02 a       664     0    27     1    14
 -2.1083389070031780E-01 a       665     0    27     1    15
  1.8925076389624959E-01 a       666     0    27     1    16
  6.2627707465217480E-02 a       667     0    27     1    17
  5.8969236477523834E-02 a       668     0    27     1    18
 -3.8608846825827325E-01 a       669     0    27     1    19
 -3.7661413498999402E-02 a       670     0    27     1    20
 -2.4082678186513509E-01 a       671     0    27     1    21
 -9.7475000606713422E-02 a       672     0    27     1    22
 -2.1866733404463515E-01 a       673     0    27     1    23
 -1.6592292731298044E-01 a       674     0    27     1    24
  7.6970731204106094E-02 a       675     0    27     1    25
  1.9086645838393670E-01 a       676     0    28     1     1
 -7.2648847032937822E-02 a       677     0    28     1     2
  1.4359461097670775E-01 a       678     0    28     1     3
 -4.7229234646421231E-02 a       679     0    28     1     4
 -2.4197811164584337E-01 a       680     0    28     1     5
 -7.2774908676286207E-02 a       681     0    28     1     6
  1.3770404484000381E-01 a       682     0    28     1     7
 -1.7819823613552329E-02 a       683     0    28     1     8
 -1.6948489668054925E-01 a       684     0    28     1     9
 -1.5467097105585102E-02 a       685     0    28     1    10
 -7.2343478608440717E-02 a       686     0    28     1    11
 -1.6639811230130397E-01 a       687     0    28     1    12
  3.3945351005956154E-01 a       688     0    28     1    13
  5.8690781300811581E-02 a       689     0    28     1    14
  1.9744196158763316E-01 a       690     0    28     1    15
  2.5865932873105284E-02 a       691     0    28     1    16
  1.0741334790152909E-01 a       692     0    28     1    17
 -9.1810857182169830E-02 a       693     0    28     1    18
 -7.7128433065152990E-02 a       694     0    28     1    19
  3.7992756342458765E-02 a       695     0    28     1    20
 -3.3646892070336804E-01 a       696     0    28     1    21
 -2.3086057061240093E-02 a       697     0    28     1    22
  3.3495129564823006E-01 a       698     0    28     1    23
  2.1702820561639649E-01 a       699     0    28     1    24
  1.2490118927397325E-02 a       700     0    28     1    25
  1.8766453229428129E-01 a       701     0    29     1     1
  1.3859765774417926E-01 a       702     0    29     1     2
 -9.3221296068607143E-02 a       703     0    29     1     3
 -7.2100261937536436E-02 a       704     0    29     1     4
 -1.2123392419316295E-01 a       705     0    29     1     5
  8.8169734965266366E-02 a       706     0    29     1     6
 -4.9663573133531657E-04 a       707     0    29     1     7
  1.2651108019773236E-01 a       708     0    29     1     8
 -6.8245183118935595E-03 a       709     0    29     1     9
  1.6106763613352060E-01 a       710     0    29     1    10
  1.0832939413905479E-02 a       711     0    29     1    11
  1.9784747837080821E-01 a       712     0    29     1    12
  1.1761301991137814E-01 a       713     0    29     1    13
  1.4630358699816073E-01 a       714     0    29     1    14
  8.0513831892305071E-02 a       715     0    29     1    15
  5.5396726625206227E-02 a       716     0    29     1    16
  1.8953138460706051E-01 a       717     0    29     1    17
  6.5956388542405681E-02 a       718     0    29     1    18
 -1.7627591599883325E-02 a       719     0    29     1    19
 -7.7330378220333576E-02 a       720     0    29     1    20
  1.8728968947044916E-01 a       721     0    29     1    21
 -7.6484971540742470E-03 a       722     0    29     1    22
 -4.5915744822953831E-02 a       723     0    29     1    23
  2.6292813015338149E-02 a       724     0    29     1    24
  3.7943233763791100E-02 a       725     0    29     1    25
 -7.7521747805611177E-02 a       726     0    30     1     1
  1.0642688540921534E-01 a       727     0    30     1     2
  6.3724680809710291E-02 a       728     0    30     1     3
  1.3178474476839308E-01 a       729     0    30     1     4
  5.4482426886080473E-02 a       730     0    30     1     5
  1.2743617556601849E-01 a       731     0    30     1     6
 -9.4413799039008275E-02 a       732     0    30     1     7
  1.4012098727612063E-01 a       733     0    30     1     8
 -9.5031620835711858E-02 a       734     0    30     1     9
 -1.6435543332467401E-01 a       735     0    30     1    10
 -1.8643390955059291E-01 a       736     0    30     1    11
  1.1277883437148002E-01 a       737     0    30     1    12
  5.3473444732327458E-02 a       738     0    30     1    13
  2.3700101830212487E-02 a       739     0    30     1    14
 -1.4849925526777866E-01 a       740     0    30     1    15
  1.9990338770753811E-02 a       741     0    30     1    16
 -2.3990577537930054E-02 a       742     0    30     1    17
 -2.9767054718093482E-02 a       743     0    30     1    18
  2.0391266666124369E-01 a       744     0    30     1    19
  2.8738474744405179E-01 a       745     0    30     1    20
  2.5785972309209448E-01 a       746     0    30     1    21
  8.8052652360478392E-02 a       747     0    30     1    22
 -3.2739291956371969E-01 a       748     0    30     1    23
  3.1751965882820171E-02 a       749     0    30     1    24
 -1.1216591912483066E-01 a       750     0    30     1    25
  3.1095128943819536E-02 a       751     0    31     1     1
  4.8812900842888668E-02 a       752     0    31     1     2
  1.5930061414597027E-01 a       753     0    31     1     3
 -2.0098120698686547E-01 a       754     0    31     1     4
  4.9877824449209893E-02 a       755     0    31     1     5
  2.1579947923008205E-01 a       756     0    31     1     6
  1.8739118826372264E-01 a       757     0    31     1     7
 -1.5994306598791597E-01 a       758     0    31     1     8
 -1.3359340376557191E-01 a       759     0    31     1     9
  7.7360719309832173E-03 a       760     0    31     1    10
  3.5344586903888958E-01 a       761     0    31     1    11
  1.1629102020735042E-01 a       762     0    31     1    12
  1.2813268339700328E-02 a       763     0    31     1    13
 -3.9147110977172206E-01 a       764     0    31     1    14
  2.7686725979704857E-01 a       765     0    31     1    15
 -1.3307540774770771E-02 a       766     0    31     1    16
  4.0654824235873681E-02 a       767     0    31     1    17
 -3.3736024831437415E-02 a       768     0    31     1    18
 -1.2795026723162545E-02 a       769     0    31     1    19
 -3.5017718678686921E-01 a       770     0    31     1    20
 -7.6334490667106361E-02 a       771     0    31     1    21
 -1.2017350522710740E-03 a       772     0    31     1    22
  4.9135642009155134E-01 a       773     0    31     1    23
 -2.0391453486280581E-01 a       774     0    31     1    24
 -4.9862722098320586E-02 a       775     0    31     1    25
 -1.2780692044570943E-01 a       776     0    32     1     1
  4.3127199491601265E-01 a       777     0    32     1     2
  3.3895455909863426E-01 a       778     0    32     1     3
 -2.6301010185618590E-01 a       779     0    32     1     4
 -1.3975584389321533E-01 a       780     0    32     1     5
 -2.7866318502461240E-01 a       781     0    32     1     6
  1.9588153579486861E-01 a       782     0    32     1     7
 -1.3477849300447889E-01 a       783     0    32     1     8
  2.2792224253972587E-01 a       784     0    32     1     9
  5.7634939181616392E-02 a       785     0    32     1    10
 -7.4022701242119748E-01 a       786     0    32     1    11
 -2.0454722274934853E-01 a       787     0    32     1    12
 -2.4556529652893697E-01 a       788     0    32     1    13
  3.1699737133564027E-01 a       789     0    32     1    14
 -5.1830633979566643E-01 a       790     0    32     1    15
 -3.4384292245175252E-02 a       791     0    32     1    16
 -4.4928101125744840E-01 a       792     0    32     1    17
 -5.1437580474839062E-01 a       793     0    32     1    18
 -2.3234527547986183E-01 a       794     0    32     1    19
  1.7740767824742221E-01 a       795     0    32     1    20
 -2.7884614200252678E-01 a       796     0    32     1    21
 -4.0558467128384651E-01 a       797     0    32     1    22
 -9.7016279875691919E-02 a       798     0    32     1    23
  5.0699844585899112E-01 a       799     0    32     1    24
  1.7384150864716433E-01 a       800     0    32     1    25
 -8.1902241608727569E-02 a       801     0    33     1     1
  1.8647125181527287E-02 a       802     0    33     1     2
  2.5776111777748037E-02 a       803     0    33     1     3
  1.3028091218234347E-01 a       804     0    33     1     4
 -1.8763604236588105E-01 a       805     0    33     1     5
 -8.0802114832093042E-02 a       806     0    33     1     6
 -1.0045640593244663E-01 a       807     0    33     1     7
 -5.9555229389260632E-02 a       808     0    33     1     8
 -8.7484093190809700E-02 a       809     0    33     1     9
 -2.2359419065569539E-01 a       810     0    33     1    10
 -1.6329781134412646E-01 a       811     0    33     1    11
 -1.4880701781709135E-01 a       812     0    33     1    12
 -4.8351845906437443E-02 a       813     0    33     1    13
  6.3311688132734831E-04 a       814     0    33     1    14
  7.3876818101699937E-02 a       815     0    33     1    15
  2.8476023315386977E-02 a       816     0    33     1    16
 -8.2278026146738695E-02 a       817     0    33     1    17
  2.1760410837710218E-02 a       818     0    33     1    18
 -2.7140045318404221E-01 a       819     0    33     1    19
  1.7769596750211187E-02 a       820     0    33     1    20
 -6.1320571090413938E-02 a       821     0    33     1    21
  1.1320872322041735E-01 a       822     0    33     1    22
 -1.5402258901604057E-01 a       823     0    33     1    23
 -9.0315773369061991E-02 a       824     0    33     1    24
  1.8992770980653448E-01 a       825     0    33     1    25
  3.8736142037141641E-01 a       826     0    34     1     1
 -6.6638058519090315E-01 a       827     0    34     1     2
 -5.1259818233995481E-02 a       828     0    34     1     3
 -1.2959901925378933E-01 a       829     0    34     1     4
 -1.7388383154853898E-01 a       830     0    34     1     5
 -3.8580539292980831E-01 a       831     0    34     1     6
  1.2958767901938978E-01 a       832     0    34     1     7
  5.0042530716624656E-01 a       833     0    34     1     8
 -1.7238801141773102E-01 a       834     0    34     1     9
  4.6460702581039448E-01 a       835     0    34     1    10
 -2.5952916969182699E-01 a       836     0    34     1    11
 -2.4676015702695081E-01 a       837     0    34     1    12
  1.8683645354279935E-01 a       838     0    34     1    13
  1.3591828316066071E-01 a       839     0    34     1    14
  1.0894290253622210E-01 a       840     0    34     1    15
 -3.4461318500253707E-01 a       841     0    34     1    16
  1.6211244085959511E-01 a       842     0    34     1    17
 -2.5753128804144315E-01 a       843     0    34     1    18
  2.9746770442189437E-02 a       844     0    34     1    19
 -1.2275064333449492E-01 a       845     0    34     1    20
  6.9158426257542538E-02 a       846     0    34     1    21
 -4.7172032491482779E-01 a       847     0    34     1    22
  5.2694241857548986E-02 a       848     0    34     1    23
 -1.1064261195557649E-02 a       849     0    34     1    24
  1.3530671001427130E-01 a       850     0    34     1    25
  5.4548773460055144E-01 a       851     0    35     1     1
 -3.8001707566766886E-02 a       852     0    35     1     2
 -6.4023019250289948E-01 a       853     0    35     1     3
  2.2209387779124906E-01 a       854     0    35     1     4
 -3.0992251224450001E-01 a       855     0    35     1     5
 -3.6668739530792005E-01 a       856     0    35     1     6
  1.7148980041384852E-02 a       857     0    35     1     7
 -6.9702592957760945E-01 a       858     0    35     1     8
  2.6325147312493102E-01 a       859     0    35     1     9
 -5.5593104196952925E-01 a       860     0    35     1    10
  1.0724409163879403E+00 a       861     0    35     1    11
  3.2878081026700423E-01 a       862     0    35     1    12
 -3.4226670744155197E-01 a       863     0    35     1    13
 -3.3500349804088464E-01 a       864     0    35     1    14
  8.8658695206200366E-01 a       865     0    35     1    15
  4.8542515547086046E-01 a       866     0    35     1    16
  2.2011333121709875E-01 a       867     0    35     1    17
  5.1034126043831740E-01 a       868     0    35     1    18
  4.4775771708904177E-02 a       869     0    35     1    19
  6.2846724561421963E-01 a       870     0    35     1    20
 -2.8537565438641832E-01 a       871     0    35     1    21
  7.8516511878381101E-01 a       872     0    35     1    22
 -5.0200796213297892E-02 a       873     0    35     1    23
 -4.7680041510786303E-01 a       874     0    35     1    24
  2.0613555445254717E-01 a       875     0    35     1    25
  1.0191232035069735E-02 a       876     0    36     1     1
  2.5913589595735274E-02 a       877     0    36     1     2
 -1.2293016990325915E-01 a       878     0    36     1     3
  1.4418988128466576E-01 a       879     0    36     1     4
  2.1139235009514085E-01 a       880     0    36     1     5
  1.4883407170367832E-01 a       881     0    36     1     6
  8.0999305473897651E-02 a       882     0    36     1     7
  2.1717837058088280E-01 a       883     0    36     1     8
 -1.6421029012211391E-01 a       884     0    36     1     9
 -7.3433357205278299E-02 a       885     0    36     1    10
  7.1256780582782980E-02 a       886     0    36     1    11
  5.0457973929082710E-02 a       887     0    36     1    12
  1.4505052518717892E-01 a       888     0    36     1    13
  1.0972986597555562E-01 a       889     0    36     1    14
 -1.4475736104385732E-02 a       890     0    36     1    15
  3.0560514965653256E-02 a       891     0    36     1    16
 -2.9062476435094148E-01 a       892     0    36     1    17
  3.3789097899352125E-03 a       893     0    36     1    18
 -8.8605174424720989E-02 a       894     0    36     1    19
  2.3794746089169033E-01 a       895     0    36     1    20
  3.8475845902704875E-01 a       896     0    36     1    21
 -5.5266194969327775E-02 a       897     0    36     1    22
 -7.0458886229148213E-02 a       898     0    36     1    23
  5.1765968525289130E-01 a       899     0    36     1    24
 -4.1753755080843996E-01 a       900     0    36     1    25
 -4.2061526822823203E-01 a       901     0    37     1     1
 -4.9788404823382337E-01 a       902     0    37     1     2
 -4.8107778003587098E-01 a       903     0    37     1     3
  1.7575749417116396E-01 a       904     0    37     1     4
 -4.9368702241330796E-02 a       905     0    37     1     5
 -9.5591668253018260E-03 a       906     0    37     1     6
 -1.3425582369493072E-01 a       907     0    37     1     7
  3.1057937217097537E-01 a       908     0    37     1     8
  3.9951397448673515E-01 a       909     0    37     1     9
  2.4159459037123371E-01 a       910     0    37     1    10
  1.3638441833044889E-02 a       911     0    37     1    11
 -1.3630512789851393E-01 a       912     0    37     1    12
 -3.3514732879347897E-01 a       913     0    37     1    13
 -1.7908111881293062E-01 a       914     0    37     1    14
  1.6517966483805407E-01 a       915     0    37     1    15
  3.6355248421562292E-02 a       916     0    37     1    16
  2.9977170409645865E-01 a       917     0    37     1    17
  5.2576809346571540E-01 a       918     0    37     1    18
 -4.5774784320027254E-02 a       919     0    37     1    19
  1.3896909671539315E-01 a       920     0    37     1    20
 -3.8292159389520319E-01 a       921     0    37     1    21
  6.9810903198219976E-02 a       922     0    37     1    22
 -1.5791990394210811E-01 a       923     0    37     1    23
 -3.4610656384034717E-02 a       924     0    37     1    24
 -2.2430253973316866E-01 a       925     0    37     1    25
 -9.7935193704732387E-02 a       926     0    38     1     1
  1.7884296732671706E-01 a       927     0    38     1     2
  3.5043795494486180E-01 a       928     0    38     1     3
  3.0905436364956573E-02 a       929     0    38     1     4
 -1.6555589819330277E-01 a       930     0    38     1     5
 -2.2961513090193508E-01 a       931     0    38     1     6
 -1.8303357066936487E-02 a       932     0    38     1     7
 -1.6772816506337232E-01 a       933     0    38     1     8
  8.5152373855504934E-02 a       934     0    38     1     9
  1.2543347982415839E-01 a       935     0    38     1    10
 -6.1952663606937797E-02 a       936     0    38     1    11
  5.6005330722470194E-02 a       937     0    38     1    12
 -1.8067162858636979E-01 a       938     0    38     1    13
 -7.1728272923350336E-02 a       939     0    38     1    14
 -1.7106262183040993E-01 a       940     0    38     1    15
  1.7529342192500738E-01 a       941     0    38     1    16
 -2.0666217152562505E-01 a       942     0    38     1    17
  1.2934331062160578E-01 a       943     0    38     1    18
 -2.9499504330038878E-01 a       944     0    38     1    19
  2.2321814437437940E-01 a       945     0    38     1    20
 -1.2489819865466269E-01 a       946     0    38     1    21
 -4.3836016677840248E-02 a       947     0    38     1    22
  9.6843539636966500E-02 a       948     0    38     1    23
 -1.2321662379825435E-01 a       949     0    38     1    24
 -7.7081508505312160E-02 a       950     0    38     1    25
 -1.0774396044310616E-01 a       951     0    39     1     1
 -3.1052394123978169E-02 a       952     0    39     1     2
 -1.6691836165509893E-01 a       953     0    39     1     3
  2.4163515620439238E-01 a       954     0    39     1     4
  2.5539737812109625E-01 a       955     0    39     1     5
  1.4475221660565110E-01 a       956     0    39     1     6
 -5.0274980434706618E-01 a       957     0    39     1     7
  7.3524355227340063E-02 a       958     0    39     1     8
 -1.6367043661087174E-01 a       959     0    39     1     9
 -1.2763329225762907E-01 a       960     0    39     1    10
 -1.0942922850787916E-01 a       961     0    39     1    11
 -2.7587846410652744E-01 a       962     0    39     1    12
 -1.4528569999476282E-01 a       963     0    39     1    13
  3.2208641345025463E-02 a       964     0    39     1    14
  2.3522580273385094E-01 a       965     0    39     1    15
  2.4637710675127902E-01 a       966     0    39     1    16
 -5.7836052447829793E-02 a       967     0    39     1    17
  1.6572458164148859E-01 a       968     0    39     1    18
  3.5296024909532697E-01 a       969     0    39     1    19
 -4.5697157300986285E-01 a       970     0    39     1    20
  1.1733388609341491E-01 a       971     0    39     1    21
 -1.6810895711848095E-01 a       972     0    39     1    22
  3.4546635173171597E-01 a       973     0    39     1    23
  4.3101503057149665E-01 a       974     0    39     1    24
  1.2690106501609438E-01 a       975     0    39     1    25
 -1.0605638606450365E-01 a       976     0    40     1     1
  1.3393876964573462E-01 a       977     0    40     1     2
  1.9501580202198815E-01 a       978     0    40     1     3
 -1.2846369260825147E-01 a       979     0    40     1     4
 -7.4386453449655845E-02 a       980     0    40     1     5
 -1.1334552204763056E-01 a       981     0    40     1     6
 -1.5834638375355573E-01 a       982     0    40     1     7
 -1.4992433370751351E-02 a       983     0    40     1     8
 -3.7966179041166620E-01 a       984     0    40     1     9
 -2.4814624713145189E-01 a       985     0    40     1    10
 -3.8047171673102986E-01 a       986     0    40     1    11
 -6.8209930157037094E-02 a       987     0    40     1    12
  9.1349890267520648E-02 a       988     0    40     1    13
  1.8547425122827577E-01 a       989     0    40     1    14
 -6.1021340740570473E-01 a       990     0    40     1    15
 -5.3890767540776430E-01 a       991     0    40     1    16
  9.3261315669059652E-02 a       992     0    40     1    17
 -1.5283159555828540E-01 a       993     0    40     1    18
  2.1637504839457403E-01 a       994     0    40     1    19
  3.4961365761036667E-01 a       995     0    40     1    20
  3.5984685205322620E-01 a       996     0    40     1    21
 -2.8836054632829067E-01 a       997     0    40     1    22
 -1.6790015330628491E-01 a       998     0    40     1    23
  8.8033713652314452E-02 a       999     0    40     1    24
 -1.0349114261295801E-01 a      1000     0    40     1    25
 -6.4626857129239948E-02 a      1001     0    41     1     1
  9.5723554668932120E-02 a      1002     0    41     1     2
  4.4134222464762056E-02 a      1003     0    41     1     3
  2.6234423228665458E-02 a      1004     0    41     1     4
 -9.8022636088440113E-02 a      1005     0    41     1     5
 -3.5346719966051798E-01 a      1006     0    41     1     6
 -4.7248040475299957E-02 a      1007     0    41     1     7
 -1.7672273338986691E-01 a      1008     0    41     1     8
 -3.6574519382502481E-02 a      1009     0    41     1     9
 -1.0536152361421260E-01 a      1010     0    41     1    10
  5.6310951176500264E-02 a      1011     0    41     1    11
  1.0887691263870009E-01 a      1012     0    41     1    12
 -1.7835494115284686E-01 a      1013     0    41     1    13
  1.6697790156816200E-01 a      1014     0    41     1    14
 -8.2280847280605210E-02 a      1015     0    41     1    15
  1.3560101006777575E-01 a      1016     0    41     1    16
  2.5196765119033859E-01 a      1017     0    41     1    17
 -9.4555898298336702E-02 a      1018     0    41     1    18
 -1.6129340768034806E-01 a      1019     0    41     1    19
  2.3373129101205870E-01 a      1020     0    41     1    20
 -2.8277359077341694E-02 a      1021     0    41     1    21
 -6.2524857970264094E-02 a      1022     0    41     1    22
 -1.1520405708569216E-01 a      1023     0    41     1    23
 -2.1499185095691466E-02 a      1024     0    41     1    24
 -8.2639937399867622E-02 a      1025     0    41     1    25
  1.6655201727748067E-01 a      1026     0    42     1     1
 -8.3742346421565250E-02 a      1027     0    42     1     2
 -1.7782117364817010E-01 a      1028     0    42     1     3
  3.6187853137002257E-01 a      1029     0    42     1     4
  1.2860636637581481E-02 a      1030     0    42     1     5
 -3.3588160099805323E-02 a      1031     0    42     1     6
 -3.3623123217570705E-01 a      1032     0    42     1     7
  1.3865356246457020E-02 a      1033     0    42     1     8
  1.3697880174065707E-01 a      1034     0    42     1     9
  1.7035091820731413E-01 a      1035     0    42     1    10
  1.3182245592573697E-02 a      1036     0    42     1    11
 -2.8406809923934173E-01 a      1037     0    42     1    12
 -1.0058739283787135E-01 a      1038     0    42     1    13
  1.1591160269893459E-01 a      1039     0    42     1    14
 -3.4969136718065265E-02 a      1040     0    42     1    15
  3.3339779736129088E-02 a      1041     0    42     1    16
  1.4517038988192885E-02 a      1042     0    42     1    17
 -4.1560482782888701E-03 a      1043     0    42     1    18
  3.3261428349075572E-01 a      1044     0    42     1    19
 -3.3460094162658111E-01 a      1045     0    42     1    20
  1.5118394385091152E-01 a      1046     0    42     1    21
  3.0644172634335293E-02 a      1047     0    42     1    22
 -1.5666931602366804E-01 a      1048     0    42     1    23
 -4.2339264126888732E-01 a      1049     0    42     1    24
  2.0326108467155404E-01 a      1050     0    42     1    25
 -8.2463584417157232E-02 a      1051     0    43     1     1
  8.2500049070837286E-02 a      1052     0    43     1     2
  1.2047603824568939E-01 a      1053     0    43     1     3
  9.7530322711155901E-02 a      1054     0    43     1     4
  4.9178819631776831E-02 a      1055     0    43     1     5
  4.7004684931471252E-02 a      1056     0    43     1     6
 -1.0366435420944770E-01 a      1057     0    43     1     7
 -1.1610443971857302E-01 a      1058     0    43     1     8
  4.2931852873639507E-02 a      1059     0    43     1     9
  3.8957451257306465E-02 a      1060     0    43     1    10
  1.5150553568185496E-01 a      1061     0    43     1    11
  1.5565986467890739E-02 a      1062     0    43     1    12
 -1.2726361043296691E-01 a      1063     0    43     1    13
  2.4614340612889040E-02 a      1064     0    43     1    14
 -2.2675018404721820E-02 a      1065     0    43     1    15
  5.2526251378178561E-02 a      1066     0    43     1    16
 -9.2702292323268418E-02 a      1067     0    43     1    17
 -8.9755847602003322E-02 a      1068     0    43     1    18
 -2.5267280543351517E-01 a      1069     0    43     1    19
 -5.1460217033464919E-03 a      1070     0    43     1    20
 -1.5149240264552213E-01 a      1071     0    43     1    21
 -8.4081074317504070E-02 a      1072     0    43     1    22
  5.5489788135961504E-02 a      1073     0    43     1    23
 -1.1546464305361960E-01 a      1074     0    43     1    24
 -1.0125375185358582E-01 a      1075     0    43     1    25
  2.8786535438893796E-01 a      1076     0    44     1     1
  2.2128538419524812E-01 a      1077     0    44     1     2
  1.0394071318613265E-01 a      1078     0    44     1     3
  1.2977894803457848E-01 a      1079     0    44     1     4
  1.5292197003664029E-01 a      1080     0    44     1     5
 -3.2920460601004725E-01 a      1081     0    44     1     6
 -2.4785687179292926E-01 a      1082     0    44     1     7
  4.0876519664343948E-02 a      1083     0    44     1     8
  4.1914087840338482E-01 a      1084     0    44     1     9
  2.0679127051699442E-01 a      1085     0    44     1    10
 -6.9975300038314356E-02 a      1086     0    44     1    11
  1.4246129905324673E-01 a      1087     0    44     1    12
  3.1990826454244997E-01 a      1088     0    44     1    13
 -2.1701860826884045E-01 a      1089     0    44     1    14
  1.9168586141800024E-02 a      1090     0    44     1    15
 -5.5730532529099597E-02 a      1091     0    44     1    16
  2.5586179013219218E-01 a      1092     0    44     1    17
  1.1403072588884174E-01 a      1093     0    44     1    18
  7.2256058901197143E-02 a      1094     0    44     1    19
 -3.7733754139274511E-01 a      1095     0    44     1    20
 -1.7856173787774779E-01 a      1096     0    44     1    21
 -5.8410049225373933E-02 a      1097     0    44     1    22
 -3.1359812153429589E-01 a      1098     0    44     1    23
  5.4483047231916257E-02 a      1099     0    44     1    24
  1.3119160578345707E-01 a      1100     0    44     1    25
 -1.7725326705964592E-02 a      1101     0    45     1     1
  3.9282509654458470E-01 a      1102     0    45     1     2
 -8.4869360906877217E-02 a      1103     0    45     1     3
  5.5918015946642563E-01 a      1104     0    45     1     4
 -3.4151015272503477E-01 a      1105     0    45     1     5
  1.9578517308505355E-01 a      1106     0    45     1     6
 -3.9682263712897164E-01 a      1107     0    45     1     7
 -3.8895280582595276E-01 a      1108     0    45     1     8
  1.7600912205069894E-01 a      1109     0    45     1     9
 -2.2507098606989978E-01 a      1110     0    45     1    10
  2.7650920055709588E-01 a      1111     0    45     1    11
 -1.6065947737364070E-02 a      1112     0    45     1    12
  4.5629584535561496E-01 a      1113     0    45     1    13
 -3.3830059551818156E-02 a      1114     0    45     1    14
 -1.0458023276800880E-01 a      1115     0    45     1    15
 -7.1184925931296925E-02 a      1116     0    45     1    16
  2.0297382231988328E-01 a      1117     0    45     1    17
 -1.4250385212878017E-01 a      1118     0    45     1    18
 -2.5386810313404390E-01 a      1119     0    45     1    19
  1.2646736115084057E-02 a      1120     0    45     1    20
  2.5626490702527416E-01 a      1121     0    45     1    21
 -1.7013094202735426E-01 a      1122     0    45     1    22
  2.1477507811916350E-02 a      1123     0    45     1    23
  2.6726801590143401E-01 a      1124     0    45     1    24
  3.0214672440702722E-01 a      1125     0    45     1    25
 -1.8123854679154994E-01 a      1126     0    46     1     1
 -1.0489750715838055E-02 a      1127     0    46     1     2
  1.2126314080433216E-01 a      1128     0    46     1     3
 -2.5902221925647645E-01 a      1129     0    46     1     4
  2.5598894994896704E-01 a      1130     0    46     1     5
  2.2067910870494775E-01 a      1131     0    46     1     6
  9.6984544507853876E-02 a      1132     0    46     1     7
  1.9142096088382130E-01 a      1133     0    46     1     8
  2.9349495370870499E-01 a      1134     0    46     1     9
 -1.2025013665091570E-01 a      1135     0    46     1    10
 -1.1592065632679464E-01 a      1136     0    46     1    11
  3.9717579665980574E-01 a      1137     0    46     1    12
  2.8520663297356008E-01 a      1138     0    46     1    13
  4.4281491187025963E-02 a      1139     0    46     1    14
 -1.2837061694643648E-01 a      1140     0    46     1    15
 -2.0760891078731300E-01 a      1141     0    46     1    16
  3.4432761710547155E-01 a      1142     0    46     1    17
 -9.5725208864262334E-02 a      1143     0    46     1    18
 -2.1908245224223891E-01 a      1144     0    46     1    19
  2.2791603211533551E-01 a      1145     0    46     1    20
  3.6077123522425530E-01 a      1146     0    46     1    21
 -1.0973030019199691E-01 a      1147     0    46     1    22
 -2.3792416234337610E-01 a      1148     0    46     1    23
 -4.4091550858541211E-02 a      1149     0    46     1    24
  1.6644946434627664E-01 a      1150     0    46     1    25
  2.3504052498415570E-01 a      1151     0    47     1     1
  4.1362150253113676E-02 a      1152     0    47     1     2
 -1.0265331818305071E-01 a      1153     0    47     1     3
 -1.1439587533445088E-01 a      1154     0    47     1     4
 -2.7183546189985547E-01 a      1155     0    47     1     5
 -2.1799105345946232E-01 a      1156     0    47     1     6
 -2.2475472087068316E-01 a      1157     0    47     1     7
 -6.4250217197925383E-02 a      1158     0    47     1     8
 -2.6089567487957122E-01 a      1159     0    47     1     9
 -2.3785034410348108E-01 a      1160     0    47     1    10
  2.9400646119443680E-01 a      1161     0    47     1    11
  1.4726640099652175E-01 a      1162     0    47     1    12
 -3.2234312778565721E-03 a      1163     0    47     1    13
 -2.5641297030105478E-03 a      1164     0    47     1    14
  4.7756004137912728E-01 a      1165     0    47     1    15
  6.4226057431008721E-01 a      1166     0    47     1    16
  2.3912049685988701E-01 a      1167     0    47     1    17
 -1.2673839601922790E-02 a      1168     0    47     1    18
  6.5305491727011222E-02 a      1169     0    47     1    19
  2.2224105884008211E-02 a      1170     0    47     1    20
 -6.6483518328860292E-02 a      1171     0    47     1    21
 -1.9346091473709973E-01 a      1172     0    47     1    22
 -1.8406861116391854E-01 a      1173     0    47     1    23
 -1.5721051295892832E-01 a      1174     0    47     1    24
  3.7540349857709149E-01 a      1175     0    47     1    25
  1.7789897966845097E-01 a      1176     0    48     1     1
 -2.1967850151986537E-01 a      1177     0    48     1     2
 -2.8265056660687715E-01 a      1178     0    48     1     3
 -4.6024000064266844E-02 a      1179     0    48     1     4
  3.7210847499136185E-01 a      1180     0    48     1     5
  8.0426524680058578E-02 a      1181     0    48     1     6
  7.1887002803887184E-02 a      1182     0    48     1     7
  9.2859448973947795E-02 a      1183     0    48     1     8
  9.1397276560175017E-02 a      1184     0    48     1     9
 -1.0979246613814990E-01 a      1185     0    48     1    10
  1.2814366952618245E-01 a      1186     0    48     1    11
  3.7386372154053729E-02 a      1187     0    48     1    12
 -1.1772779493944381E-01 a      1188     0    48     1    13
  2.0756349894668030E-03 a      1189     0    48     1    14
 -2.4209650704439176E-01 a      1190     0    48     1    15
 -1.7422033140767504E-01 a      1191     0    48     1    16
  3.2244819079057391E-01 a      1192     0    48     1    17
  6.2029790221598017E-03 a      1193     0    48     1    18
 -6.3974280387105106E-02 a      1194     0    48     1    19
 -1.3094251584144883E-02 a      1195     0    48     1    20
  3.8000217405967686E-02 a      1196     0    48     1    21
 -5.1261881349165461E-03 a      1197     0    48     1    22
 -2.3335085978525683E-02 a      1198     0    48     1    23
  6.5006484522498381E-02 a      1199     0    48     1    24
 -1.6554122532059800E-03 a      1200     0    48     1    25
 -5.8096246287035407E-02 a      1201     0    49     1     1
  8.8334429965626834E-02 a      1202     0    49     1     2
 -4.5598560161874235E-01 a      1203     0    49     1     3
 -2.3896589282198541E-01 a      1204     0    49     1     4
 -2.7159744590475937E-01 a      1205     0    49     1     5
 -9.1508264696468722E-02 a      1206     0    49     1     6
 -1.6874393924360687E-01 a      1207     0    49     1     7
  6.3889711202444932E-01 a      1208     0    49     1     8
  2.7239198949968890E-01 a      1209     0    49     1     9
 -1.6653458904250798E-01 a      1210     0    49     1    10
  4.8436607151110128E-01 a      1211     0    49     1    11
  5.0543697185416336E-01 a      1212     0    49     1    12
 -1.2108676852363666E-01 a      1213     0    49     1    13
  7.7096758469688054E-02 a      1214     0    49     1    14
 -3.5293346388653973E-02 a      1215     0    49     1    15
  2.7063668875652935E-01 a      1216     0    49     1    16
 -2.7885910427430827E-01 a      1217     0    49     1    17
 -1.5778282073895738E-02 a      1218     0    49     1    18
  1.7955090866550746E-01 a      1219     0    49     1    19
 -2.2101652020699841E-02 a      1220     0    49     1    20
 -3.4229996360899606E-01 a      1221     0    49     1    21
 -2.8043107200629686E-01 a      1222     0    49     1    22
  1.4846674487146760E-01 a      1223     0    49     1    23
  2.7212881479123197E-01 a      1224     0    49     1    24
 -1.7879920206202360E-01 a      1225     0    49     1    25
 -7.8425215906303233E-02 a      1226     0    50     1     1
 -1.2329870500547012E-01 a      1227     0    50     1     2
  2.6572724654653934E-01 a      1228     0    50     1     3
 -1.7031498041909632E-01 a      1229     0    50     1     4
 -1.0674743261595297E-01 a      1230     0    50     1     5
 -2.0482804645125685E-01 a      1231     0    50     1     6
  8.2745944476571062E-02 a      1232     0    50     1     7
  9.0861792554479154E-02 a      1233     0    50     1     8
 -2.6303051806690281E-01 a      1234     0    50     1     9
  2.1373268130280115E-01 a      1235     0    50     1    10
 -1.9477981233995975E-01 a      1236     0    50     1    11
  1.5480736683956736E-01 a      1237     0    50     1    12
 -1.9332855258252020E-03 a      1238     0    50     1    13
 -1.4743684609701069E-01 a      1239     0    50     1    14
 -3.2123290019618994E-01 a      1240     0    50     1    15
  4.1579315557019915E-02 a      1241     0    50     1    16
 -7.1216628844961313E-02 a      1242     0    50     1    17
 -1.4318350090858614E-01 a      1243     0    50     1    18
 -3.0579574233423674E-02 a      1244     0    50     1    19
 -2.5580424054324508E-02 a      1245     0    50     1    20
  1.1404443716405832E-01 a      1246     0    50     1    21
  2.3890948020513020E-02 a      1247     0    50     1    22
 -3.0694898592607561E-01 a      1248     0    50     1    23
 -1.1305738713499557E-01 a      1249     0    50     1    24
  1.2421597685649564E-01 a      1250     0    50     1    25
  1.1637474986615803E+00 b      1251     1     1
 -8.8437490526682105E-01 b      1252     1     2
 -8.9454717816505402E-01 b      1253     1     3
 -8.2683933443670621E-01 b      1254     1     4
  7.7619124796607086E-01 b      1255     1     5
 -7.1625849957707965E-01 b      1256     1     6
  1.1448501574932626E+00 b      1257     1     7
 -1.0760423240317523E+00 b      1258     1     8
  2.9862808674764585E-01 b      1259     1     9
  5.1745049922662829E-02 b      1260     1    10
 -5.3311812755666425E-02 b      1261     1    11
  9.2377464272324439E-01 b      1262     1    12
 -5.6116970664105692E-01 b      1263     1    13
  4.2682667350917042E-01 b      1264     1    14
  3.0313935662573882E-01 b      1265     1    15
 -1.0402861984175076E+00 b      1266     1    16
 -1.5019667944869854E+00 b      1267     1    17
  3.6438189372966223E-01 b      1268     1    18
  1.6255321942736041E+00 b      1269     1    19
 -1.1078521728268851E+00 b      1270     1    20
 -1.4610111609084866E+00 b      1271     1    21
  6.7835836483737255E-01 b      1272     1    22
  1.2786504282229041E+00 b      1273     1    23
 -6.5283283251275914E-01 b      1274     1    24
  1.2556976235283723E+00 b      1275     1    25
 -1.1987833815923647E-01 a      1276     1     1     2     1
  3.8663966178778442E-01 a      1277     1     1     2     2
  5.5211520364263585E-02 a      1278     1     1     2     3
  1.2843562665536867E-01 a      1279     1     1     2     4
  3.4376162025049839E-01 a      1280     1     1     2     5
 -9.2800873041584520E-02 a      1281     1     1     2     6
 -5.1739749978550569E-02 a      1282     1     1     2     7
  4.6440182176024886E-01 a      1283     1     1     2     8
 -7.0606361373662125E-04 a      1284     1     1     2     9
 -3.5885600904901521E-01 a      1285     1     1     2    10
  4.9434577696867554E-01 a      1286     1     1     2    11
  1.0043635046358307E-01 a      1287     1     1     2    12
  3.7066971382365432E-01 a      1288     1     1     2    13
 -3.8726477213564403E-01 a      1289     1     1     2    14
  6.1066005612652863E-01 a      1290     1     1     2    15
  1.9692417251801381E-01 a      1291     1     1     2    16
  2.4244477048781374E-01 a      1292     1     1     2    17
  3.1460219157887437E-01 a      1293     1     1     2    18
  6.5960810877599405E-02 a      1294     1     1     2    19
  1.1920935336421273E-01 a      1295     1     1     2    20
 -3.5781476701189198E-03 a      1296     1     1     2    21
  4.0208687758114670E-01 a      1297     1     1     2    22
 -4.4514523745252366E-01 a      1298     1     1     2    23
 -3.3544192605116080E-01 a      1299     1     1     2    24
 -2.1863761736710496E-01 a      1300     1     1     2    25
 -1.3759220764899283E-01 a      1301     1     2     2     1
  1.1999134331163648E-01 a      1302     1     2     2     2
  2.9551710659784902E-01 a      1303     1     2     2     3
  2.7141594696882282E-01 a      1304     1     2     2     4
  3.3224239639473602E-01 a      1305     1     2     2     5
 -5.9014189116269200E-01 a      1306     1     2     2     6
 -4.4442936984392561E-01 a      1307     1     2     2     7
 -4.0257761527900859E-01 a      1308     1     2     2     8
  3.8776238199648289E-01 a      1309     1     2     2     9
  3.4565890326833770E-01 a      1310     1     2     2    10
 -1.1839814823183085E-01 a      1311     1     2     2    11
  3.4534355807250411E-01 a      1312     1     2     2    12
  8.8007633086433223E-03 a      1313     1     2     2    13
 -7.2900205035622723E-01 a      1314     1     2     2    14
  6.0883664987034392E-01 a      1315     1     2     2    15
  2.8086775661409137E-02 a      1316     1     2     2    16
 -5.8636186909806109E-01 a      1317     1     2     2    17
 -4.9627265961658884E-01 a      1318     1     2     2    18
  5.4735672550708947E-01 a      1319     1     2     2    19
  2.1606335841872806E-01 a      1320     1     2     2    20
  5.3470379880676189E-01 a      1321     1     2     2    21
  2.7389192791907763E-01 a      1322     1     2     2    22
 -3.2868777141823452E-01 a      1323     1     2     2    23
 -5.0366202753236125E-02 a      1324     1     2     2    24
 -2.1966623195529897E-01 a      1325     1     2     2    25
  5.9571582393566846E-01 a      1326     1     3     2     1
 -3.5821876950851395E-01 a      1327     1     3     2     2
 -2.7071267744878791E-01 a      1328     1     3     2     3
  6.7371597671915501E-02 a      1329     1     3     2     4
  4.4603485342974375E-01 a      1330     1     3     2     5
 -5.1879334760870699E-01 a      1331     1     3     2     6
 -1.3667841187507448E-01 a      1332     1     3     2     7
 -4.7054124108661938E-01 a      1333     1     3     2     8
 -1.6108166031372192E-01 a      1334     1     3     2     9
 -2.6606837341751943E-01 a      1335     1     3     2    10
  1.8762491783408417E-01 a      1336     1     3     2    11
 -1.0346367067319175E-01 a      1337     1     3     2    12
 -2.0223172950995097E-01 a      1338     1     3     2    13
 -9.7308829086503595E-02 a      1339     1     3     2    14
  1.3233973451908512E-01 a      1340     1     3     2    15
 -5.1032915547178626E-01 a      1341     1     3     2    16
 -4.2691006362947376E-01 a      1342     1     3     2    17
  1.2434113540024432E-01 a      1343     1     3     2    18
 -2.8904131987697157E-01 a      1344     1     3     2    19
 -6.0087791142228952E-01 a      1345     1     3     2    20
  5.8521122247106749E-01 a      1346     1     3     2    21
  2.9760846449542011E-01 a      1347     1     3     2    22
  1.1428224627935206E-01 a      1348     1     3     2    23
 -3.4474389760433255E-01 a      1349     1     3     2    24
  1.6379083174068201E-01 a      1350     1     3     2    25
  3.2548048142026453E-01 a      1351     1     4     2     1
  6.1582064711485085E-02 a      1352     1     4     2     2
 -2.0600578731126878E-01 a      1353     1     4     2     3
 -5.2561037798709498E-01 a      1354     1     4     2     4
  2.6626743117555773E-01 a      1355     1     4     2     5
 -1.8193541480686656E-01 a      1356     1     4     2     6
 -2.5007529864260991E-01 a      1357     1     4     2     7
  3.3103964449105761E-01 a      1358     1     4     2     8
 -2.0115169583282191E-01 a      1359     1     4     2     9
 -1.8423533142808993E-01 a      1360     1     4     2    10
  2.5344107258313219E-02 a      1361     1     4     2    11
  4.1194612188634766E-01 a      1362     1     4     2    12
  6.0483767205528149E-01 a      1363     1     4     2    13
  9.4889792072950230E-02 a      1364     1     4     2    14
  2.9551307716550507E-01 a      1365     1     4     2    15
  1.0844171564851500E-01 a      1366     1     4     2    16
  2.6596795654260735E-01 a      1367     1     4     2    17
  5.3055123919920233E-01 a      1368     1     4     2    18
  1.1268351382490488E-01 a      1369     1     4     2    19
 -3.3614422488728063E-01 a      1370     1     4     2    20
  2.1932086895848169E-01 a      1371     1     4     2    21
 -5.8880146396459843E-01 a      1372     1     4     2    22
  1.3380971149000448E-01 a      1373     1     4     2    23
 -1.1880800409333642E-01 a      1374     1     4     2    24
 -2.3447547472368663E-01 a      1375     1     4     2    25
  4.7365364879659416E-01 a      1376     1     5     2     1
 -7.2777759395990321E-02 a      1377     1     5     2     2
  5.1883513068578790E-01 a      1378     1     5     2     3
  3.2222555204173614E-01 a      1379     1     5     2     4
  2.0087022151151421E-01 a      1380     1     5     2     5
 -2.2748349284319971E-02 a      1381     1     5     2     6
 -6.6118661918090668E-02 a      1382     1     5     2     7
  3.7641513902884410E-01 a      1383     1     5     2     8
 -3.3642865310200148E-01 a      1384     1     5     2     9
 -2.0295764055835533E-01 a      1385     1     5     2    10
 -5.2236340675292314E-01 a      1386     1     5     2    11
  6.2549740346899266E-02 a      1387     1     5     2    12
  4.6302536265920036E-01 a      1388     1     5     2    13
  5.7096690041212717E-01 a      1389     1     5     2    14
 -3.3861087863685735E-01 a      1390     1     5     2    15
 -1.7030287031129654E-01 a      1391     1     5     2    16
 -3.6358583822554713E-01 a      1392     1     5     2    17
  4.5805607347468086E-01 a      1393     1     5     2    18
 -3.2212691265287957E-01 a      1394     1     5     2    19
  1.9251500255540435E-01 a      1395     1     5     2    20
  3.8378795940240518E-01 a      1396     1     5     2    21
 -1.6749858448139332E-01 a      1397     1     5     2    22
 -8.2644903349792381E-02 a      1398     1     5     2    23
  2.8453744706437711E-01 a      1399     1     5     2    24
  2.8762629682437374E-01 a      1400     1     5     2    25
  1.6920995651563051E-01 a      1401     1     6     2     1
 -3.7782948406575606E-01 a      1402     1     6     2     2
 -4.6604421484082809E-01 a      1403     1     6     2     3
  6.8007831370473582E-01 a      1404     1     6     2     4
  2.1026699858642683E-01 a      1405     1     6     2     5
  2.9556482160706356E-02 a      1406     1     6     2     6
  4.6327346596640084E-01 a      1407     1     6     2     7
  1.9193366211539928E-01 a      1408     1     6     2     8
 -3.5268261968681497E-01 a      1409     1     6     2     9
 -5.1535528489280460E-02 a      1410     1     6     2    10
  3.8205723516591888E-01 a      1411     1     6     2    11
 -7.2114096543588802E-02 a      1412     1     6     2    12
  4.4474241256813080E-01 a      1413     1     6     2    13
  3.5089496240158870E-02 a      1414     1     6     2    14
  2.6010365008585168E-01 a      1415     1     6     2    15
  3.8762401137536245E-01 a      1416     1     6     2    16
 -2.6841236358610989E-02 a      1417     1     6     2    17
  5.6431155936188915E-01 a      1418     1     6     2    18
 -4.8662450593372528E-02 a      1419     1     6     2    19
  2.0643329275266692E-01 a      1420     1     6     2    20
  1.7004938521580928E-01 a      1421     1     6     2    21
 -2.7531627558110677E-01 a      1422     1     6     2    22
 -7.3950458952876788E-02 a      1423     1     6     2    23
 -9.9591345683981716E-02 a      1424     1     6     2    24
  4.8215474954384641E-01 a      1425     1     6     2    25
  2.6650274474889796E-01 a      1426     1     7     2     1
 -5.9895518934030989E-01 a      1427     1     7     2     2
  4.2437198306385965E-01 a      1428     1     7     2     3
 -1.3197022096810063E-01 a      1429     1     7     2     4
 -4.9555015034106586E-01 a      1430     1     7     2     5
 -3.9570819927013884E-01 a      1431     1     7     2     6
  5.8745196424719670E-01 a      1432     1     7     2     7
  1.3452169599778241E-01 a      1433     1     7     2     8
 -5.0222125362616366E-01 a      1434     1     7     2     9
 -1.7171576330041757E-01 a      1435     1     7     2    10
  4.6548827021996020E-01 a      1436     1     7     2    11
  1.4991037239233847E-02 a      1437     1     7     2    12
  5.8689920113599130E-02 a      1438     1     7     2    13
 -3.6835227804749610E-01 a      1439     1     7     2    14
 -2.4194121635751636E-01 a      1440     1     7     2    15
 -4.4826543590480772E-01 a      1441     1     7     2    16
  9.5122061819916170E-02 a      1442     1     7     2    17
 -4.8129642201954854E-03 a      1443     1     7     2    18
  4.4741369667068803E-01 a      1444     1     7     2    19
  3.6280869708758545E-01 a      1445     1     7     2    20
 -3.8946360153334908E-01 a      1446     1     7     2    21
  2.6609363828020210E-01 a      1447     1     7     2    22
  4.0816554209259381E-01 a      1448     1     7     2    23
  1.2169902931537441E-01 a      1449     1     7     2    24
  7.4130368427251861E-02 a      1450     1     7     2    25
  3.1131280132928774E-01 a      1451     1     8     2     1
  5.0500285559983593E-01 a      1452     1     8     2     2
  8.9022361225584490E-02 a      1453     1     8     2     3
 -5.0034821760449077E-01 a      1454     1     8     2     4
  2.4464502954146855E-01 a      1455     1     8     2     5
  2.1636471238585339E-01 a      1456     1     8     2     6
 -3.8535210785785520E-02 a      1457     1     8     2     7
  1.4032668145283628E-01 a      1458     1     8     2     8
  4.2725714692627575E-01 a      1459     1     8     2     9
  4.6753253957474566E-01 a      1460     1     8     2    10
  4.0604074725933736E-01 a      1461     1     8     2    11
 -5.6251333280452642E-01 a      1462     1     8     2    12
  1.1179465284732740E-01 a      1463     1     8     2    13
 -3.0393080997195210E-01 a      1464     1     8     2    14
  3.6338149981959134E-01 a      1465     1     8     2    15
  4.9779148408660900E-01 a      1466     1     8     2    16
  4.9416639901108739E-01 a      1467     1     8     2    17
 -4.3698476976926720E-01 a      1468     1     8     2    18
  4.3619875356023519E-01 a      1469     1     8     2    19
  7.0441950350301943E-02 a      1470     1     8     2    20
  7.0305807276926993E-02 a      1471     1     8     2    21
 -5.8831580989398469E-01 a      1472     1     8     2    22
  4.8363681692598137E-01 a      1473     1     8     2    23
  3.4522826360943243E-01 a      1474     1     8     2    24
  5.8212457607427237E-01 a      1475     1     8     2    25
 -2.5798832344225964E-02 a      1476     1     9     2     1
 -1.6536759115778341E-01 a      1477     1     9     2     2
 -1.0950665147568278E-01 a      1478     1     9     2     3
  1.7700851056378941E-01 a      1479     1     9     2     4
 -5.8831509274955629E-01 a      1480     1     9     2     5
  1.2417025911577237E-01 a      1481     1     9     2     6
  3.4503324342392649E-01 a      1482     1     9     2     7
  1.0823993769281386E-01 a      1483     1     9     2     8
  1.2193033357157479E-01 a      1484     1     9     2     9
 -1.9115659897197104E-01 a      1485     1     9     2    10
 -2.8175845598395699E-01 a      1486     1     9     2    11
  1.5344506695966081E-01 a      1487     1     9     2    12
 -2.4055071602077890E-01 a      1488     1     9     2    13
  2.7256731627537395E-01 a      1489     1     9     2    14
  2.3717351942620837E-01 a      1490     1     9     2    15
 -1.9932960649945264E-01 a      1491     1     9     2    16
 -2.1938604942976669E-01 a      1492     1     9     2    17
  3.9605513214677635E-01 a      1493     1     9     2    18
 -5.0966434977509201E-01 a      1494     1     9     2    19
 -1.7148013777330889E-01 a      1495     1     9     2    20
  2.6477841276146180E-01 a      1496     1     9     2    21
  3.1247357523856556E-01 a      1497     1     9     2    22
  2.4736837048337018E-01 a      1498     1     9     2    23
  3.5302151927105820E-02 a      1499     1     9     2    24
  3.9630150057151092E-01 a      1500     1     9     2    25
  5.6538310187954161E-02 a      1501     1    10     2     1
 -3.5523155424807218E-01 a      1502     1    10     2     2
 -1.5631965172969575E-01 a      1503     1    10     2     3
 -3.6733379792539156E-01 a      1504     1    10     2     4
 -5.6099028713235697E-03 a      1505     1    10     2     5
 -7.5258730901606327E-02 a      1506     1    10     2     6
  3.0498460789750292E-01 a      1507     1    10     2     7
  5.7650132288442313E-01 a      1508     1    10     2     8
 -4.6333595448438993E-02 a      1509     1    10     2     9
 -1.5570603818453510E-01 a      1510     1    10     2    10
  1.8297920139579303E-03 a      1511     1    10     2    11
  4.4163979659253388E-01 a      1512     1    10     2    12
  3.7631141610721819E-01 a      1513     1    10     2    13
 -4.5614869667607028E-01 a      1514     1    10     2    14
 -1.5453485297792532E-01 a      1515     1    10     2    15
 -1.3011728301447809E-01 a      1516     1    10     2    16
  6.8253961131268484E-02 a      1517     1    10     2    17
 -6.4983465593676748E-01 a      1518     1    10     2    18
 -2.5319969634433176E-01 a      1519     1    10     2    19
 -1.8617729978307435E-01 a      1520     1    10     2    20
  6.2837185766198145E-01 a      1521     1    10     2    21
 -7.8218019624270538E-02 a      1522     1    10     2    22
 -1.7581296777078281E-01 a      1523     1    10     2    23
  4.6442822869691064E-01 a      1524     1    10     2    24
  3.6451580622136476E-01 a      1525     1    10     2    25
 -5.3671292231153978E-01 a      1526     1    11     2     1
 -3.8153093804199723E-01 a      1527     1    11     2     2
  2.3534820836459810E-01 a      1528     1    11     2     3
  2.4954387091535715E-01 a      1529     1    11     2     4
 -1.3726330487517766E-01 a      1530     1    11     2     5
  2.0972656707703707E-02 a      1531     1    11     2     6
  5.5088946211832734E-01 a      1532     1    11     2     7
  1.3156467945251275E-02 a      1533     1    11     2     8
  2.3894204636225769E-01 a      1534     1    11     2     9
  1.0592098750331018E-01 a      1535     1    11     2    10
  4.3545819748604214E-01 a      1536     1    11     2    11
 -1.0547801083180481E-03 a      1537     1    11     2    12
  2.8655184242987169E-01 a      1538     1    11     2    13
 -2.2186649820587203E-03 a      1539     1    11     2    14
 -2.3096489655004074E-01 a      1540     1    11     2    15
 -4.5853494314708942E-01 a      1541     1    11     2    16
  3.6554174915484938E-01 a      1542     1    11     2    17
 -4.0140348100676800E-02 a      1543     1    11     2    18
 -2.0580155998778019E-01 a      1544     1    11     2    19
 -2.4498517133201704E-02 a      1545     1    11     2    20
 -2.0614170586721627E-02 a      1546     1    11     2    21
 -2.8013848732276726E-02 a      1547     1    11     2    22
 -1.8859058326433178E-01 a      1548     1    11     2    23
 -5.9894321845837628E-01 a      1549     1    11     2    24
 -7.4112258895610938E-01 a      1550     1    11     2    25
  2.0262869032777700E-01 a      1551     1    12     2     1
 -5.6704191988001612E-02 a      1552     1    12     2     2
  3.0368648879181570E-01 a      1553     1    12     2     3
 -3.6293298401028062E-01 a      1554     1    12     2     4
 -1.9515810419558166E-01 a      1555     1    12     2     5
 -6.9868356498753878E-02 a      1556     1    12     2     6
  1.5524269049393108E-01 a      1557     1    12     2     7
  2.0738082769772490E-01 a      1558     1    12     2     8
 -3.3290224115680250E-01 a      1559     1    12     2     9
 -5.2788335538002784E-01 a      1560     1    12     2    10
  1.5482992699506619E-02 a      1561     1    12     2    11
 -3.0475706417611853E-01 a      1562     1    12     2    12
 -5.2993657095235835E-01 a      1563     1    12     2    13
  4.7270293427926441E-01 a      1564     1    12     2    14
 -2.1347189779887590E-01 a      1565     1    12     2    15
 -4.9196825020908158E-01 a      1566     1    12     2    16
  4.1788406331494982E-01 a      1567     1    12     2    17
  1.0393741966112280E-01 a      1568     1    12     2    18
 -5.4098256348035256E-01 a      1569     1    12     2    19
 -4.4405332807163039E-01 a      1570     1    12     2    20
  3.4961924826056873E-01 a      1571     1    12     2    21
 -1.3479971579912059E-01 a      1572     1    12     2    22
 -5.2979581529770281E-01 a      1573     1    12     2    23
 -2.6912801341603332E-01 a      1574     1    12     2    24
 -2.3980136327303470E-01 a      1575     1    12     2    25
 -4.8678250295844222E-01 a      1576     1    13     2     1
 -3.2552875770820340E-02 a      1577     1    13     2     2
  5.9758233910457959E-01 a      1578     1    13     2     3
  5.3640748382194781E-01 a      1579     1    13     2     4
 -4.2243619770118604E-02 a      1580     1    13     2     5
 -4.0512191653979368E-01 a      1581     1    13     2     6
 -8.0444382444876936E-02 a      1582     1    13     2     7
  3.5661000290178518E-01 a      1583     1    13     2     8
 -1.4076443467061556E-01 a      1584     1    13     2     9
  3.6879458154059835E-01 a      1585     1    13     2    10
  9.6847978000891538E-02 a      1586     1    13     2    11
 -3.2664772817543120E-01 a      1587     1    13     2    12
 -2.8834395248924688E-01 a      1588     1    13     2    13
  5.7133664128849715E-01 a      1589     1    13     2    14
  9.4480677658591472E-02 a      1590     1    13     2    15
  2.4700477351461358E-02 a      1591     1    13     2    16
  9.1476612327970858E-02 a      1592     1    13     2    17
  4.9127028643584075E-01 a      1593     1    13     2    18
 -1.4594125056029177E-02 a      1594     1    13     2    19
 -3.3157258792373229E-01 a      1595     1    13     2    20
  1.3863551547769143E-01 a      1596     1    13     2    21
 -4.4106867274101076E-02 a      1597     1    13     2    22
 -2.9419366626148258E-01 a      1598     1    13     2    23
  1.3610262636225698E-01 a      1599     1    13     2    24
  3.0873983124350651E-01 a      1600     1    13     2    25
  8.4519731306060747E-02 a      1601     1    14     2     1
  2.5698233020569633E-01 a      1602     1    14     2     2
 -9.7156155711170408E-02 a      1603     1    14     2     3
  7.6341854976732057E-02 a      1604     1    14     2     4
 -6.4351994104391730E-01 a      1605     1    14     2     5
 -4.9977810591697497E-01 a      1606     1    14     2     6
  8.9519595233750943E-02 a      1607     1    14     2     7
 -1.9522152952786440E-01 a      1608     1    14     2     8
  1.0633406945222676E-01 a      1609     1    14     2     9
 -1.4812530598041962E-01 a      1610     1    14     2    10
 -3.0237625919517980E-01 a      1611     1    14     2    11
  2.4550375167556099E-01 a      1612     1    14     2    12
 -2.4281300787356216E-01 a      1613     1    14     2    13
 -5.6798206407649911E-02 a      1614     1    14     2    14
 -3.2438046123791298E-01 a      1615     1    14     2    15
 -4.2343951507634169E-02 a      1616     1    14     2    16
 -4.0436914620742243E-01 a      1617     1    14     2    17
 -4.9450284514216403E-01 a      1618     1    14     2    18
  1.0001648707203735E-01 a      1619     1    14     2    19
 -2.6863900425166837E-01 a      1620     1    14     2    20
  2.9454513667365384E-01 a      1621     1    14     2    21
  1.7421421043974766E-01 a      1622     1    14     2    22
 -1.3968466562076301E-01 a      1623     1    14     2    23
 -4.6275404458311620E-01 a      1624     1    14     2    24
  2.4580590661075336E-02 a      1625     1    14     2    25
  1.4310663814752950E-01 a      1626     1    15     2     1
 -1.7569144446698837E-01 a      1627     1    15     2     2
  4.9067074040622211E-01 a      1628     1    15     2     3
